{"learner":{"attributes":{"scikit_learn":"{\"_estimator_type\": \"regressor\"}"},"feature_names":[],"feature_types":[],"gradient_booster":{"model":{"gbtree_model_param":{"num_parallel_tree":"1","num_trees":"300"},"iteration_indptr":[0,1,2,3,4,5,6,7,8,9,10,11,12,13,14,15,16,17,18,19,20,21,22,23,24,25,26,27,28,29,30,31,32,33,34,35,36,37,38,39,40,41,42,43,44,45,46,47,48,49,50,51,52,53,54,55,56,57,58,59,60,61,62,63,64,65,66,67,68,69,70,71,72,73,74,75,76,77,78,79,80,81,82,83,84,85,86,87,88,89,90,91,92,93,94,95,96,97,98,99,100,101,102,103,104,105,106,107,108,109,110,111,112,113,114,115,116,117,118,119,120,121,122,123,124,125,126,127,128,129,130,131,132,133,134,135,136,137,138,139,140,141,142,143,144,145,146,147,148,149,150,151,152,153,154,155,156,157,158,159,160,161,162,163,164,165,166,167,168,169,170,171,172,173,174,175,176,177,178,179,180,181,182,183,184,185,186,187,188,189,190,191,192,193,194,195,196,197,198,199,200,201,202,203,204,205,206,207,208,209,210,211,212,213,214,215,216,217,218,219,220,221,222,223,224,225,226,227,228,229,230,231,232,233,234,235,236,237,238,239,240,241,242,243,244,245,246,247,248,249,250,251,252,253,254,255,256,257,258,259,260,261,262,263,264,265,266,267,268,269,270,271,272,273,274,275,276,277,278,279,280,281,282,283,284,285,286,287,288,289,290,291,292,293,294,295,296,297,298,299,300],"tree_info":[0,0,0,0,0,0,0,0,0,0,0,0,0,0,0,0,0,0,0,0,0,0,0,0,0,0,0,0,0,0,0,0,0,0,0,0,0,0,0,0,0,0,0,0,0,0,0,0,0,0,0,0,0,0,0,0,0,0,0,0,0,0,0,0,0,0,0,0,0,0,0,0,0,0,0,0,0,0,0,0,0,0,0,0,0,0,0,0,0,0,0,0,0,0,0,0,0,0,0,0,0,0,0,0,0,0,0,0,0,0,0,0,0,0,0,0,0,0,0,0,0,0,0,0,0,0,0,0,0,0,0,0,0,0,0,0,0,0,0,0,0,0,0,0,0,0,0,0,0,0,0,0,0,0,0,0,0,0,0,0,0,0,0,0,0,0,0,0,0,0,0,0,0,0,0,0,0,0,0,0,0,0,0,0,0,0,0,0,0,0,0,0,0,0,0,0,0,0,0,0,0,0,0,0,0,0,0,0,0,0,0,0,0,0,0,0,0,0,0,0,0,0,0,0,0,0,0,0,0,0,0,0,0,0,0,0,0,0,0,0,0,0,0,0,0,0,0,0,0,0,0,0,0,0,0,0,0,0,0,0,0,0,0,0,0,0,0,0,0,0,0,0,0,0,0,0,0,0,0,0,0,0,0,0,0,0,0,0,0,0,0,0,0,0,0,0,0,0,0,0],"trees":[{"base_weights":[-6.314282E-7,-7.5168724E1,5.405825E2,-1.1819558E2,5.455578E1,3.865639E2,9.580275E2,-1.4437572E2,-7.7100006E1,1.1148084E1,1.3830386E2,3.125832E2,5.157326E1,7.759901E1,1.1933877E2,-1.5896603E2,-1.2652772E2,-9.012643E1,-5.229055E1,-1.1365129E1,4.0723244E1,1.02473076E2,1.8446165E1,2.6243671E1,3.5157585E1,-1.6626455E1,-1.4967856E1,-1.3342812E1,-1.1852079E1,-9.996207E0,-8.251163E0,-6.172626E0,-4.129773E0,-2.1403223E1,-3.04269E-1,2.610606E1,5.435221E1,8.424941E0,1.1521964E1,-2.6941803E0,-1.6278142E0,-5.5963624E-1,7.370634E-1,1.9288206E0,3.1991556E0,4.6191673E0,6.0863047E0],"categories":[],"categories_nodes":[],"categories_segments":[],"categories_sizes":[],"default_left":[0,0,0,0,0,0,0,0,0,0,0,0,0,0,0,0,0,0,0,0,0,0,0,0,0,0,0,0,0,0,0,0,0,0,0,0,0,0,0,0,0,0,0,0,0,0,0],"id":0,"left_children":[1,3,5,7,9,11,13,15,17,19,21,23,-1,-1,-1,25,27,29,31,33,35,37,-1,-1,-1,-1,-1,-1,-1,-1,-1,-1,-1,39,41,43,45,-1,-1,-1,-1,-1,-1,-1,-1,-1,-1],"loss_changes":[7.1232984E7,8.596587E6,1.338864E7,1.232595E6,1.3944179E6,1.348636E6,1.516076E6,1.63474E5,1.41364E5,1.6958412E5,1.977545E5,1.09135E5,0E0,0E0,0E0,1.143E3,1.9765E3,1.38465E4,1.38394375E4,1.6092832E4,2.0494969E4,7.94675E3,0E0,0E0,0E0,0E0,0E0,0E0,0E0,0E0,0E0,0E0,0E0,1.7187461E3,2.88439E3,1.5898945E3,1.6401562E2,0E0,0E0,0E0,0E0,0E0,0E0,0E0,0E0,0E0,0E0],"parents":[2147483647,0,0,1,1,2,2,3,3,4,4,5,5,6,6,7,7,8,8,9,9,10,10,11,11,15,15,16,16,17,17,18,18,19,19,20,20,21,21,33,33,34,34,35,35,36,36],"right_children":[2,4,6,8,10,12,14,16,18,20,22,24,-1,-1,-1,26,28,30,32,34,36,38,-1,-1,-1,-1,-1,-1,-1,-1,-1,-1,-1,40,42,44,46,-1,-1,-1,-1,-1,-1,-1,-1,-1,-1],"split_conditions":[9.6777403E-1,-1.3161542E-1,2.81617E0,-4.555223E-1,3.106004E-1,1.7185094E0,4.0467753E0,-5.8432794E-1,-2.910635E-1,5.7039842E-2,5.8531755E-1,1.2628865E0,5.157326E1,7.759901E1,1.1933877E2,-6.471687E-1,-5.170643E-1,-3.7364647E-1,-2.0751223E-1,-4.567698E-2,1.5930796E-1,4.1140977E-1,1.8446165E1,2.6243671E1,3.5157585E1,-1.6626455E1,-1.4967856E1,-1.3342812E1,-1.1852079E1,-9.996207E0,-8.251163E0,-6.172626E0,-4.129773E0,-8.9531735E-2,8.800732E-3,1.0923485E-1,2.2281332E-1,8.424941E0,1.1521964E1,-2.6941803E0,-1.6278142E0,-5.5963624E-1,7.370634E-1,1.9288206E0,3.1991556E0,4.6191673E0,6.0863047E0],"split_indices":[3,3,3,3,3,3,3,3,3,3,3,3,0,0,0,3,3,3,3,3,3,3,0,0,0,0,0,0,0,0,0,0,0,3,3,3,3,0,0,0,0,0,0,0,0,0,0],"split_type":[0,0,0,0,0,0,0,0,0,0,0,0,0,0,0,0,0,0,0,0,0,0,0,0,0,0,0,0,0,0,0,0,0,0,0,0,0,0,0,0,0,0,0,0,0,0,0],"sum_hessian":[1.751E3,1.538E3,2.13E2,1.155E3,3.83E2,1.57E2,5.6E1,7.04E2,4.51E2,2.53E2,1.3E2,1.02E2,5.5E1,3.4E1,2.2E1,3.83E2,3.21E2,2.94E2,1.57E2,1.44E2,1.09E2,7.5E1,5.5E1,4.8E1,5.4E1,2.05E2,1.78E2,1.64E2,1.57E2,1.23E2,1.71E2,8.2E1,7.5E1,7.5E1,6.9E1,5.4E1,5.5E1,3.4E1,4.1E1,3.4E1,4.1E1,4.1E1,2.8E1,2.7E1,2.7E1,2.8E1,2.7E1],"tree_param":{"num_deleted":"0","num_feature":"730","num_nodes":"47","size_leaf_vector":"1"}},{"base_weights":[1.5676439E-1,-6.894315E1,4.7916547E2,-1.07383835E2,4.3507473E1,3.3128384E2,8.367612E2,-1.3149713E2,-7.287662E1,6.4433904E0,1.17020584E2,2.6609332E2,4.279322E1,6.462387E1,1.03114555E2,-1.4394487E1,-1.16359215E1,-8.4757034E1,-5.146866E1,-1.3103776E1,3.3395443E1,9.016672E1,1.6011957E1,2.2716091E1,2.9959524E1,-9.472412E0,-7.737896E0,-5.9642406E0,-4.0466704E0,-2.26549E1,-3.2545614E0,1.9139347E1,4.4123726E1,7.147983E0,1.0167436E1,-2.687099E0,-1.7106829E0,-7.600796E-1,4.0514332E-1,1.3180846E0,2.2794147E0,3.3451378E0,4.8409333E0],"categories":[],"categories_nodes":[],"categories_segments":[],"categories_sizes":[],"default_left":[0,0,0,0,0,0,0,0,0,0,0,0,0,0,0,0,0,0,0,0,0,0,0,0,0,0,0,0,0,0,0,0,0,0,0,0,0,0,0,0,0,0,0],"id":1,"left_children":[1,3,5,7,9,11,13,15,17,19,21,23,-1,-1,-1,-1,-1,25,27,29,31,33,-1,-1,-1,-1,-1,-1,-1,35,37,39,41,-1,-1,-1,-1,-1,-1,-1,-1,-1,-1],"loss_changes":[5.8023296E7,6.627016E6,1.1409676E7,9.40655E5,1.064602E6,8.81618E5,1.703848E6,1.09689E5,1.15684E5,1.3794188E5,1.3717862E5,5.8462E4,0E0,0E0,0E0,0E0,0E0,1.48785E4,1.2964031E4,1.422507E4,1.5979281E4,1.05808125E4,0E0,0E0,0E0,0E0,0E0,0E0,0E0,1.3414414E3,2.4440657E3,7.6663086E2,1.2163594E3,0E0,0E0,0E0,0E0,0E0,0E0,0E0,0E0,0E0,0E0],"parents":[2147483647,0,0,1,1,2,2,3,3,4,4,5,5,6,6,7,7,8,8,9,9,10,10,11,11,17,17,18,18,19,19,20,20,21,21,29,29,30,30,31,31,32,32],"right_children":[2,4,6,8,10,12,14,16,18,20,22,24,-1,-1,-1,-1,-1,26,28,30,32,34,-1,-1,-1,-1,-1,-1,-1,36,38,40,42,-1,-1,-1,-1,-1,-1,-1,-1,-1,-1],"split_conditions":[9.020914E-1,-1.4813924E-1,2.55612E0,-4.677385E-1,2.8408924E-1,1.5598075E0,3.7520788E0,-5.9358174E-1,-3.1291777E-1,4.5961536E-2,5.8531755E-1,1.2157862E0,4.279322E1,6.462387E1,1.03114555E2,-1.4394487E1,-1.16359215E1,-3.938144E-1,-2.3131542E-1,-5.9334293E-2,1.4172126E-1,3.8749433E-1,1.6011957E1,2.2716091E1,2.9959524E1,-9.472412E0,-7.737896E0,-5.9642406E0,-4.0466704E0,-9.897617E-2,-5.7343314E-3,7.969379E-2,1.8735375E-1,7.147983E0,1.0167436E1,-2.687099E0,-1.7106829E0,-7.600796E-1,4.0514332E-1,1.3180846E0,2.2794147E0,3.3451378E0,4.8409333E0],"split_indices":[3,3,3,3,3,3,3,3,3,3,3,3,0,0,0,0,0,3,3,3,3,3,0,0,0,0,0,0,0,3,3,3,3,0,0,0,0,0,0,0,0,0,0],"split_type":[0,0,0,0,0,0,0,0,0,0,0,0,0,0,0,0,0,0,0,0,0,0,0,0,0,0,0,0,0,0,0,0,0,0,0,0,0,0,0,0,0,0,0],"sum_hessian":[1.751E3,1.531E3,2.2E2,1.141E3,3.9E2,1.57E2,6.3E1,6.7E2,4.71E2,2.6E2,1.3E2,9.6E1,6.1E1,3.4E1,2.9E1,3.63E2,3.07E2,3.01E2,1.7E2,1.51E2,1.09E2,8.2E1,4.8E1,4.8E1,4.8E1,1.23E2,1.78E2,9.5E1,7.5E1,7.6E1,7.5E1,4.8E1,6.1E1,3.4E1,4.8E1,4.1E1,3.5E1,4.7E1,2.8E1,2E1,2.8E1,2E1,4.1E1],"tree_param":{"num_deleted":"0","num_feature":"730","num_nodes":"43","size_leaf_vector":"1"}},{"base_weights":[2.839602E-1,-5.978908E1,4.4894406E2,-9.4578514E1,5.1040524E1,3.4120886E2,8.51906E2,-1.1629368E2,-5.9490494E1,1.5079994E1,1.22259964E2,2.6960736E2,4.7576164E1,7.128885E1,1.0419427E2,-1.27866615E2,-1.0026203E2,-7.082871E1,-3.815133E1,-3.7021618E0,4.0941055E1,9.34135E1,1.645063E1,2.2121489E1,3.0219831E1,-1.3592635E1,-1.2041796E1,-1.0496619E1,-9.239722E0,-7.602577E0,-6.144431E0,-4.536749E0,-2.832839E0,-1.2003206E1,7.470239E0,2.9675537E1,5.29804E0,7.898006E0,1.0806468E1,-1.6138605E0,-7.582017E-1,1.2947203E-1,1.2197219E0,2.1816638E0,3.3767545E0],"categories":[],"categories_nodes":[],"categories_segments":[],"categories_sizes":[],"default_left":[0,0,0,0,0,0,0,0,0,0,0,0,0,0,0,0,0,0,0,0,0,0,0,0,0,0,0,0,0,0,0,0,0,0,0,0,0,0,0,0,0,0,0,0,0],"id":2,"left_children":[1,3,5,7,9,11,13,15,17,19,21,23,-1,-1,-1,25,27,29,31,33,35,37,-1,-1,-1,-1,-1,-1,-1,-1,-1,-1,-1,39,41,43,-1,-1,-1,-1,-1,-1,-1,-1,-1],"loss_changes":[4.7247412E7,5.9657385E6,8.695848E6,8.89888E5,9.457592E5,1.461372E6,3.93204E5,1.21877E5,1.0665825E5,1.2012601E5,1.357465E5,1.066365E5,0E0,0E0,0E0,8.726E3,1.73375E3,9.667375E3,9.985344E3,1.3444601E4,1.253325E4,7.5365E3,0E0,0E0,0E0,0E0,0E0,0E0,0E0,0E0,0E0,0E0,0E0,1.3951572E3,1.7940842E3,1.0641953E3,0E0,0E0,0E0,0E0,0E0,0E0,0E0,0E0,0E0],"parents":[2147483647,0,0,1,1,2,2,3,3,4,4,5,5,6,6,7,7,8,8,9,9,10,10,11,11,15,15,16,16,17,17,18,18,19,19,20,20,21,21,33,33,34,34,35,35],"right_children":[2,4,6,8,10,12,14,16,18,20,22,24,-1,-1,-1,26,28,30,32,34,36,38,-1,-1,-1,-1,-1,-1,-1,-1,-1,-1,-1,40,42,44,-1,-1,-1,-1,-1,-1,-1,-1,-1],"split_conditions":[9.983091E-1,-1.1072984E-1,3.0801342E0,-4.3871891E-1,3.48068E-1,1.9575124E0,4.6461253E0,-5.704092E-1,-2.7432576E-1,9.181521E-2,6.8931955E-1,1.3194739E0,4.7576164E1,7.128885E1,1.0419427E2,-6.527931E-1,-5.014686E-1,-3.490185E-1,-1.8347867E-1,-1.767448E-2,2.0674725E-1,4.8906302E-1,1.645063E1,2.2121489E1,3.0219831E1,-1.3592635E1,-1.2041796E1,-1.0496619E1,-9.239722E0,-7.602577E0,-6.144431E0,-4.536749E0,-2.832839E0,-5.9334293E-2,3.28325E-2,1.4172126E-1,5.29804E0,7.898006E0,1.0806468E1,-1.6138605E0,-7.582017E-1,1.2947203E-1,1.2197219E0,2.1816638E0,3.3767545E0],"split_indices":[3,3,3,3,3,3,3,3,3,3,3,3,0,0,0,3,3,3,3,3,3,3,0,0,0,0,0,0,0,0,0,0,0,3,3,3,0,0,0,0,0,0,0,0,0],"split_type":[0,0,0,0,0,0,0,0,0,0,0,0,0,0,0,0,0,0,0,0,0,0,0,0,0,0,0,0,0,0,0,0,0,0,0,0,0,0,0,0,0,0,0,0,0],"sum_hessian":[1.751E3,1.545E3,2.06E2,1.176E3,3.69E2,1.64E2,4.2E1,7.25E2,4.51E2,2.46E2,1.23E2,1.09E2,5.5E1,2.7E1,1.5E1,4.17E2,3.08E2,2.93E2,1.58E2,1.43E2,1.03E2,7.5E1,4.8E1,4.7E1,6.2E1,1.92E2,2.25E2,1.85E2,1.23E2,1.84E2,1.09E2,8.9E1,6.9E1,8.2E1,6.1E1,5.5E1,4.8E1,4.1E1,3.4E1,4.1E1,4.1E1,2.7E1,3.4E1,2.1E1,3.4E1],"tree_param":{"num_deleted":"0","num_feature":"730","num_nodes":"45","size_leaf_vector":"1"}},{"base_weights":[4.004845E-1,-5.5887413E1,3.905935E2,-8.671561E1,3.6501873E1,2.6862527E2,6.855996E2,-1.0497437E2,-5.60549E1,6.096391E0,9.517737E1,2.1965358E2,3.5390133E1,5.568182E1,8.9095695E1,-1.15545296E2,-9.104993E1,-6.543479E1,-3.9433735E1,-9.011932E0,2.8332981E1,7.0907524E1,1.2641542E2,1.848586E1,2.4665901E1,-1.2114253E1,-1.0725869E1,-9.597243E0,-8.461683E0,-7.167979E0,-5.987311E0,-4.63387E0,-3.1373922E1,-1.5714873E1,7.0674425E-1,1.7950779E1,3.6726067E1,6.032359E0,8.158233E0,1.0070776E1,1.3896266E1,-3.3723073E0,-2.6142414E0,-1.9707054E0,-1.0683166E0,-3.198931E-1,5.39612E-1,1.2938699E0,2.1068742E0,2.7484488E0,3.91522E0],"categories":[],"categories_nodes":[],"categories_segments":[],"categories_sizes":[],"default_left":[0,0,0,0,0,0,0,0,0,0,0,0,0,0,0,0,0,0,0,0,0,0,0,0,0,0,0,0,0,0,0,0,0,0,0,0,0,0,0,0,0,0,0,0,0,0,0,0,0,0,0],"id":3,"left_children":[1,3,5,7,9,11,13,15,17,19,21,23,-1,-1,-1,25,27,29,31,33,35,37,39,-1,-1,-1,-1,-1,-1,-1,-1,-1,41,43,45,47,49,-1,-1,-1,-1,-1,-1,-1,-1,-1,-1,-1,-1,-1,-1],"loss_changes":[3.8501256E7,4.366599E6,7.767716E6,6.37357E5,6.844975E5,5.8209E5,1.196458E6,9.53125E4,6.4614625E4,8.558856E4,9.0352875E4,5.1187E4,0E0,0E0,0E0,5.791E3,1.85425E3,5.224875E3,7.3392812E3,9.91295E3,8.316023E3,3.6652188E3,4.06875E3,0E0,0E0,0E0,0E0,0E0,0E0,0E0,0E0,0E0,5.240625E1,1.5973398E3,1.171118E3,4.775166E2,1.7952344E2,0E0,0E0,0E0,0E0,0E0,0E0,0E0,0E0,0E0,0E0,0E0,0E0,0E0,0E0],"parents":[2147483647,0,0,1,1,2,2,3,3,4,4,5,5,6,6,7,7,8,8,9,9,10,10,11,11,15,15,16,16,17,17,18,18,19,19,20,20,21,21,22,22,32,32,33,33,34,34,35,35,36,36],"right_children":[2,4,6,8,10,12,14,16,18,20,22,24,-1,-1,-1,26,28,30,32,34,36,38,40,-1,-1,-1,-1,-1,-1,-1,-1,-1,42,44,46,48,50,-1,-1,-1,-1,-1,-1,-1,-1,-1,-1,-1,-1,-1,-1],"split_conditions":[9.020914E-1,-1.40742E-1,2.55612E0,-4.4546175E-1,2.8408924E-1,1.6246617E0,4.0467753E0,-5.744282E-1,-2.962775E-1,5.7039842E-2,5.2660143E-1,1.2157862E0,3.5390133E1,5.568182E1,8.9095695E1,-6.3848466E-1,-5.0944567E-1,-3.6700594E-1,-2.232188E-1,-3.4499347E-2,1.5333138E-1,4.1140977E-1,6.8931955E-1,1.848586E1,2.4665901E1,-1.2114253E1,-1.0725869E1,-9.597243E0,-8.461683E0,-7.167979E0,-5.987311E0,-4.63387E0,-1.6684692E-1,-8.092709E-2,8.800732E-3,9.181521E-2,1.8735375E-1,6.032359E0,8.158233E0,1.0070776E1,1.3896266E1,-3.3723073E0,-2.6142414E0,-1.9707054E0,-1.0683166E0,-3.198931E-1,5.39612E-1,1.2938699E0,2.1068742E0,2.7484488E0,3.91522E0],"split_indices":[3,3,3,3,3,3,3,3,3,3,3,3,0,0,0,3,3,3,3,3,3,3,3,0,0,0,0,0,0,0,0,0,3,3,3,3,3,0,0,0,0,0,0,0,0,0,0,0,0,0,0],"split_type":[0,0,0,0,0,0,0,0,0,0,0,0,0,0,0,0,0,0,0,0,0,0,0,0,0,0,0,0,0,0,0,0,0,0,0,0,0,0,0,0,0,0,0,0,0,0,0,0,0,0,0],"sum_hessian":[1.751E3,1.531E3,2.2E2,1.148E3,3.83E2,1.57E2,6.3E1,7.18E2,4.3E2,2.53E2,1.3E2,1.02E2,5.5E1,4.1E1,2.2E1,4.04E2,3.14E2,2.73E2,1.57E2,1.51E2,1.02E2,7.5E1,5.5E1,4.8E1,5.4E1,2.33E2,1.71E2,1.7E2,1.44E2,1.23E2,1.5E2,8.2E1,7.5E1,8.9E1,6.2E1,4.7E1,5.5E1,4.1E1,3.4E1,2.1E1,3.4E1,4.8E1,2.7E1,4.8E1,4.1E1,3.4E1,2.8E1,2E1,2.7E1,1.4E1,4.1E1],"tree_param":{"num_deleted":"0","num_feature":"730","num_nodes":"51","size_leaf_vector":"1"}},{"base_weights":[4.769019E-1,-4.7664597E1,3.7219397E2,-7.641566E1,4.4389927E1,2.8138666E2,6.993141E2,-9.370366E1,-4.6796333E1,1.4054168E1,1.0445882E2,2.2711797E2,3.9857933E1,5.82099E1,8.6073326E1,-1.0287015E2,-7.934111E1,-5.6179844E1,-2.9811752E1,-1.4797115E0,3.57858E1,7.800415E1,1.3622912E1,1.8662958E1,2.550039E1,-1.0824641E1,-9.452578E0,-8.2926235E0,-7.317806E0,-6.0211396E0,-4.8628125E0,-3.6694996E0,-2.3149847E1,-8.653775E0,7.9953203E0,2.7171741E1,4.764975E0,6.563863E0,8.849429E0,-2.5693812E0,-1.8926871E0,-1.2080288E0,-5.0212204E-1,2.9585597E-1,1.1940199E0,2.1363208E0,3.104223E0],"categories":[],"categories_nodes":[],"categories_segments":[],"categories_sizes":[],"default_left":[0,0,0,0,0,0,0,0,0,0,0,0,0,0,0,0,0,0,0,0,0,0,0,0,0,0,0,0,0,0,0,0,0,0,0,0,0,0,0,0,0,0,0,0,0,0,0],"id":4,"left_children":[1,3,5,7,9,11,13,15,17,19,21,23,-1,-1,-1,25,27,29,31,33,35,37,-1,-1,-1,-1,-1,-1,-1,-1,-1,-1,39,41,43,45,-1,-1,-1,-1,-1,-1,-1,-1,-1,-1,-1],"loss_changes":[3.136981E7,4.1110165E6,5.773906E6,6.013815E5,6.7275906E5,9.20698E5,3.1256E5,9.0052E4,6.813144E4,8.343436E4,9.3592125E4,7.77335E4,0E0,0E0,0E0,1.00455E4,4.4975E2,5.6271875E3,6.3956875E3,9.92549E3,9.231547E3,3.2715E3,0E0,0E0,0E0,0E0,0E0,0E0,0E0,0E0,0E0,0E0,4.05375E2,9.724429E2,1.2164473E3,7.3071484E2,0E0,0E0,0E0,0E0,0E0,0E0,0E0,0E0,0E0,0E0,0E0],"parents":[2147483647,0,0,1,1,2,2,3,3,4,4,5,5,6,6,7,7,8,8,9,9,10,10,11,11,15,15,16,16,17,17,18,18,19,19,20,20,21,21,32,32,33,33,34,34,35,35],"right_children":[2,4,6,8,10,12,14,16,18,20,22,24,-1,-1,-1,26,28,30,32,34,36,38,-1,-1,-1,-1,-1,-1,-1,-1,-1,-1,40,42,44,46,-1,-1,-1,-1,-1,-1,-1,-1,-1,-1,-1],"split_conditions":[1.0430022E0,-9.897617E-2,3.0801342E0,-4.2592764E-1,3.599642E-1,1.9957906E0,4.6461253E0,-5.5913514E-1,-2.6585296E-1,1.0923485E-1,6.8931955E-1,1.3874263E0,3.9857933E1,5.82099E1,8.6073326E1,-6.2900007E-1,-4.8997304E-1,-3.3795038E-1,-1.8926367E-1,-5.7343314E-3,2.3337933E-1,4.8906302E-1,1.3622912E1,1.8662958E1,2.550039E1,-1.0824641E1,-9.452578E0,-8.2926235E0,-7.317806E0,-6.0211396E0,-4.8628125E0,-3.6694996E0,-1.40742E-1,-5.32115E-2,4.5961536E-2,1.5930796E-1,4.764975E0,6.563863E0,8.849429E0,-2.5693812E0,-1.8926871E0,-1.2080288E0,-5.0212204E-1,2.9585597E-1,1.1940199E0,2.1363208E0,3.104223E0],"split_indices":[3,3,3,3,3,3,3,3,3,3,3,3,0,0,0,3,3,3,3,3,3,3,0,0,0,0,0,0,0,0,0,0,3,3,3,3,0,0,0,0,0,0,0,0,0,0,0],"split_type":[0,0,0,0,0,0,0,0,0,0,0,0,0,0,0,0,0,0,0,0,0,0,0,0,0,0,0,0,0,0,0,0,0,0,0,0,0,0,0,0,0,0,0,0,0,0,0],"sum_hessian":[1.751E3,1.551E3,2E2,1.182E3,3.69E2,1.58E2,4.2E1,7.45E2,4.37E2,2.46E2,1.23E2,1.1E2,4.8E1,2.7E1,1.5E1,4.51E2,2.94E2,2.8E2,1.57E2,1.44E2,1.02E2,6.9E1,5.4E1,4.8E1,6.2E1,2.67E2,1.84E2,1.78E2,1.16E2,1.78E2,1.02E2,7.5E1,8.2E1,8.2E1,6.2E1,6.1E1,4.1E1,3.5E1,3.4E1,4.8E1,3.4E1,4.1E1,4.1E1,2.8E1,3.4E1,2.7E1,3.4E1],"tree_param":{"num_deleted":"0","num_feature":"730","num_nodes":"47","size_leaf_vector":"1"}},{"base_weights":[5.5034137E-1,-4.6145985E1,3.1288083E2,-7.120461E1,2.52327E1,2.2183772E2,5.821182E2,-8.709644E1,-4.945767E1,2.0575128E0,7.227501E1,1.8273557E2,3.1626282E1,4.3762753E1,6.9757225E1,-9.635867E0,-7.849841E1,-5.7561855E1,-3.6381924E1,-1.038052E1,1.9904346E1,5.434413E1,9.531914E1,1.4866859E1,2.0773579E1,-8.29091E0,-7.2410593E0,-6.3975725E0,-5.215965E0,-4.138043E0,-2.8602774E0,-1.7094418E1,-4.1077886E0,1.087964E1,2.6715738E1,4.4572053E0,6.1193624E0,7.7457733E0,1.0382291E1,-1.9095173E0,-1.2982581E0,-7.107142E-1,2.0867135E-2,7.086266E-1,1.3251405E0,2.1558867E0,3.007793E0],"categories":[],"categories_nodes":[],"categories_segments":[],"categories_sizes":[],"default_left":[0,0,0,0,0,0,0,0,0,0,0,0,0,0,0,0,0,0,0,0,0,0,0,0,0,0,0,0,0,0,0,0,0,0,0,0,0,0,0,0,0,0,0,0,0,0,0],"id":5,"left_children":[1,3,5,7,9,11,13,15,17,19,21,23,-1,-1,-1,-1,25,27,29,31,33,35,37,-1,-1,-1,-1,-1,-1,-1,-1,39,41,43,45,-1,-1,-1,-1,-1,-1,-1,-1,-1,-1,-1,-1],"loss_changes":[2.5566808E7,2.7294908E6,5.459648E6,3.858735E5,4.3266638E5,5.77271E5,6.456E5,4.428E4,4.86645E4,5.947514E4,4.8949375E4,7.4725E4,0E0,0E0,0E0,0E0,3.2065E3,6.849875E3,6.0488594E3,6.583865E3,6.471129E3,2.3594375E3,4.6390625E2,0E0,0E0,0E0,0E0,0E0,0E0,0E0,0E0,3.7733203E2,1.0760497E3,3.469497E2,4.2653516E2,0E0,0E0,0E0,0E0,0E0,0E0,0E0,0E0,0E0,0E0,0E0,0E0],"parents":[2147483647,0,0,1,1,2,2,3,3,4,4,5,5,6,6,7,7,8,8,9,9,10,10,11,11,16,16,17,17,18,18,19,19,20,20,21,21,22,22,31,31,32,32,33,33,34,34],"right_children":[2,4,6,8,10,12,14,16,18,20,22,24,-1,-1,-1,-1,26,28,30,32,34,36,38,-1,-1,-1,-1,-1,-1,-1,-1,40,42,44,46,-1,-1,-1,-1,-1,-1,-1,-1,-1,-1,-1,-1],"split_conditions":[8.654229E-1,-1.6087945E-1,2.81617E0,-4.786962E-1,2.5834218E-1,1.8318725E0,3.7520788E0,-6.1038625E-1,-3.2695603E-1,3.28325E-2,5.115822E-1,1.2157862E0,3.1626282E1,4.3762753E1,6.9757225E1,-9.635867E0,-5.363434E-1,-4.0270814E-1,-2.4703959E-1,-7.406645E-2,1.1812005E-1,3.599642E-1,6.2433785E-1,1.4866859E1,2.0773579E1,-8.29091E0,-7.2410593E0,-6.3975725E0,-5.215965E0,-4.138043E0,-2.8602774E0,-1.1072984E-1,-2.52568E-2,7.098137E-2,1.8735375E-1,4.4572053E0,6.1193624E0,7.7457733E0,1.0382291E1,-1.9095173E0,-1.2982581E0,-7.107142E-1,2.0867135E-2,7.086266E-1,1.3251405E0,2.1558867E0,3.007793E0],"split_indices":[3,3,3,3,3,3,3,3,3,3,3,3,0,0,0,0,3,3,3,3,3,3,3,0,0,0,0,0,0,0,0,3,3,3,3,0,0,0,0,0,0,0,0,0,0,0,0],"split_type":[0,0,0,0,0,0,0,0,0,0,0,0,0,0,0,0,0,0,0,0,0,0,0,0,0,0,0,0,0,0,0,0,0,0,0,0,0,0,0,0,0,0,0,0,0,0,0],"sum_hessian":[1.751E3,1.524E3,2.27E2,1.128E3,3.96E2,1.71E2,5.6E1,6.5E2,4.78E2,2.66E2,1.3E2,1.23E2,4.8E1,2.7E1,2.9E1,3.08E2,3.42E2,2.93E2,1.85E2,1.57E2,1.09E2,7.5E1,5.5E1,5.5E1,6.8E1,1.91E2,1.51E2,1.29E2,1.64E2,1.1E2,7.5E1,7.5E1,8.2E1,4.8E1,6.1E1,3.4E1,4.1E1,2.1E1,3.4E1,4.8E1,2.7E1,4.8E1,3.4E1,2E1,2.8E1,2.7E1,3.4E1],"tree_param":{"num_deleted":"0","num_feature":"730","num_nodes":"47","size_leaf_vector":"1"}},{"base_weights":[5.917733E-1,-3.8640408E1,3.0351593E2,-6.1690628E1,3.703012E1,2.3507632E2,6.0051636E2,-7.618212E1,-3.7861195E1,1.5288325E1,9.1763885E1,1.8807315E2,3.4572838E1,5.166695E1,8.039656E1,-8.329688E1,-6.4289384E0,-4.55849E1,-2.3200726E1,9.211211E-1,3.5002205E1,7.093596E0,1.1415139E1,1.5806132E1,2.1847801E1,-9.206534E0,-7.8996177E0,-4.932735E0,-3.946966E0,-2.8337242E1,-1.7285835E1,-5.403877E0,9.942211E0,2.4995722E1,4.4204965E0,-3.0200624E0,-2.3598433E0,-1.8978081E0,-1.3707056E0,-8.4421396E-1,-1.7305738E-1,5.644116E-1,1.3009003E0,2.020487E0,2.7156067E0],"categories":[],"categories_nodes":[],"categories_segments":[],"categories_sizes":[],"default_left":[0,0,0,0,0,0,0,0,0,0,0,0,0,0,0,0,0,0,0,0,0,0,0,0,0,0,0,0,0,0,0,0,0,0,0,0,0,0,0,0,0,0,0,0,0],"id":6,"left_children":[1,3,5,7,9,11,13,15,17,19,21,23,-1,-1,-1,25,-1,27,29,31,33,-1,-1,-1,-1,-1,-1,-1,-1,35,37,39,41,43,-1,-1,-1,-1,-1,-1,-1,-1,-1,-1,-1],"loss_changes":[2.0833152E7,2.7093178E6,3.944478E6,4.08051E5,4.3057088E5,7.93142E5,2.15783E5,5.7175E4,5.012375E4,7.389166E4,3.9929938E4,7.314275E4,0E0,0E0,0E0,1.003625E4,0E0,4.8044375E3,4.3105156E3,8.7266E3,9.024656E3,0E0,0E0,0E0,0E0,0E0,0E0,0E0,0E0,2.021875E1,2.0013477E2,9.898318E2,7.57001E2,2.05625E1,0E0,0E0,0E0,0E0,0E0,0E0,0E0,0E0,0E0,0E0,0E0],"parents":[2147483647,0,0,1,1,2,2,3,3,4,4,5,5,6,6,7,7,8,8,9,9,10,10,11,11,15,15,17,17,18,18,19,19,20,20,29,29,30,30,31,31,32,32,33,33],"right_children":[2,4,6,8,10,12,14,16,18,20,22,24,-1,-1,-1,26,-1,28,30,32,34,-1,-1,-1,-1,-1,-1,-1,-1,36,38,40,42,44,-1,-1,-1,-1,-1,-1,-1,-1,-1,-1,-1],"split_conditions":[1.0430022E0,-8.9531735E-2,3.3617942E0,-4.3230003E-1,4.4405273E-1,2.1160913E0,5.040606E0,-5.5415815E-1,-2.5986433E-1,1.4172126E-1,7.443647E-1,1.4711082E0,3.4572838E1,5.166695E1,8.039656E1,-6.668041E-1,-6.4289384E0,-3.4228578E-1,-1.734779E-1,1.7456912E-2,2.5834218E-1,7.093596E0,1.1415139E1,1.5806132E1,2.1847801E1,-9.206534E0,-7.8996177E0,-4.932735E0,-3.946966E0,-2.0280007E-1,-1.2391017E-1,-3.4499347E-2,7.098137E-2,1.8735375E-1,4.4204965E0,-3.0200624E0,-2.3598433E0,-1.8978081E0,-1.3707056E0,-8.4421396E-1,-1.7305738E-1,5.644116E-1,1.3009003E0,2.020487E0,2.7156067E0],"split_indices":[3,3,3,3,3,3,3,3,3,3,3,3,0,0,0,3,0,3,3,3,3,0,0,0,0,0,0,0,0,3,3,3,3,3,0,0,0,0,0,0,0,0,0,0,0],"split_type":[0,0,0,0,0,0,0,0,0,0,0,0,0,0,0,0,0,0,0,0,0,0,0,0,0,0,0,0,0,0,0,0,0,0,0,0,0,0,0,0,0,0,0,0,0],"sum_hessian":[1.751E3,1.551E3,2E2,1.189E3,3.62E2,1.64E2,3.6E1,7.38E2,4.51E2,2.6E2,1.02E2,1.17E2,4.7E1,2.8E1,8E0,4.58E2,2.8E2,2.94E2,1.57E2,1.51E2,1.09E2,5.5E1,4.7E1,6.2E1,5.5E1,1.44E2,3.14E2,1.78E2,1.16E2,8.2E1,7.5E1,8.9E1,6.2E1,5.4E1,5.5E1,5.5E1,2.7E1,4.8E1,2.7E1,4.8E1,4.1E1,2.7E1,3.5E1,2E1,3.4E1],"tree_param":{"num_deleted":"0","num_feature":"730","num_nodes":"45","size_leaf_vector":"1"}},{"base_weights":[6.420384E-1,-3.4092506E1,2.797684E2,-5.502933E1,3.681206E1,2.1611273E2,5.4403406E2,-6.812023E1,-3.2548176E1,1.5161225E1,8.5093376E1,1.764762E2,3.2138325E1,4.667842E1,7.32502E1,-7.540438E1,-5.797781E1,-3.9782707E1,-1.9155176E1,1.9597706E0,3.1585222E1,6.589044E1,1.0765437E1,1.4842873E1,2.0539465E1,-8.356184E0,-7.1702013E0,-6.1277823E0,-5.313375E0,-4.3073916E0,-3.4146507E0,-2.414793E0,-1.4352713E1,-3.3216252E0,9.752558E0,2.449829E1,4.247601E0,5.527808E0,7.2497745E0,-1.6337742E0,-1.1163595E0,-5.371462E-1,8.966773E-2,6.520012E-1,1.2537341E0,1.9179184E0,2.7461069E0],"categories":[],"categories_nodes":[],"categories_segments":[],"categories_sizes":[],"default_left":[0,0,0,0,0,0,0,0,0,0,0,0,0,0,0,0,0,0,0,0,0,0,0,0,0,0,0,0,0,0,0,0,0,0,0,0,0,0,0,0,0,0,0,0,0,0,0],"id":7,"left_children":[1,3,5,7,9,11,13,15,17,19,21,23,-1,-1,-1,25,27,29,31,33,35,37,-1,-1,-1,-1,-1,-1,-1,-1,-1,-1,39,41,43,45,-1,-1,-1,-1,-1,-1,-1,-1,-1,-1,-1],"loss_changes":[1.6995752E7,2.3163865E6,3.145898E6,3.521185E5,3.7084766E5,6.02548E5,1.96767E5,5.177625E4,4.2354938E4,5.34928E4,4.0562812E4,6.441075E4,0E0,0E0,0E0,7.267E3,1.891375E3,3.8715625E3,3.4418555E3,5.712032E3,7.449461E3,3.3984375E2,0E0,0E0,0E0,0E0,0E0,0E0,0E0,0E0,0E0,0E0,3.4304297E2,7.225035E2,4.2236523E2,5.6071094E2,0E0,0E0,0E0,0E0,0E0,0E0,0E0,0E0,0E0,0E0,0E0],"parents":[2147483647,0,0,1,1,2,2,3,3,4,4,5,5,6,6,7,7,8,8,9,9,10,10,11,11,15,15,16,16,17,17,18,18,19,19,20,20,21,21,32,32,33,33,34,34,35,35],"right_children":[2,4,6,8,10,12,14,16,18,20,22,24,-1,-1,-1,26,28,30,32,34,36,38,-1,-1,-1,-1,-1,-1,-1,-1,-1,-1,40,42,44,46,-1,-1,-1,-1,-1,-1,-1,-1,-1,-1,-1],"split_conditions":[1.0792024E0,-7.406645E-2,3.3617942E0,-4.1619542E-1,4.4405273E-1,2.2506502E0,5.040606E0,-5.6367564E-1,-2.5165448E-1,1.4172126E-1,7.64437E-1,1.5019786E0,3.2138325E1,4.667842E1,7.32502E1,-6.72127E-1,-4.9411336E-1,-3.3092582E-1,-1.6684692E-1,3.28325E-2,3.106004E-1,5.2660143E-1,1.0765437E1,1.4842873E1,2.0539465E1,-8.356184E0,-7.1702013E0,-6.1277823E0,-5.313375E0,-4.3073916E0,-3.4146507E0,-2.414793E0,-1.2001326E-1,-1.767448E-2,7.969379E-2,1.9979274E-1,4.247601E0,5.527808E0,7.2497745E0,-1.6337742E0,-1.1163595E0,-5.371462E-1,8.966773E-2,6.520012E-1,1.2537341E0,1.9179184E0,2.7461069E0],"split_indices":[3,3,3,3,3,3,3,3,3,3,3,3,0,0,0,3,3,3,3,3,3,3,0,0,0,0,0,0,0,0,0,0,3,3,3,3,0,0,0,0,0,0,0,0,0,0,0],"split_type":[0,0,0,0,0,0,0,0,0,0,0,0,0,0,0,0,0,0,0,0,0,0,0,0,0,0,0,0,0,0,0,0,0,0,0,0,0,0,0,0,0,0,0,0,0,0,0],"sum_hessian":[1.751E3,1.558E3,1.93E2,1.203E3,3.55E2,1.57E2,3.6E1,7.59E2,4.44E2,2.46E2,1.09E2,1.16E2,4.1E1,2.8E1,8E0,4.38E2,3.21E2,2.87E2,1.57E2,1.37E2,1.09E2,6.1E1,4.8E1,6.2E1,5.4E1,1.3E2,3.08E2,1.84E2,1.37E2,1.77E2,1.1E2,7.5E1,8.2E1,8.2E1,5.5E1,6.8E1,4.1E1,2.7E1,3.4E1,4.8E1,3.4E1,5.5E1,2.7E1,2.7E1,2.8E1,2.7E1,4.1E1],"tree_param":{"num_deleted":"0","num_feature":"730","num_nodes":"47","size_leaf_vector":"1"}},{"base_weights":[6.814364E-1,-3.0687067E1,2.5275781E2,-4.9319546E1,3.4053955E1,1.8272874E2,4.5078693E2,-6.134369E1,-2.8992842E1,1.4321015E1,7.6798065E1,1.4465356E2,2.40658E2,3.936388E1,6.673907E1,-7.003359E1,-5.4329216E1,-3.5422184E1,-1.6070309E1,2.882805E0,2.9250956E1,5.950748E1,9.710864E0,1.2416147E1,1.592661E1,1.9998236E1,2.7163248E1,-7.6503863E0,-6.684501E0,-5.930441E0,-4.997496E0,-3.8359044E0,-2.9404156E0,-2.0155935E1,-1.1719474E1,-2.529459E0,9.470696E0,2.1814236E1,3.7153108E0,4.7609963E0,6.4039397E0,-2.241275E0,-1.7741619E0,-1.3468255E0,-9.286095E-1,-4.7831735E-1,2.472691E-2,6.5452826E-1,1.2789224E0,1.7794745E0,2.3717508E0],"categories":[],"categories_nodes":[],"categories_segments":[],"categories_sizes":[],"default_left":[0,0,0,0,0,0,0,0,0,0,0,0,0,0,0,0,0,0,0,0,0,0,0,0,0,0,0,0,0,0,0,0,0,0,0,0,0,0,0,0,0,0,0,0,0,0,0,0,0,0,0],"id":8,"left_children":[1,3,5,7,9,11,13,15,17,19,21,23,25,-1,-1,27,29,31,33,35,37,39,-1,-1,-1,-1,-1,-1,-1,-1,-1,-1,-1,41,43,45,47,49,-1,-1,-1,-1,-1,-1,-1,-1,-1,-1,-1,-1,-1],"loss_changes":[1.3861273E7,1.8822789E6,2.607979E6,2.942035E5,2.9327012E5,2.8501E5,3.56215E5,4.252125E4,3.698447E4,4.090091E4,3.285125E4,7.175125E3,1.623275E4,0E0,0E0,1.818E3,6.243125E3,4.192E3,2.4657188E3,4.9087466E3,5.3011953E3,2.9404688E2,0E0,0E0,0E0,0E0,0E0,0E0,0E0,0E0,0E0,0E0,0E0,2.1910156E1,1.9834668E2,4.7678714E2,5.181914E2,6.3632812E0,0E0,0E0,0E0,0E0,0E0,0E0,0E0,0E0,0E0,0E0,0E0,0E0,0E0],"parents":[2147483647,0,0,1,1,2,2,3,3,4,4,5,5,6,6,7,7,8,8,9,9,10,10,11,11,12,12,15,15,16,16,17,17,18,18,19,19,20,20,21,21,33,33,34,34,35,35,36,36,37,37],"right_children":[2,4,6,8,10,12,14,16,18,20,22,24,26,-1,-1,28,30,32,34,36,38,40,-1,-1,-1,-1,-1,-1,-1,-1,-1,-1,-1,42,44,46,48,50,-1,-1,-1,-1,-1,-1,-1,-1,-1,-1,-1,-1,-1],"split_conditions":[1.0792024E0,-6.911185E-2,2.9241855E0,-4.1619542E-1,4.4405273E-1,1.8318725E0,5.040606E0,-6.037642E-1,-2.4237704E-1,1.5333138E-1,7.64437E-1,1.3874263E0,2.2506502E0,3.936388E1,6.673907E1,-6.814032E-1,-5.234004E-1,-3.194616E-1,-1.5454373E-1,3.28325E-2,2.8408924E-1,5.115822E-1,9.710864E0,1.2416147E1,1.592661E1,1.9998236E1,2.7163248E1,-7.6503863E0,-6.684501E0,-5.930441E0,-4.997496E0,-3.8359044E0,-2.9404156E0,-1.957603E-1,-1.1072984E-1,-2.52568E-2,9.181521E-2,1.9979274E-1,3.7153108E0,4.7609963E0,6.4039397E0,-2.241275E0,-1.7741619E0,-1.3468255E0,-9.286095E-1,-4.7831735E-1,2.472691E-2,6.5452826E-1,1.2789224E0,1.7794745E0,2.3717508E0],"split_indices":[3,3,3,3,3,3,3,3,3,3,3,3,3,0,0,3,3,3,3,3,3,3,0,0,0,0,0,0,0,0,0,0,0,3,3,3,3,3,0,0,0,0,0,0,0,0,0,0,0,0,0],"split_type":[0,0,0,0,0,0,0,0,0,0,0,0,0,0,0,0,0,0,0,0,0,0,0,0,0,0,0,0,0,0,0,0,0,0,0,0,0,0,0,0,0,0,0,0,0,0,0,0,0,0,0],"sum_hessian":[1.751E3,1.558E3,1.93E2,1.21E3,3.48E2,1.44E2,4.9E1,7.59E2,4.51E2,2.39E2,1.09E2,8.9E1,5.5E1,4.1E1,8E0,3.35E2,4.24E2,3E2,1.51E2,1.36E2,1.03E2,6.1E1,4.8E1,4.1E1,4.8E1,2.7E1,2.8E1,1.03E2,2.32E2,1.92E2,2.32E2,1.98E2,1.02E2,7.6E1,7.5E1,7.5E1,6.1E1,5.5E1,4.8E1,2E1,4.1E1,3.5E1,4.1E1,4.1E1,3.4E1,4.1E1,3.4E1,3.4E1,2.7E1,2.1E1,3.4E1],"tree_param":{"num_deleted":"0","num_feature":"730","num_nodes":"51","size_leaf_vector":"1"}},{"base_weights":[7.1232194E-1,-2.7050184E1,2.3320094E2,-4.4011948E1,3.3556957E1,1.7886368E2,4.48653E2,-5.4979595E1,-2.5091835E1,1.4845231E1,7.305683E1,1.4299593E2,2.5285082E1,3.826556E1,6.11461E1,-6.077708E1,-4.6058537E1,-3.127326E1,-1.3430881E1,4.150616E0,2.8173592E1,5.698925E1,9.18963E0,1.1702511E1,1.5804003E1,-6.6679864E0,-5.7129436E0,-4.868524E0,-4.2117786E0,-3.3536892E1,-2.5114667E0,-1.6793163E1,-8.850645E0,-4.535574E-1,1.0520993E1,2.1077953E1,3.570792E0,4.94338E0,6.439824E0,-3.6478202E0,-3.166042E0,-1.8672284E0,-1.420102E0,-1.0200524E0,-6.5097326E-1,-2.925031E-1,2.442427E-1,7.698506E-1,1.2967731E0,1.7790743E0,2.372978E0],"categories":[],"categories_nodes":[],"categories_segments":[],"categories_sizes":[],"default_left":[0,0,0,0,0,0,0,0,0,0,0,0,0,0,0,0,0,0,0,0,0,0,0,0,0,0,0,0,0,0,0,0,0,0,0,0,0,0,0,0,0,0,0,0,0,0,0,0,0,0,0],"id":9,"left_children":[1,3,5,7,9,11,13,15,17,19,21,23,-1,-1,-1,25,27,29,31,33,35,37,-1,-1,-1,-1,-1,-1,-1,39,-1,41,43,45,47,49,-1,-1,-1,-1,-1,-1,-1,-1,-1,-1,-1,-1,-1,-1,-1],"loss_changes":[1.1314534E7,1.611331E6,2.108975E6,2.5261175E5,2.5243047E5,3.645605E5,1.63583E5,3.723175E4,3.2088656E4,3.3237816E4,2.8060375E4,2.213875E4,0E0,0E0,0E0,6.224125E3,1.1480625E3,3.2563125E3,2.2845781E3,3.8470437E3,4.8072812E3,2.871875E2,0E0,0E0,0E0,0E0,0E0,0E0,0E0,1.5171875E1,0E0,1.7321875E2,1.516333E2,5.5825995E2,2.799922E2,6.598633E1,0E0,0E0,0E0,0E0,0E0,0E0,0E0,0E0,0E0,0E0,0E0,0E0,0E0,0E0,0E0],"parents":[2147483647,0,0,1,1,2,2,3,3,4,4,5,5,6,6,7,7,8,8,9,9,10,10,11,11,15,15,16,16,17,17,18,18,19,19,20,20,21,21,29,29,31,31,32,32,33,33,34,34,35,35],"right_children":[2,4,6,8,10,12,14,16,18,20,22,24,-1,-1,-1,26,28,30,32,34,36,38,-1,-1,-1,-1,-1,-1,-1,40,-1,42,44,46,48,50,-1,-1,-1,-1,-1,-1,-1,-1,-1,-1,-1,-1,-1,-1,-1],"split_conditions":[1.1151432E0,-5.32115E-2,3.3617942E0,-4.0774918E-1,4.5811835E-1,2.1160913E0,4.927435E0,-5.4844594E-1,-2.3131542E-1,1.5930796E-1,8.2939863E-1,1.4235613E0,2.5285082E1,3.826556E1,6.11461E1,-6.583862E-1,-4.8239684E-1,-3.0563575E-1,-1.3161542E-1,5.7039842E-2,3.106004E-1,6.2433785E-1,9.18963E0,1.1702511E1,1.5804003E1,-6.6679864E0,-5.7129436E0,-4.868524E0,-4.2117786E0,-3.598282E-1,-2.5114667E0,-1.734779E-1,-8.092709E-2,-5.7343314E-3,1.0923485E-1,2.2281332E-1,3.570792E0,4.94338E0,6.439824E0,-3.6478202E0,-3.166042E0,-1.8672284E0,-1.420102E0,-1.0200524E0,-6.5097326E-1,-2.925031E-1,2.442427E-1,7.698506E-1,1.2967731E0,1.7790743E0,2.372978E0],"split_indices":[3,3,3,3,3,3,7,3,3,3,3,3,0,0,0,3,3,3,3,3,3,3,0,0,0,0,0,0,0,3,0,3,3,3,3,3,0,0,0,0,0,0,0,0,0,0,0,0,0,0,0],"split_type":[0,0,0,0,0,0,0,0,0,0,0,0,0,0,0,0,0,0,0,0,0,0,0,0,0,0,0,0,0,0,0,0,0,0,0,0,0,0,0,0,0,0,0,0,0,0,0,0,0,0,0],"sum_hessian":[1.751E3,1.565E3,1.86E2,1.223E3,3.42E2,1.5E2,3.6E1,7.73E2,4.5E2,2.33E2,1.09E2,1.03E2,4.7E1,2.8E1,8E0,4.65E2,3.08E2,2.93E2,1.57E2,1.3E2,1.03E2,6.1E1,4.8E1,4.1E1,6.2E1,1.71E2,2.94E2,1.78E2,1.3E2,2.11E2,8.2E1,8.9E1,6.8E1,7.6E1,5.4E1,5.5E1,4.8E1,3.4E1,2.7E1,7.5E1,1.36E2,4.8E1,4.1E1,4.1E1,2.7E1,4.1E1,3.5E1,2.7E1,2.7E1,2.8E1,2.7E1],"tree_param":{"num_deleted":"0","num_feature":"730","num_nodes":"51","size_leaf_vector":"1"}},{"base_weights":[7.248621E-1,-2.5829908E1,1.990483E2,-4.093876E1,2.2302383E1,1.5300258E2,4.064745E2,-5.0955902E1,-2.6591433E1,5.841727E0,5.2289062E1,1.2270163E2,2.2809248E1,3.4518486E1,5.5879955E1,-5.7885E1,-4.590273E1,-3.1588306E1,-1.6678799E1,-2.1037438E0,1.6252186E1,3.897176E1,6.942881E1,1.0061822E1,1.4248687E1,-6.3402877E0,-5.5380783E0,-4.8814964E0,-4.195312E0,-3.5947607E0,-2.848832E0,-2.031491E0,-1.2841737E1,-5.309799E0,2.7727356E0,1.126006E1,2.033008E1,3.3327281E0,4.4631653E0,5.8188415E0,7.788751E0,-1.3948791E0,-1.0299335E0,-6.966394E-1,-2.9535124E-1,6.658598E-2,4.7805855E-1,8.31281E-1,1.3173612E0,1.6873368E0,2.2966557E0],"categories":[],"categories_nodes":[],"categories_segments":[],"categories_sizes":[],"default_left":[0,0,0,0,0,0,0,0,0,0,0,0,0,0,0,0,0,0,0,0,0,0,0,0,0,0,0,0,0,0,0,0,0,0,0,0,0,0,0,0,0,0,0,0,0,0,0,0,0,0,0],"id":10,"left_children":[1,3,5,7,9,11,13,15,17,19,21,23,-1,-1,-1,25,27,29,31,33,35,37,39,-1,-1,-1,-1,-1,-1,-1,-1,-1,41,43,45,47,49,-1,-1,-1,-1,-1,-1,-1,-1,-1,-1,-1,-1,-1,-1],"loss_changes":[9.231932E6,1.1252008E6,1.9148835E6,1.678025E5,1.8232669E5,3.6108775E5,1.52541E5,2.1572625E4,2.354575E4,1.988603E4,2.7195688E4,3.9842E4,0E0,0E0,0E0,4.6825E2,2.6105E3,3.327375E3,2.0411992E3,2.1566167E3,1.888248E3,9.4053125E2,7.9228125E2,0E0,0E0,0E0,0E0,0E0,0E0,0E0,0E0,0E0,8.9947266E1,3.0340796E2,2.2948273E2,1.6683594E2,1.2283594E2,0E0,0E0,0E0,0E0,0E0,0E0,0E0,0E0,0E0,0E0,0E0,0E0,0E0,0E0],"parents":[2147483647,0,0,1,1,2,2,3,3,4,4,5,5,6,6,7,7,8,8,9,9,10,10,11,11,15,15,16,16,17,17,18,18,19,19,20,20,21,21,22,22,32,32,33,33,34,34,35,35,36,36],"right_children":[2,4,6,8,10,12,14,16,18,20,22,24,-1,-1,-1,26,28,30,32,34,36,38,40,-1,-1,-1,-1,-1,-1,-1,-1,-1,42,44,46,48,50,-1,-1,-1,-1,-1,-1,-1,-1,-1,-1,-1,-1,-1,-1],"split_conditions":[9.983091E-1,-1.1072984E-1,3.3617942E0,-4.603595E-1,3.2921338E-1,2.1160913E0,5.040606E0,-6.167363E-1,-2.7967727E-1,7.969379E-2,6.2433785E-1,1.4235613E0,2.2809248E1,3.4518486E1,5.5879955E1,-6.886055E-1,-5.3005177E-1,-3.7920228E-1,-1.957603E-1,-1.767448E-2,1.8735375E-1,4.5811835E-1,8.2939863E-1,1.0061822E1,1.4248687E1,-6.3402877E0,-5.5380783E0,-4.8814964E0,-4.195312E0,-3.5947607E0,-2.848832E0,-2.031491E0,-1.40742E-1,-5.32115E-2,3.28325E-2,1.1812005E-1,2.3337933E-1,3.3327281E0,4.4631653E0,5.8188415E0,7.788751E0,-1.3948791E0,-1.0299335E0,-6.966394E-1,-2.9535124E-1,6.658598E-2,4.7805855E-1,8.31281E-1,1.3173612E0,1.6873368E0,2.2966557E0],"split_indices":[3,3,3,3,3,3,3,3,3,3,3,3,0,0,0,3,3,3,3,3,3,3,3,0,0,0,0,0,0,0,0,0,3,3,3,3,3,0,0,0,0,0,0,0,0,0,0,0,0,0,0],"split_type":[0,0,0,0,0,0,0,0,0,0,0,0,0,0,0,0,0,0,0,0,0,0,0,0,0,0,0,0,0,0,0,0,0,0,0,0,0,0,0,0,0,0,0,0,0,0,0,0,0,0,0],"sum_hessian":[1.751E3,1.545E3,2.06E2,1.176E3,3.69E2,1.7E2,3.6E1,6.91E2,4.85E2,2.39E2,1.3E2,1.23E2,4.7E1,2.8E1,8E0,2.87E2,4.04E2,3.21E2,1.64E2,1.36E2,1.03E2,7.5E1,5.5E1,6.1E1,6.2E1,8.2E1,2.05E2,2.26E2,1.78E2,1.29E2,1.92E2,8.2E1,8.2E1,8.2E1,5.4E1,4.8E1,5.5E1,4.1E1,3.4E1,2.7E1,2.8E1,5.4E1,2.8E1,4.7E1,3.5E1,2.7E1,2.7E1,2.1E1,2.7E1,2.7E1,2.8E1],"tree_param":{"num_deleted":"0","num_feature":"730","num_nodes":"51","size_leaf_vector":"1"}},{"base_weights":[7.2814655E-1,-2.193018E1,1.9047258E2,-3.552423E1,2.793949E1,1.5084695E2,3.928185E2,-4.459985E1,-2.010927E1,1.33049135E1,6.0915718E1,1.18692E2,2.1995302E1,3.2613148E1,5.1218475E1,-5.1150932E1,-3.929517E1,-2.5198645E1,-1.0286413E1,4.3581986E0,2.4446402E1,4.785136E0,7.433661E0,1.0296301E1,1.417065E1,-5.682299E0,-4.8939767E0,-4.219656E0,-3.5230985E0,-2.783902E0,-2.1205217E1,-1.2982832E1,-6.6202683E0,1.0963658E-2,9.196074E0,1.8368214E1,3.0893996E0,-2.2579768E0,-1.8640503E0,-1.3961201E0,-1.0317829E0,-8.014579E-1,-5.0368065E-1,-1.6863945E-1,2.4688284E-1,6.7675537E-1,1.1903293E0,1.5246298E0,2.074909E0],"categories":[],"categories_nodes":[],"categories_segments":[],"categories_sizes":[],"default_left":[0,0,0,0,0,0,0,0,0,0,0,0,0,0,0,0,0,0,0,0,0,0,0,0,0,0,0,0,0,0,0,0,0,0,0,0,0,0,0,0,0,0,0,0,0,0,0,0,0],"id":11,"left_children":[1,3,5,7,9,11,13,15,17,19,21,23,-1,-1,-1,25,27,29,31,33,35,-1,-1,-1,-1,-1,-1,-1,-1,-1,37,39,41,43,45,47,-1,-1,-1,-1,-1,-1,-1,-1,-1,-1,-1,-1,-1],"loss_changes":[7.536536E6,1.0626322E6,1.440126E6,1.7132038E5,1.6134081E5,3.2498525E5,7.17655E4,2.48875E4,2.2637234E4,2.3218508E4,1.45024375E4,2.5228875E4,0E0,0E0,0E0,1.5209375E3,3.6074375E3,2.5834531E3,1.4759512E3,2.7550095E3,3.5082617E3,0E0,0E0,0E0,0E0,0E0,0E0,0E0,0E0,0E0,1.6238281E1,9.0612305E1,1.119729E2,2.961948E2,3.2706543E2,9.9896484E1,0E0,0E0,0E0,0E0,0E0,0E0,0E0,0E0,0E0,0E0,0E0,0E0,0E0],"parents":[2147483647,0,0,1,1,2,2,3,3,4,4,5,5,6,6,7,7,8,8,9,9,10,10,11,11,15,15,16,16,17,17,18,18,19,19,20,20,30,30,31,31,32,32,33,33,34,34,35,35],"right_children":[2,4,6,8,10,12,14,16,18,20,22,24,-1,-1,-1,26,28,30,32,34,36,-1,-1,-1,-1,-1,-1,-1,-1,-1,38,40,42,44,46,48,-1,-1,-1,-1,-1,-1,-1,-1,-1,-1,-1,-1,-1],"split_conditions":[1.1151432E0,-4.567698E-2,3.7520788E0,-4.0774918E-1,4.8906302E-1,2.2506502E0,4.927435E0,-6.01314E-1,-2.232188E-1,1.8735375E-1,8.2939863E-1,1.6246617E0,2.1995302E1,3.2613148E1,5.1218475E1,-6.862078E-1,-5.061232E-1,-3.2442817E-1,-1.2391017E-1,5.7039842E-2,3.2921338E-1,4.785136E0,7.433661E0,1.0296301E1,1.417065E1,-5.682299E0,-4.8939767E0,-4.219656E0,-3.5230985E0,-2.783902E0,-2.6585296E-1,-1.5454373E-1,-8.092709E-2,8.800732E-3,1.1812005E-1,2.3337933E-1,3.0893996E0,-2.2579768E0,-1.8640503E0,-1.3961201E0,-1.0317829E0,-8.014579E-1,-5.0368065E-1,-1.6863945E-1,2.4688284E-1,6.7675537E-1,1.1903293E0,1.5246298E0,2.074909E0],"split_indices":[3,3,3,3,3,3,7,3,3,3,3,3,0,0,0,3,3,3,3,3,3,0,0,0,0,0,0,0,0,0,3,3,3,3,3,3,0,0,0,0,0,0,0,0,0,0,0,0,0],"split_type":[0,0,0,0,0,0,0,0,0,0,0,0,0,0,0,0,0,0,0,0,0,0,0,0,0,0,0,0,0,0,0,0,0,0,0,0,0,0,0,0,0,0,0,0,0,0,0,0,0],"sum_hessian":[1.751E3,1.565E3,1.86E2,1.23E3,3.35E2,1.57E2,2.9E1,7.73E2,4.57E2,2.33E2,1.02E2,1.09E2,4.8E1,2.1E1,8E0,3.42E2,4.31E2,3E2,1.57E2,1.3E2,1.03E2,5.4E1,4.8E1,6.8E1,4.1E1,8.9E1,2.53E2,2.46E2,1.85E2,1.77E2,1.23E2,8.9E1,6.8E1,6.9E1,6.1E1,5.5E1,4.8E1,7.5E1,4.8E1,6.2E1,2.7E1,3.4E1,3.4E1,4.1E1,2.8E1,3.4E1,2.7E1,2.7E1,2.8E1],"tree_param":{"num_deleted":"0","num_feature":"730","num_nodes":"49","size_leaf_vector":"1"}},{"base_weights":[7.250756E-1,-1.9317741E1,1.75873E2,-3.1669363E1,2.7481916E1,1.3388702E2,3.345245E2,-3.9981346E1,-1.734867E1,1.296706E1,5.6261795E1,1.11845894E2,1.9933382E1,2.816479E1,4.677354E2,-4.437786E1,-3.3252666E1,-2.2411367E1,-8.770728E0,6.159463E0,2.4129484E1,4.315324E0,6.81316E0,9.656358E0,1.3428955E1,5.155835E2,2.001781E1,-4.7546487E0,-4.051782E0,-3.5184422E0,-3.0270782E0,-2.4337318E0,-1.8368138E0,-1.1711526E1,-5.4762397E0,1.9620546E0,1.1125234E1,1.8206643E0,2.7867649E0,2.1577711E1,5.9235058E1,-1.3264353E0,-1.014152E0,-6.995645E-1,-3.8264474E-1,-5.1202524E-2,3.9770722E-1,7.967369E-1,1.2514467E0],"categories":[],"categories_nodes":[],"categories_segments":[],"categories_sizes":[],"default_left":[0,0,0,0,0,0,0,0,0,0,0,0,0,0,0,0,0,0,0,0,0,0,0,0,0,0,0,0,0,0,0,0,0,0,0,0,0,0,0,0,0,0,0,0,0,0,0,0,0],"id":12,"left_children":[1,3,5,7,9,11,13,15,17,19,21,23,-1,-1,25,27,29,31,33,35,37,-1,-1,-1,-1,39,-1,-1,-1,-1,-1,-1,-1,41,43,45,47,-1,-1,-1,-1,-1,-1,-1,-1,-1,-1,-1,-1],"loss_changes":[6.1537195E6,9.101457E5,1.154216E6,1.4750288E5,1.3670553E5,1.854285E5,1.2888175E5,2.1805875E4,1.9736688E4,1.6569016E4,1.4175469E4,2.4761625E4,0E0,0E0,1.201025E4,3.8588125E3,7.494375E2,1.7956406E3,1.6022744E3,2.8545571E3,1.3302891E3,0E0,0E0,0E0,0E0,3.329125E4,0E0,0E0,0E0,0E0,0E0,0E0,0E0,8.4893555E1,1.8128809E2,3.809203E2,1.7667383E2,0E0,0E0,0E0,0E0,0E0,0E0,0E0,0E0,0E0,0E0,0E0,0E0],"parents":[2147483647,0,0,1,1,2,2,3,3,4,4,5,5,6,6,7,7,8,8,9,9,10,10,11,11,14,14,15,15,16,16,17,17,18,18,19,19,20,20,25,25,33,33,34,34,35,35,36,36],"right_children":[2,4,6,8,10,12,14,16,18,20,22,24,-1,-1,26,28,30,32,34,36,38,-1,-1,-1,-1,40,-1,-1,-1,-1,-1,-1,-1,42,44,46,48,-1,-1,-1,-1,-1,-1,-1,-1,-1,-1,-1,-1],"split_conditions":[1.1361872E0,-3.227464E-2,3.3617942E0,-3.995542E-1,4.8906302E-1,2.388228E0,5.040606E0,-5.4526716E-1,-2.232188E-1,2.2281332E-1,8.2939863E-1,1.7185094E0,1.9933382E1,2.816479E1,4.679279E0,-6.3334656E-1,-4.753458E-1,-3.11126E-1,-1.2391017E-1,9.181521E-2,3.2921338E-1,4.315324E0,6.81316E0,9.656358E0,1.3428955E1,4.557428E0,2.001781E1,-4.7546487E0,-4.051782E0,-3.5184422E0,-3.0270782E0,-2.4337318E0,-1.8368138E0,-1.734779E-1,-7.406645E-2,1.7456912E-2,1.4172126E-1,1.8206643E0,2.7867649E0,2.1577711E1,5.9235058E1,-1.3264353E0,-1.014152E0,-6.995645E-1,-3.8264474E-1,-5.1202524E-2,3.9770722E-1,7.967369E-1,1.2514467E0],"split_indices":[3,3,3,3,3,3,3,3,3,3,3,3,0,0,6,3,3,3,3,3,3,0,0,0,0,7,0,0,0,0,0,0,0,3,3,3,3,0,0,0,0,0,0,0,0,0,0,0,0],"split_type":[0,0,0,0,0,0,0,0,0,0,0,0,0,0,0,0,0,0,0,0,0,0,0,0,0,0,0,0,0,0,0,0,0,0,0,0,0,0,0,0,0,0,0,0,0,0,0,0,0],"sum_hessian":[1.751E3,1.572E3,1.79E2,1.244E3,3.28E2,1.43E2,3.6E1,7.86E2,4.58E2,2.19E2,1.09E2,1.09E2,3.4E1,2.8E1,8E0,4.72E2,3.14E2,2.87E2,1.71E2,1.37E2,8.2E1,5.4E1,5.5E1,6.8E1,4.1E1,6E0,2E0,2.53E2,2.19E2,1.84E2,1.3E2,1.91E2,9.6E1,8.9E1,8.2E1,7.5E1,6.2E1,3.4E1,4.8E1,2E0,4E0,4.1E1,4.8E1,4.1E1,4.1E1,3.4E1,4.1E1,2.1E1,4.1E1],"tree_param":{"num_deleted":"0","num_feature":"730","num_nodes":"49","size_leaf_vector":"1"}},{"base_weights":[7.479416E-1,-1.7389093E1,1.5924132E2,-2.8520939E1,2.478883E1,1.2506688E2,3.259446E2,-3.5827072E1,-1.5305803E1,1.2805382E1,5.331826E1,1.0087116E2,1.8545881E1,2.6767508E1,4.3216522E2,-3.9885723E1,-2.9665648E1,-1.9890331E1,-7.913557E0,5.90335E0,2.370635E1,4.121967E0,6.144009E0,8.864966E0,1.2452723E1,4.7556976E2,1.8683289E1,-4.558087E0,-3.792453E0,-3.1556404E0,-2.7139995E0,-2.151447E0,-1.633082E0,-1.0359871E1,-4.6871624E0,1.7704122E0,1.0370015E1,1.8417515E0,2.7755837E0,2.0139193E1,5.4496254E1,-1.1385962E0,-8.2169104E-1,-5.842819E-1,-3.1664556E-1,-1.0054961E-2,3.9649832E-1,7.653233E-1,1.1934298E0],"categories":[],"categories_nodes":[],"categories_segments":[],"categories_sizes":[],"default_left":[0,0,0,0,0,0,0,0,0,0,0,0,0,0,0,0,0,0,0,0,0,0,0,0,0,0,0,0,0,0,0,0,0,0,0,0,0,0,0,0,0,0,0,0,0,0,0,0,0],"id":13,"left_children":[1,3,5,7,9,11,13,15,17,19,21,23,-1,-1,25,27,29,31,33,35,37,-1,-1,-1,-1,39,-1,-1,-1,-1,-1,-1,-1,41,43,45,47,-1,-1,-1,-1,-1,-1,-1,-1,-1,-1,-1,-1],"loss_changes":[5.039068E6,7.392589E5,9.846935E5,1.19658375E5,1.1179606E5,2.0193775E5,7.000325E4,1.8847438E4,1.4923625E4,1.7390703E4,6.9989375E3,2.0763E4,0E0,0E0,6.98475E3,3.632625E3,6.8125E2,1.2326797E3,1.308999E3,2.6399458E3,1.4163477E3,0E0,0E0,0E0,0E0,2.3430625E4,0E0,0E0,0E0,0E0,0E0,0E0,0E0,1.197334E2,1.1506262E2,3.1245154E2,2.0190137E2,0E0,0E0,0E0,0E0,0E0,0E0,0E0,0E0,0E0,0E0,0E0,0E0],"parents":[2147483647,0,0,1,1,2,2,3,3,4,4,5,5,6,6,7,7,8,8,9,9,10,10,11,11,14,14,15,15,16,16,17,17,18,18,19,19,20,20,25,25,33,33,34,34,35,35,36,36],"right_children":[2,4,6,8,10,12,14,16,18,20,22,24,-1,-1,26,28,30,32,34,36,38,-1,-1,-1,-1,40,-1,-1,-1,-1,-1,-1,-1,42,44,46,48,-1,-1,-1,-1,-1,-1,-1,-1,-1,-1,-1,-1],"split_conditions":[1.1361872E0,-3.227464E-2,3.7520788E0,-3.8925874E-1,5.2660143E-1,2.388228E0,5.040606E0,-5.41818E-1,-2.232188E-1,2.3337933E-1,8.2939863E-1,1.8318725E0,1.8545881E1,2.6767508E1,4.679279E0,-6.777923E-1,-4.753458E-1,-3.0563575E-1,-1.2001326E-1,9.181521E-2,3.599642E-1,4.121967E0,6.144009E0,8.864966E0,1.2452723E1,4.557428E0,1.8683289E1,-4.558087E0,-3.792453E0,-3.1556404E0,-2.7139995E0,-2.151447E0,-1.633082E0,-1.5454373E-1,-6.911185E-2,3.28325E-2,1.5333138E-1,1.8417515E0,2.7755837E0,2.0139193E1,5.4496254E1,-1.1385962E0,-8.2169104E-1,-5.842819E-1,-3.1664556E-1,-1.0054961E-2,3.9649832E-1,7.653233E-1,1.1934298E0],"split_indices":[3,3,3,3,3,3,3,3,3,3,3,3,0,0,6,3,3,3,3,3,3,0,0,0,0,7,0,0,0,0,0,0,0,3,3,3,3,0,0,0,0,0,0,0,0,0,0,0,0],"split_type":[0,0,0,0,0,0,0,0,0,0,0,0,0,0,0,0,0,0,0,0,0,0,0,0,0,0,0,0,0,0,0,0,0,0,0,0,0,0,0,0,0,0,0,0,0,0,0,0,0],"sum_hessian":[1.751E3,1.572E3,1.79E2,1.244E3,3.28E2,1.5E2,2.9E1,8E2,4.44E2,2.32E2,9.6E1,1.09E2,4.1E1,2.1E1,8E0,4.79E2,3.21E2,2.73E2,1.71E2,1.43E2,8.9E1,4.1E1,5.5E1,7.5E1,3.4E1,6E0,2E0,1.17E2,3.62E2,1.77E2,1.44E2,1.84E2,8.9E1,9.6E1,7.5E1,7.5E1,6.8E1,4.1E1,4.8E1,2E0,4E0,6.2E1,3.4E1,4.1E1,3.4E1,4.1E1,3.4E1,2.7E1,4.1E1],"tree_param":{"num_deleted":"0","num_feature":"730","num_nodes":"49","size_leaf_vector":"1"}},{"base_weights":[7.623661E-1,-1.5652497E1,1.442058E2,-2.5685606E1,2.2362312E1,1.1704566E2,3.245143E2,-3.2183193E1,-1.3640548E1,1.1554726E1,4.8092262E1,9.097785E1,1.7317654E1,2.5964218E1,4.1369434E2,-3.6811775E1,-2.7622707E1,-1.7642496E1,-6.912218E0,5.3293E0,2.1387022E1,3.7195833E0,5.5405793E0,7.6529155E0,1.074032E1,4.6440378E2,1.7437733E1,-4.3011255E0,-3.5380845E0,-2.966184E0,-2.4616814E0,-1.898177E1,-1.3903573E0,-9.10015E0,-4.2302957E0,1.2092785E0,8.999723E0,1.7251863E0,2.5702157E0,1.3979749E1,5.0136555E1,-2.0443923E0,-1.7449573E0,-9.988553E-1,-7.418701E-1,-5.272444E-1,-2.8588524E-1,-4.525116E-2,2.836518E-1,6.6191226E-1,1.0769279E0],"categories":[],"categories_nodes":[],"categories_segments":[],"categories_sizes":[],"default_left":[0,0,0,0,0,0,0,0,0,0,0,0,0,0,0,0,0,0,0,0,0,0,0,0,0,0,0,0,0,0,0,0,0,0,0,0,0,0,0,0,0,0,0,0,0,0,0,0,0,0,0],"id":14,"left_children":[1,3,5,7,9,11,13,15,17,19,21,23,-1,-1,25,27,29,31,33,35,37,-1,-1,-1,-1,39,-1,-1,-1,-1,-1,41,-1,43,45,47,49,-1,-1,-1,-1,-1,-1,-1,-1,-1,-1,-1,-1,-1,-1],"loss_changes":[4.127524E6,6.005271E5,8.4351375E5,9.699944E4,9.093216E4,2.1543175E5,2.56495E4,1.60388125E4,1.1671828E4,1.4148008E4,5.669203E3,1.7886312E4,0E0,0E0,1.6103625E4,2.0089375E3,1.789E3,1.108125E3,9.297007E2,2.166717E3,1.1625273E3,0E0,0E0,0E0,0E0,1.8985E3,0E0,0E0,0E0,0E0,0E0,8.9078125E1,0E0,6.0340332E1,9.3549805E1,1.8786853E2,2.48875E2,0E0,0E0,0E0,0E0,0E0,0E0,0E0,0E0,0E0,0E0,0E0,0E0,0E0,0E0],"parents":[2147483647,0,0,1,1,2,2,3,3,4,4,5,5,6,6,7,7,8,8,9,9,10,10,11,11,14,14,15,15,16,16,17,17,18,18,19,19,20,20,25,25,31,31,33,33,34,34,35,35,36,36],"right_children":[2,4,6,8,10,12,14,16,18,20,22,24,-1,-1,26,28,30,32,34,36,38,-1,-1,-1,-1,40,-1,-1,-1,-1,-1,42,-1,44,46,48,50,-1,-1,-1,-1,-1,-1,-1,-1,-1,-1,-1,-1,-1,-1],"split_conditions":[1.1361872E0,-3.227464E-2,4.386067E0,-3.8520893E-1,5.2660143E-1,2.388228E0,5.040606E0,-5.790321E-1,-2.0751223E-1,2.3337933E-1,8.2939863E-1,1.6246617E0,1.7317654E1,2.5964218E1,4.679279E0,-6.957896E-1,-4.8599178E-1,-2.858766E-1,-1.2001326E-1,7.969379E-2,3.8749433E-1,3.7195833E0,5.5405793E0,7.6529155E0,1.074032E1,4.557428E0,1.7437733E1,-4.3011255E0,-3.5380845E0,-2.966184E0,-2.4616814E0,-3.549462E-1,-1.3903573E0,-1.5454373E-1,-6.911185E-2,1.7456912E-2,1.5333138E-1,1.7251863E0,2.5702157E0,1.3979749E1,5.0136555E1,-2.0443923E0,-1.7449573E0,-9.988553E-1,-7.418701E-1,-5.272444E-1,-2.8588524E-1,-4.525116E-2,2.836518E-1,6.6191226E-1,1.0769279E0],"split_indices":[3,3,7,3,3,3,3,3,3,3,3,3,0,0,6,3,3,3,3,3,3,0,0,0,0,7,0,0,0,0,0,3,0,3,3,3,3,0,0,0,0,0,0,0,0,0,0,0,0,0,0],"split_type":[0,0,0,0,0,0,0,0,0,0,0,0,0,0,0,0,0,0,0,0,0,0,0,0,0,0,0,0,0,0,0,0,0,0,0,0,0,0,0,0,0,0,0,0,0,0,0,0,0,0,0],"sum_hessian":[1.751E3,1.572E3,1.79E2,1.244E3,3.28E2,1.57E2,2.2E1,8.07E2,4.37E2,2.32E2,9.6E1,1.09E2,4.8E1,1.5E1,7E0,3.97E2,4.1E2,2.73E2,1.64E2,1.43E2,8.9E1,4.1E1,5.5E1,6.1E1,4.8E1,5E0,2E0,6.9E1,3.28E2,2.39E2,1.71E2,1.98E2,7.5E1,8.9E1,7.5E1,6.8E1,7.5E1,4.8E1,4.1E1,1E0,4E0,9.5E1,1.03E2,5.5E1,3.4E1,4.1E1,3.4E1,3.4E1,3.4E1,3.4E1,4.1E1],"tree_param":{"num_deleted":"0","num_feature":"730","num_nodes":"51","size_leaf_vector":"1"}},{"base_weights":[7.6476127E-1,-1.3165694E1,1.3945508E2,-2.2530117E1,2.489863E1,1.1223079E2,2.9673758E2,-2.8905521E1,-1.13075695E1,1.3326704E1,4.8587193E1,8.703827E1,1.5621233E1,2.3530071E1,3.8251913E2,-3.4463566E1,-2.5702972E1,-1.5666054E1,-5.0287557E0,7.5534115E0,2.2278206E1,3.873085E0,5.4480405E0,7.6134887E0,1.0199689E1,4.2864944E1,1.6275215E1,-3.9510362E0,-3.3142383E0,-2.8228061E0,-2.293751E1,-1.6991182E1,-1.2411948E0,-7.5286016E0,-2.1119456E0,3.562835E0,1.0394449E1,1.7833674E0,2.4998214E0,-2.405442E0,-2.1095293E0,-1.8104941E0,-1.5527757E0,-8.4437305E-1,-5.998445E-1,-3.3443555E-1,-6.238494E-2,2.163856E-1,4.7907168E-1,8.224603E-1,1.1955168E0],"categories":[],"categories_nodes":[],"categories_segments":[],"categories_sizes":[],"default_left":[0,0,0,0,0,0,0,0,0,0,0,0,0,0,0,0,0,0,0,0,0,0,0,0,0,0,0,0,0,0,0,0,0,0,0,0,0,0,0,0,0,0,0,0,0,0,0,0,0,0,0],"id":15,"left_children":[1,3,5,7,9,11,13,15,17,19,21,23,-1,-1,25,27,29,31,33,35,37,-1,-1,-1,-1,-1,-1,-1,-1,-1,39,41,-1,43,45,47,49,-1,-1,-1,-1,-1,-1,-1,-1,-1,-1,-1,-1,-1,-1],"loss_changes":[3.386734E6,5.683865E5,6.518015E5,9.118344E4,8.5701016E4,1.3930825E5,3.1206625E4,1.36210625E4,1.2646457E4,1.0839488E4,3.8727188E3,6.9135E3,0E0,0E0,1.1339625E4,6.575E2,2.9906875E3,9.706328E2,1.384082E3,1.4481636E3,5.5758984E2,0E0,0E0,0E0,0E0,0E0,0E0,0E0,0E0,0E0,1.5203125E1,3.18125E1,0E0,9.358057E1,1.6296863E2,8.5829285E1,1.5904883E2,0E0,0E0,0E0,0E0,0E0,0E0,0E0,0E0,0E0,0E0,0E0,0E0,0E0,0E0],"parents":[2147483647,0,0,1,1,2,2,3,3,4,4,5,5,6,6,7,7,8,8,9,9,10,10,11,11,14,14,15,15,16,16,17,17,18,18,19,19,20,20,30,30,31,31,33,33,34,34,35,35,36,36],"right_children":[2,4,6,8,10,12,14,16,18,20,22,24,-1,-1,26,28,30,32,34,36,38,-1,-1,-1,-1,-1,-1,-1,-1,-1,40,42,-1,44,46,48,50,-1,-1,-1,-1,-1,-1,-1,-1,-1,-1,-1,-1,-1,-1],"split_conditions":[1.3194739E0,1.7456912E-2,4.386067E0,-3.8223538E-1,6.2433785E-1,2.388228E0,5.040606E0,-6.1456335E-1,-2.0280007E-1,3.106004E-1,9.020914E-1,1.8318725E0,1.5621233E1,2.3530071E1,4.679279E0,-7.0085347E-1,-5.131159E-1,-2.858766E-1,-8.9531735E-2,1.1812005E-1,4.1140977E-1,3.873085E0,5.4480405E0,7.6134887E0,1.0199689E1,4.2864944E1,1.6275215E1,-3.9510362E0,-3.3142383E0,-2.8228061E0,-4.496854E-1,-3.4228578E-1,-1.2411948E0,-1.40742E-1,-3.4499347E-2,7.098137E-2,1.9979274E-1,1.7833674E0,2.4998214E0,-2.405442E0,-2.1095293E0,-1.8104941E0,-1.5527757E0,-8.4437305E-1,-5.998445E-1,-3.3443555E-1,-6.238494E-2,2.163856E-1,4.7907168E-1,8.224603E-1,1.1955168E0],"split_indices":[3,3,7,3,3,3,3,3,3,3,3,3,0,0,6,3,3,3,3,3,3,0,0,0,0,0,0,0,0,0,3,3,0,3,3,3,3,0,0,0,0,0,0,0,0,0,0,0,0,0,0],"split_type":[0,0,0,0,0,0,0,0,0,0,0,0,0,0,0,0,0,0,0,0,0,0,0,0,0,0,0,0,0,0,0,0,0,0,0,0,0,0,0,0,0,0,0,0,0,0,0,0,0,0,0],"sum_hessian":[1.751E3,1.592E3,1.59E2,1.278E3,3.14E2,1.37E2,2.2E1,8.14E2,4.64E2,2.12E2,1.02E2,8.9E1,4.8E1,1.5E1,7E0,2.94E2,5.2E2,2.73E2,1.91E2,1.3E2,8.2E1,4.1E1,6.1E1,5.5E1,3.4E1,5E0,2E0,5.5E1,2.39E2,2.67E2,2.53E2,1.91E2,8.2E1,1.02E2,8.9E1,5.5E1,7.5E1,3.4E1,4.8E1,1.5E2,1.03E2,1.02E2,8.9E1,6.1E1,4.1E1,4.8E1,4.1E1,2.7E1,2.8E1,3.4E1,4.1E1],"tree_param":{"num_deleted":"0","num_feature":"730","num_nodes":"51","size_leaf_vector":"1"}},{"base_weights":[7.518556E-1,-1.1852094E1,1.2623523E2,-2.017647E1,2.2943357E1,1.01249985E2,2.7065817E2,-2.6102045E1,-1.0138804E1,1.2394173E1,4.3818977E1,8.082289E1,1.4601613E1,2.132413E1,3.516597E2,-3.1226187E1,-2.3310564E1,-1.409573E1,-4.15061E0,7.134952E0,2.0101994E1,3.3513608E0,4.8411283E0,6.865735E0,9.511928E0,9.849988E0,3.7375397E2,-3.5310066E0,-2.9914777E0,-2.5773706E0,-2.095971E1,-1.5335526E1,-1.0848814E0,-6.434763E0,-1.4904058E0,3.5048094E0,9.381558E0,1.6639137E0,2.308623E0,1.1137512E1,3.9892128E1,-2.2101524E0,-1.9391037E0,-1.6607386E0,-1.4097384E0,-7.2860456E-1,-5.024899E-1,-2.3314731E-1,4.5522474E-2,2.20089E-1,4.3281713E-1,7.7048236E-1,1.1125596E0],"categories":[],"categories_nodes":[],"categories_segments":[],"categories_sizes":[],"default_left":[0,0,0,0,0,0,0,0,0,0,0,0,0,0,0,0,0,0,0,0,0,0,0,0,0,0,0,0,0,0,0,0,0,0,0,0,0,0,0,0,0,0,0,0,0,0,0,0,0,0,0,0,0],"id":16,"left_children":[1,3,5,7,9,11,13,15,17,19,21,23,-1,-1,25,27,29,31,33,35,37,-1,-1,-1,-1,-1,39,-1,-1,-1,41,43,-1,45,47,49,51,-1,-1,-1,-1,-1,-1,-1,-1,-1,-1,-1,-1,-1,-1,-1,-1],"loss_changes":[2.7724348E6,4.61876E5,5.499465E5,7.622528E4,6.728492E4,1.143915E5,3.19815E4,1.08296875E4,1.129132E4,8.207223E3,3.2520781E3,1.0339875E4,0E0,0E0,7.93225E3,4.54E2,2.5114062E3,9.9297656E2,1.1570618E3,9.7840186E2,4.7358203E2,0E0,0E0,0E0,0E0,0E0,1.7936875E3,0E0,0E0,0E0,6.4E1,9.027734E1,0E0,8.700781E1,1.4833794E2,4.3080383E1,1.365249E2,0E0,0E0,0E0,0E0,0E0,0E0,0E0,0E0,0E0,0E0,0E0,0E0,0E0,0E0,0E0,0E0],"parents":[2147483647,0,0,1,1,2,2,3,3,4,4,5,5,6,6,7,7,8,8,9,9,10,10,11,11,14,14,15,15,16,16,17,17,18,18,19,19,20,20,26,26,30,30,31,31,33,33,34,34,35,35,36,36],"right_children":[2,4,6,8,10,12,14,16,18,20,22,24,-1,-1,26,28,30,32,34,36,38,-1,-1,-1,-1,-1,40,-1,-1,-1,42,44,-1,46,48,50,52,-1,-1,-1,-1,-1,-1,-1,-1,-1,-1,-1,-1,-1,-1,-1,-1],"split_conditions":[1.3194739E0,3.28325E-2,4.386067E0,-3.8520893E-1,6.2433785E-1,2.55612E0,5.040606E0,-6.195556E-1,-1.957603E-1,3.106004E-1,8.654229E-1,1.8318725E0,1.4601613E1,2.132413E1,2.00001E0,-6.988833E-1,-5.2131283E-1,-2.7967727E-1,-8.092709E-2,1.1812005E-1,4.4405273E-1,3.3513608E0,4.8411283E0,6.865735E0,9.511928E0,9.849988E0,4.557428E0,-3.5310066E0,-2.9914777E0,-2.5773706E0,-4.6328315E-1,-3.549462E-1,-1.0848814E0,-1.3161542E-1,-1.767448E-2,7.098137E-2,2.0674725E-1,1.6639137E0,2.308623E0,1.1137512E1,3.9892128E1,-2.2101524E0,-1.9391037E0,-1.6607386E0,-1.4097384E0,-7.2860456E-1,-5.024899E-1,-2.3314731E-1,4.5522474E-2,2.20089E-1,4.3281713E-1,7.7048236E-1,1.1125596E0],"split_indices":[3,3,7,3,3,3,3,3,3,3,3,3,0,0,326,3,3,3,3,3,3,0,0,0,0,0,7,0,0,0,3,3,0,3,3,3,3,0,0,0,0,0,0,0,0,0,0,0,0,0,0,0,0],"split_type":[0,0,0,0,0,0,0,0,0,0,0,0,0,0,0,0,0,0,0,0,0,0,0,0,0,0,0,0,0,0,0,0,0,0,0,0,0,0,0,0,0,0,0,0,0,0,0,0,0,0,0,0,0],"sum_hessian":[1.751E3,1.592E3,1.59E2,1.285E3,3.07E2,1.37E2,2.2E1,8.07E2,4.78E2,2.05E2,1.02E2,9.6E1,4.1E1,1.5E1,7E0,2.81E2,5.26E2,2.87E2,1.91E2,1.23E2,8.2E1,3.4E1,6.8E1,5.5E1,4.1E1,1E0,6E0,6.2E1,2.19E2,2.52E2,2.74E2,2.05E2,8.2E1,1.02E2,8.9E1,4.8E1,7.5E1,4.1E1,4.1E1,1E0,5E0,1.51E2,1.23E2,9.5E1,1.1E2,6.1E1,4.1E1,6.2E1,2.7E1,2E1,2.8E1,4.1E1,3.4E1],"tree_param":{"num_deleted":"0","num_feature":"730","num_nodes":"53","size_leaf_vector":"1"}},{"base_weights":[7.389209E-1,-1.0669472E1,1.14319115E2,-1.8067804E1,2.1146852E1,9.129634E1,2.4748532E2,-2.3270761E1,-8.563365E0,1.1532613E1,3.9516624E1,7.0743256E1,1.2718372E1,1.9083805E1,3.1439908E2,-2.6248203E1,-1.9049316E1,-1.2136561E1,-3.2535846E0,7.060467E0,1.8677528E1,3.143014E0,4.43572E0,6.191423E0,8.284846E0,3.4623257E2,1.3532129E1,-2.9593878E0,-2.4551513E0,-2.0232306E0,-1.7093934E0,-1.3342384E1,-9.200966E-1,-5.192335E0,-7.8510714E-1,4.35212E0,9.613753E0,1.5557833E0,2.0832572E0,1.494583E1,3.9505062E1,-1.4266899E0,-1.2269257E0,-5.8619535E-1,-3.704746E-1,-1.6228954E-1,8.308742E-2,2.9324156E-1,5.3635377E-1,8.1569606E-1,1.1040443E0],"categories":[],"categories_nodes":[],"categories_segments":[],"categories_sizes":[],"default_left":[0,0,0,0,0,0,0,0,0,0,0,0,0,0,0,0,0,0,0,0,0,0,0,0,0,0,0,0,0,0,0,0,0,0,0,0,0,0,0,0,0,0,0,0,0,0,0,0,0,0,0],"id":17,"left_children":[1,3,5,7,9,11,13,15,17,19,21,23,-1,-1,25,27,29,31,33,35,37,-1,-1,-1,-1,39,-1,-1,-1,-1,-1,41,-1,43,45,47,49,-1,-1,-1,-1,-1,-1,-1,-1,-1,-1,-1,-1,-1,-1],"loss_changes":[2.2714042E6,3.7535478E5,4.6794238E5,6.3741125E4,5.2704297E4,9.2791E4,2.718175E4,9.9951875E3,8.66907E3,6.226795E3,2.6375938E3,4.4894375E3,0E0,0E0,4.4534375E3,2.037875E3,4.6146094E2,8.471406E2,8.8607495E2,8.156426E2,1.8684375E2,0E0,0E0,0E0,0E0,8.1993125E3,0E0,0E0,0E0,0E0,0E0,1.54453125E1,0E0,8.187915E1,1.13717995E2,7.329846E1,4.0881836E1,0E0,0E0,0E0,0E0,0E0,0E0,0E0,0E0,0E0,0E0,0E0,0E0,0E0,0E0],"parents":[2147483647,0,0,1,1,2,2,3,3,4,4,5,5,6,6,7,7,8,8,9,9,10,10,11,11,14,14,15,15,16,16,17,17,18,18,19,19,20,20,25,25,31,31,33,33,34,34,35,35,36,36],"right_children":[2,4,6,8,10,12,14,16,18,20,22,24,-1,-1,26,28,30,32,34,36,38,-1,-1,-1,-1,40,-1,-1,-1,-1,-1,42,-1,44,46,48,50,-1,-1,-1,-1,-1,-1,-1,-1,-1,-1,-1,-1,-1,-1],"split_conditions":[1.3194739E0,4.5961536E-2,4.0467753E0,-3.7084293E-1,6.2433785E-1,2.388228E0,5.040606E0,-5.405422E-1,-1.8347867E-1,3.2921338E-1,9.020914E-1,1.8318725E0,1.2718372E1,1.9083805E1,4.679279E0,-6.618578E-1,-4.57631E-1,-2.6585296E-1,-6.911185E-2,1.5930796E-1,4.4405273E-1,3.143014E0,4.43572E0,6.191423E0,8.284846E0,4.557428E0,1.3532129E1,-2.9593878E0,-2.4551513E0,-2.0232306E0,-1.7093934E0,-3.3514106E-1,-9.200966E-1,-1.1072984E-1,-5.7343314E-3,9.181521E-2,2.3337933E-1,1.5557833E0,2.0832572E0,1.494583E1,3.9505062E1,-1.4266899E0,-1.2269257E0,-5.8619535E-1,-3.704746E-1,-1.6228954E-1,8.308742E-2,2.9324156E-1,5.3635377E-1,8.1569606E-1,1.1040443E0],"split_indices":[3,3,3,3,3,3,3,3,3,3,3,3,0,0,6,3,3,3,3,3,3,0,0,0,0,7,0,0,0,0,0,3,0,3,3,3,3,0,0,0,0,0,0,0,0,0,0,0,0,0,0],"split_type":[0,0,0,0,0,0,0,0,0,0,0,0,0,0,0,0,0,0,0,0,0,0,0,0,0,0,0,0,0,0,0,0,0,0,0,0,0,0,0,0,0,0,0,0,0,0,0,0,0,0,0],"sum_hessian":[1.751E3,1.592E3,1.59E2,1.292E3,3E2,1.37E2,2.2E1,8.34E2,4.58E2,1.98E2,1.02E2,8.9E1,4.8E1,1.4E1,8E0,4.86E2,3.48E2,2.73E2,1.85E2,1.23E2,7.5E1,4.1E1,6.1E1,5.5E1,3.4E1,6E0,2E0,1.58E2,3.28E2,2.11E2,1.37E2,1.91E2,8.2E1,1.03E2,8.2E1,6.1E1,6.2E1,3.4E1,4.1E1,2E0,4E0,9.6E1,9.5E1,6.9E1,3.4E1,5.4E1,2.8E1,2.7E1,3.4E1,3.4E1,2.8E1],"tree_param":{"num_deleted":"0","num_feature":"730","num_nodes":"51","size_leaf_vector":"1"}},{"base_weights":[7.303663E-1,-9.602392E0,1.03601326E2,-1.646263E1,1.8282835E1,8.230852E1,2.2685379E2,-2.1171843E1,-8.366218E0,1.0222328E1,3.656438E1,6.557707E1,1.18990456E2,1.7655233E1,2.9909998E2,-2.4965918E1,-1.86067E1,-1.1541911E1,-3.6748838E0,5.848847E0,1.7370737E1,3.0247333E0,4.0723505E0,5.583336E0,7.7007327E0,3.4952362E0,1.2018767E1,3.3565E2,1.2629989E1,-2.9659917E0,-2.4038749E0,-2.0098798E0,-1.6353788E0,-1.2877488E0,-9.747047E0,-5.500548E0,-1.5446811E0,2.9211402E0,8.198804E0,1.4492447E0,1.983544E0,9.83335E0,3.634466E1,-1.0568956E0,-8.2733315E-1,-6.4043444E-1,-4.595337E-1,-2.5016683E-1,-3.914181E-2,1.60892E-1,3.860613E-1,6.7507666E-1,9.702196E-1],"categories":[],"categories_nodes":[],"categories_segments":[],"categories_sizes":[],"default_left":[0,0,0,0,0,0,0,0,0,0,0,0,0,0,0,0,0,0,0,0,0,0,0,0,0,0,0,0,0,0,0,0,0,0,0,0,0,0,0,0,0,0,0,0,0,0,0,0,0,0,0,0,0],"id":18,"left_children":[1,3,5,7,9,11,13,15,17,19,21,23,25,-1,27,29,31,33,35,37,39,-1,-1,-1,-1,-1,-1,41,-1,-1,-1,-1,-1,-1,43,45,47,49,51,-1,-1,-1,-1,-1,-1,-1,-1,-1,-1,-1,-1,-1,-1],"loss_changes":[1.863267E6,3.050407E5,4.0123062E5,4.858825E4,4.6044164E4,7.689331E4,3.077725E4,7.3991875E3,6.9895547E3,6.7763574E3,1.2904609E3,6.5035938E3,2.4875E1,0E0,8.13425E3,6.927656E2,1.3050156E3,5.4808984E2,7.3819775E2,9.254873E2,3.013496E2,0E0,0E0,0E0,0E0,0E0,0E0,3.8405625E3,0E0,0E0,0E0,0E0,0E0,0E0,6.275586E1,5.483716E1,9.835002E1,7.145465E1,9.995264E1,0E0,0E0,0E0,0E0,0E0,0E0,0E0,0E0,0E0,0E0,0E0,0E0,0E0,0E0],"parents":[2147483647,0,0,1,1,2,2,3,3,4,4,5,5,6,6,7,7,8,8,9,9,10,10,11,11,12,12,14,14,15,15,16,16,17,17,18,18,19,19,20,20,27,27,34,34,35,35,36,36,37,37,38,38],"right_children":[2,4,6,8,10,12,14,16,18,20,22,24,26,-1,28,30,32,34,36,38,40,-1,-1,-1,-1,-1,-1,42,-1,-1,-1,-1,-1,-1,44,46,48,50,52,-1,-1,-1,-1,-1,-1,-1,-1,-1,-1,-1,-1,-1,-1],"split_conditions":[1.3194739E0,1.7456912E-2,4.386067E0,-3.8520893E-1,6.8931955E-1,2.55612E0,5.040606E0,-6.073302E-1,-2.0280007E-1,3.2921338E-1,9.6777403E-1,1.8318725E0,2.00001E0,1.7655233E1,4.679279E0,-7.0563453E-1,-4.980495E-1,-3.1562424E-1,-8.9531735E-2,1.4172126E-1,4.5811835E-1,3.0247333E0,4.0723505E0,5.583336E0,7.7007327E0,3.4952362E0,1.2018767E1,4.557428E0,1.2629989E1,-2.9659917E0,-2.4038749E0,-2.0098798E0,-1.6353788E0,-1.2877488E0,-2.5631467E-1,-1.5454373E-1,-3.4499347E-2,7.098137E-2,2.2281332E-1,1.4492447E0,1.983544E0,9.83335E0,3.634466E1,-1.0568956E0,-8.2733315E-1,-6.4043444E-1,-4.595337E-1,-2.5016683E-1,-3.914181E-2,1.60892E-1,3.860613E-1,6.7507666E-1,9.702196E-1],"split_indices":[3,3,7,3,3,3,3,3,3,3,3,3,350,0,6,3,3,3,3,3,3,0,0,0,0,0,0,7,0,0,0,0,0,0,3,3,3,3,3,0,0,0,0,0,0,0,0,0,0,0,0,0,0],"split_type":[0,0,0,0,0,0,0,0,0,0,0,0,0,0,0,0,0,0,0,0,0,0,0,0,0,0,0,0,0,0,0,0,0,0,0,0,0,0,0,0,0,0,0,0,0,0,0,0,0,0,0,0,0],"sum_hessian":[1.751E3,1.592E3,1.59E2,1.278E3,3.14E2,1.37E2,2.2E1,8.07E2,4.71E2,2.19E2,9.5E1,9.6E1,4.1E1,1.5E1,7E0,3.22E2,4.85E2,2.8E2,1.91E2,1.37E2,8.2E1,4.1E1,5.4E1,5.5E1,4.1E1,1E0,4E1,5E0,2E0,4.8E1,2.74E2,2.87E2,1.98E2,1.57E2,1.23E2,1.02E2,8.9E1,6.2E1,7.5E1,4.1E1,4.1E1,1E0,4E0,7.5E1,4.8E1,4.8E1,5.4E1,4.8E1,4.1E1,2.7E1,3.5E1,4.1E1,3.4E1],"tree_param":{"num_deleted":"0","num_feature":"730","num_nodes":"53","size_leaf_vector":"1"}},{"base_weights":[7.1692246E-1,-8.417888E0,9.623966E1,-1.4655467E1,1.7795126E1,7.590112E1,2.0789658E2,-1.877615E1,-6.7608266E0,1.0178612E1,3.4508904E1,6.0433083E1,1.0723975E1,1.5729971E2,2.6912503E2,-2.1278063E1,-1.5268534E1,-9.680729E0,-2.642894E0,5.7615194E0,1.6151289E1,2.90944E0,3.8016179E0,5.1436744E0,6.948993E0,6.743872E0,1.6593689E1,2.9549796E2,1.1787989E1,-2.351639E1,-1.9505671E0,-1.6195904E0,-1.3545009E0,-1.0652102E0,-7.4809086E-1,-4.107451E0,-4.6909532E-1,3.5370696E0,7.859208E0,1.3454798E0,1.891264E0,1.3221038E1,3.343709E1,-2.712303E0,-2.2498977E0,-4.9674296E-1,-3.1741247E-1,-1.16074465E-1,6.918793E-2,2.5911233E-1,4.5931783E-1,6.84406E-1,9.4399816E-1],"categories":[],"categories_nodes":[],"categories_segments":[],"categories_sizes":[],"default_left":[0,0,0,0,0,0,0,0,0,0,0,0,0,0,0,0,0,0,0,0,0,0,0,0,0,0,0,0,0,0,0,0,0,0,0,0,0,0,0,0,0,0,0,0,0,0,0,0,0,0,0,0,0],"id":19,"left_children":[1,3,5,7,9,11,13,15,17,19,21,23,-1,25,27,29,31,33,35,37,39,-1,-1,-1,-1,-1,-1,41,-1,43,-1,-1,-1,-1,-1,45,47,49,51,-1,-1,-1,-1,-1,-1,-1,-1,-1,-1,-1,-1,-1,-1],"loss_changes":[1.529574E6,2.6186998E5,3.3167388E5,4.1936062E4,3.8857367E4,5.7021062E4,2.892E4,7.1257188E3,5.325078E3,5.5262812E3,7.169922E2,3.75875E3,0E0,4.5159375E2,1.0656875E3,1.497125E3,3.5122656E2,4.7589258E2,5.902324E2,5.5081104E2,4.1566992E2,0E0,0E0,0E0,0E0,0E0,0E0,2.25E2,0E0,1.7133594E2,0E0,0E0,0E0,0E0,0E0,7.332605E1,6.183013E1,5.003784E1,3.6489746E1,0E0,0E0,0E0,0E0,0E0,0E0,0E0,0E0,0E0,0E0,0E0,0E0,0E0,0E0],"parents":[2147483647,0,0,1,1,2,2,3,3,4,4,5,5,6,6,7,7,8,8,9,9,10,10,11,11,13,13,14,14,15,15,16,16,17,17,18,18,19,19,20,20,27,27,29,29,35,35,36,36,37,37,38,38],"right_children":[2,4,6,8,10,12,14,16,18,20,22,24,-1,26,28,30,32,34,36,38,40,-1,-1,-1,-1,-1,-1,42,-1,44,-1,-1,-1,-1,-1,46,48,50,52,-1,-1,-1,-1,-1,-1,-1,-1,-1,-1,-1,-1,-1,-1],"split_conditions":[1.3874263E0,4.5961536E-2,4.0467753E0,-3.598282E-1,7.443647E-1,2.55612E0,5.040606E0,-5.3868985E-1,-1.8347867E-1,3.2921338E-1,9.983091E-1,1.8318725E0,1.0723975E1,4.386067E0,4.679279E0,-6.4339364E-1,-4.4546175E-1,-2.6585296E-1,-5.9334293E-2,1.5930796E-1,4.8906302E-1,2.90944E0,3.8016179E0,5.1436744E0,6.948993E0,6.743872E0,1.6593689E1,4.557428E0,1.1787989E1,-7.086649E-1,-1.9505671E0,-1.6195904E0,-1.3545009E0,-1.0652102E0,-7.4809086E-1,-1.2391017E-1,-5.7343314E-3,1.0923485E-1,2.5834218E-1,1.3454798E0,1.891264E0,1.3221038E1,3.343709E1,-2.712303E0,-2.2498977E0,-4.9674296E-1,-3.1741247E-1,-1.16074465E-1,6.918793E-2,2.5911233E-1,4.5931783E-1,6.84406E-1,9.4399816E-1],"split_indices":[3,3,3,3,3,3,3,3,3,3,3,3,0,7,6,3,3,3,3,3,3,0,0,0,0,0,0,7,0,3,0,0,0,0,0,3,3,3,3,0,0,0,0,0,0,0,0,0,0,0,0,0,0],"split_type":[0,0,0,0,0,0,0,0,0,0,0,0,0,0,0,0,0,0,0,0,0,0,0,0,0,0,0,0,0,0,0,0,0,0,0,0,0,0,0,0,0,0,0,0,0,0,0,0,0,0,0,0,0],"sum_hessian":[1.751E3,1.599E3,1.52E2,1.292E3,3.07E2,1.3E2,2.2E1,8.48E2,4.44E2,2.12E2,9.5E1,8.9E1,4.1E1,1.4E1,8E0,4.92E2,3.56E2,2.59E2,1.85E2,1.23E2,8.9E1,4.1E1,5.4E1,4.8E1,4.1E1,2E0,1.2E1,6E0,2E0,2.12E2,2.8E2,2.26E2,1.3E2,1.77E2,8.2E1,1.1E2,7.5E1,6.1E1,6.2E1,4.8E1,4.1E1,2E0,4E0,4.1E1,1.71E2,5.5E1,5.5E1,4.7E1,2.8E1,3.4E1,2.7E1,4.1E1,2.1E1],"tree_param":{"num_deleted":"0","num_feature":"730","num_nodes":"53","size_leaf_vector":"1"}},{"base_weights":[7.0478064E-1,-7.5762653E0,8.729935E1,-1.3120513E1,1.639416E1,6.848518E1,1.9066269E2,-1.6910181E1,-5.9732823E0,9.448359E0,3.112792E1,5.4524147E1,9.677108E1,1.4312553E1,2.4870653E2,-1.9791122E1,-1.4419205E1,-8.80802E0,-2.3574739E0,5.6785007E0,1.4966599E1,2.625422E0,3.4283693E0,4.7485065E0,6.4228845E0,2.7842743E0,9.777317E0,1.6287405E1,3.1527863E1,-2.3245971E0,-1.8883774E1,-1.5777369E0,-1.2776549E0,-9.487777E0,-6.560898E-1,-3.8120623E0,-2.6110142E-1,3.6384418E0,7.596043E0,1.2783103E0,1.7462189E0,-1.9665682E0,-1.7392464E0,-1.0257148E0,-8.738145E-1,-4.352463E-1,-2.4602476E-1,-1.04708925E-1,7.9413526E-2,2.7143618E-1,4.663597E-1,6.32663E-1,8.8661605E-1],"categories":[],"categories_nodes":[],"categories_segments":[],"categories_sizes":[],"default_left":[0,0,0,0,0,0,0,0,0,0,0,0,0,0,0,0,0,0,0,0,0,0,0,0,0,0,0,0,0,0,0,0,0,0,0,0,0,0,0,0,0,0,0,0,0,0,0,0,0,0,0,0,0],"id":20,"left_children":[1,3,5,7,9,11,13,15,17,19,21,23,25,-1,27,29,31,33,35,37,39,-1,-1,-1,-1,-1,-1,-1,-1,-1,41,-1,-1,43,-1,45,47,49,51,-1,-1,-1,-1,-1,-1,-1,-1,-1,-1,-1,-1,-1,-1],"loss_changes":[1.2570094E6,2.1285184E5,2.8448075E5,3.5110312E4,3.0509555E4,4.6455562E4,2.7866312E4,5.8073594E3,4.612174E3,4.200426E3,5.764219E2,3.0981875E3,1.7878125E2,0E0,7.575E1,7.8671875E2,8.224375E2,3.2421094E2,6.0887646E2,4.5743774E2,2.2905664E2,0E0,0E0,0E0,0E0,0E0,0E0,0E0,0E0,0E0,2.5265625E1,0E0,0E0,2.1105469E1,0E0,7.5493286E1,6.967199E1,4.60755E1,4.5481934E1,0E0,0E0,0E0,0E0,0E0,0E0,0E0,0E0,0E0,0E0,0E0,0E0,0E0,0E0],"parents":[2147483647,0,0,1,1,2,2,3,3,4,4,5,5,6,6,7,7,8,8,9,9,10,10,11,11,12,12,14,14,15,15,16,16,17,17,18,18,19,19,20,20,30,30,33,33,35,35,36,36,37,37,38,38],"right_children":[2,4,6,8,10,12,14,16,18,20,22,24,26,-1,28,30,32,34,36,38,40,-1,-1,-1,-1,-1,-1,-1,-1,-1,42,-1,-1,44,-1,46,48,50,52,-1,-1,-1,-1,-1,-1,-1,-1,-1,-1,-1,-1,-1,-1],"split_conditions":[1.3874263E0,5.7039842E-2,4.0467753E0,-3.598282E-1,7.443647E-1,2.55612E0,5.040606E0,-5.809535E-1,-1.8926367E-1,3.48068E-1,9.983091E-1,1.9575124E0,2.00001E0,1.4312553E1,5.4309626E0,-6.9267875E-1,-4.8599178E-1,-2.5631467E-1,-5.9334293E-2,1.8735375E-1,5.115822E-1,2.625422E0,3.4283693E0,4.7485065E0,6.4228845E0,2.7842743E0,9.777317E0,1.6287405E1,3.1527863E1,-2.3245971E0,-6.223706E-1,-1.5777369E0,-1.2776549E0,-3.3092582E-1,-6.560898E-1,-9.897617E-2,-5.7343314E-3,1.1812005E-1,2.5834218E-1,1.2783103E0,1.7462189E0,-1.9665682E0,-1.7392464E0,-1.0257148E0,-8.738145E-1,-4.352463E-1,-2.4602476E-1,-1.04708925E-1,7.9413526E-2,2.7143618E-1,4.663597E-1,6.32663E-1,8.8661605E-1],"split_indices":[3,3,3,3,3,3,3,3,3,3,3,3,350,0,1,3,3,3,3,3,3,0,0,0,0,0,0,0,0,0,3,0,0,3,0,3,3,3,3,0,0,0,0,0,0,0,0,0,0,0,0,0,0],"split_type":[0,0,0,0,0,0,0,0,0,0,0,0,0,0,0,0,0,0,0,0,0,0,0,0,0,0,0,0,0,0,0,0,0,0,0,0,0,0,0,0,0,0,0,0,0,0,0,0,0,0,0,0,0],"sum_hessian":[1.751E3,1.599E3,1.52E2,1.299E3,3E2,1.3E2,2.2E1,8.48E2,4.51E2,2.05E2,9.5E1,8.9E1,4.1E1,1.4E1,8E0,3.9E2,4.58E2,2.52E2,1.99E2,1.23E2,8.2E1,4.1E1,5.4E1,5.5E1,3.4E1,1E0,4E1,5E0,3E0,7.6E1,3.14E2,2.46E2,2.12E2,1.91E2,6.1E1,1.17E2,8.2E1,6.1E1,6.2E1,4.7E1,3.5E1,1.98E2,1.16E2,8.8E1,1.03E2,8.2E1,3.5E1,4.7E1,3.5E1,3.4E1,2.7E1,3.4E1,2.8E1],"tree_param":{"num_deleted":"0","num_feature":"730","num_nodes":"53","size_leaf_vector":"1"}},{"base_weights":[6.8284446E-1,-6.4445276E0,8.343749E1,-1.1681567E1,1.6345797E1,6.485583E1,1.7433386E2,-1.5313221E1,-5.326427E0,8.972833E0,2.9133398E1,5.3021984E1,9.106593E0,1.3297684E1,2.3525618E2,-1.7216303E1,-1.2333965E1,-7.9080963E0,-1.6541878E0,5.7003503E0,1.3828775E1,2.4575093E0,3.309007E0,4.4972067E0,5.9809475E0,2.640934E2,9.916301E0,-2.0073516E0,-1.6248827E1,-1.2949789E0,-1.0857016E0,-8.816721E0,-6.0936255E0,-3.0554967E0,3.4108117E-1,4.0320168E0,7.507707E0,1.1840343E1,1.5764478E0,7.86626E0,2.8544706E1,-1.7422663E0,-1.5413326E0,-9.4329625E-1,-8.046023E-1,-6.7851347E-1,-5.277757E-1,-3.61992E-1,-1.9614094E-1,-5.3244054E-2,1.206482E-1,2.7510566E-1,4.6069956E-1,5.9246165E-1,8.2430565E-1,3.442032E-1,1.1961229E0],"categories":[],"categories_nodes":[],"categories_segments":[],"categories_sizes":[],"default_left":[0,0,0,0,0,0,0,0,0,0,0,0,0,0,0,0,0,0,0,0,0,0,0,0,0,0,0,0,0,0,0,0,0,0,0,0,0,0,0,0,0,0,0,0,0,0,0,0,0,0,0,0,0,0,0,0,0],"id":21,"left_children":[1,3,5,7,9,11,13,15,17,19,21,23,-1,-1,25,27,29,31,33,35,37,-1,-1,-1,-1,39,-1,-1,41,-1,-1,43,45,47,49,51,53,55,-1,-1,-1,-1,-1,-1,-1,-1,-1,-1,-1,-1,-1,-1,-1,-1,-1,-1,-1],"loss_changes":[1.0339078E6,1.9282803E5,2.2346531E5,3.0222047E4,2.8211922E4,3.1460938E4,2.6666438E4,4.521922E3,4.528081E3,2.9881309E3,1.1707344E3,1.8452656E3,0E0,0E0,5.208125E3,1.0753125E3,1.5864453E2,4.0955273E2,5.5744385E2,3.2251587E2,1.097168E2,0E0,0E0,0E0,0E0,1.3036875E3,0E0,0E0,1.0807031E2,0E0,0E0,1.196582E1,1.8915527E1,6.5150635E1,6.338593E1,3.372705E1,1.5189941E1,1.4692383E0,0E0,0E0,0E0,0E0,0E0,0E0,0E0,0E0,0E0,0E0,0E0,0E0,0E0,0E0,0E0,0E0,0E0,0E0,0E0],"parents":[2147483647,0,0,1,1,2,2,3,3,4,4,5,5,6,6,7,7,8,8,9,9,10,10,11,11,14,14,15,15,16,16,17,17,18,18,19,19,20,20,25,25,28,28,31,31,32,32,33,33,34,34,35,35,36,36,37,37],"right_children":[2,4,6,8,10,12,14,16,18,20,22,24,-1,-1,26,28,30,32,34,36,38,-1,-1,-1,-1,40,-1,-1,42,-1,-1,44,46,48,50,52,54,56,-1,-1,-1,-1,-1,-1,-1,-1,-1,-1,-1,-1,-1,-1,-1,-1,-1,-1,-1],"split_conditions":[1.4711082E0,7.969379E-2,4.386067E0,-3.7084293E-1,7.443647E-1,2.81617E0,5.040606E0,-5.32827E-1,-1.734779E-1,3.599642E-1,1.0792024E0,1.9575124E0,9.106593E0,1.3297684E1,4.679279E0,-6.7408365E-1,-4.343504E-1,-2.7432576E-1,-4.567698E-2,2.0674725E-1,5.115822E-1,2.4575093E0,3.309007E0,4.4972067E0,5.9809475E0,4.557428E0,9.916301E0,-2.0073516E0,-6.223706E-1,-1.2949789E0,-1.0857016E0,-3.3514106E-1,-2.3131542E-1,-8.9531735E-2,8.800732E-3,1.1812005E-1,2.5834218E-1,-2.6374713E-1,1.5764478E0,7.86626E0,2.8544706E1,-1.7422663E0,-1.5413326E0,-9.4329625E-1,-8.046023E-1,-6.7851347E-1,-5.277757E-1,-3.61992E-1,-1.9614094E-1,-5.3244054E-2,1.206482E-1,2.7510566E-1,4.6069956E-1,5.9246165E-1,8.2430565E-1,3.442032E-1,1.1961229E0],"split_indices":[3,3,7,3,3,3,3,3,3,3,3,3,0,0,6,3,3,3,3,3,3,0,0,0,0,7,0,0,3,0,0,3,3,3,3,3,3,1,0,0,0,0,0,0,0,0,0,0,0,0,0,0,0,0,0,0,0],"split_type":[0,0,0,0,0,0,0,0,0,0,0,0,0,0,0,0,0,0,0,0,0,0,0,0,0,0,0,0,0,0,0,0,0,0,0,0,0,0,0,0,0,0,0,0,0,0,0,0,0,0,0,0,0,0,0,0,0],"sum_hessian":[1.751E3,1.613E3,1.38E2,1.312E3,3.01E2,1.16E2,2.2E1,8.34E2,4.78E2,1.92E2,1.09E2,8.2E1,3.4E1,1.5E1,7E0,5.06E2,3.28E2,2.8E2,1.98E2,1.16E2,7.6E1,5.4E1,5.5E1,4.1E1,4.1E1,5E0,2E0,1.23E2,3.83E2,2.26E2,1.02E2,1.84E2,9.6E1,1.16E2,8.2E1,6.2E1,5.4E1,4.1E1,3.5E1,1E0,4E0,1.51E2,2.32E2,9.6E1,8.8E1,4.8E1,4.8E1,7.5E1,4.1E1,4.1E1,4.1E1,2.1E1,4.1E1,2E1,3.4E1,1E0,4E1],"tree_param":{"num_deleted":"0","num_feature":"730","num_nodes":"57","size_leaf_vector":"1"}},{"base_weights":[6.5972394E-1,-5.625281E0,7.783649E1,-1.0453481E1,1.5496735E1,6.3214108E1,1.7989789E2,-1.371704E1,-4.561075E0,8.31838E0,2.6776028E1,5.041983E1,9.1748705E0,1.20876465E1,2.1237273E2,-1.5505108E1,-1.1034045E1,-7.0138683E0,-1.3598281E0,5.3251667E0,1.2486368E1,2.261022E0,3.091003E0,4.4453015E0,5.999759E0,6.1498046E0,2.235448E1,-1.7621353E1,-1.4441885E0,-1.1581553E0,-9.526119E-1,-7.703037E0,-5.180524E-1,-2.6607397E0,6.000861E-1,3.7985775E0,6.7826905E0,1.0967547E0,1.4622089E1,-2.063265E0,-1.6651906E0,-8.240637E-1,-7.0021945E-1,-3.2626837E-1,-1.6728118E-1,-1.0964873E-2,1.5765695E-1,2.5409964E-1,4.1572714E-1,1.3802032E-1,6.8571776E-1,1.4854536E0,4.0567932E-1],"categories":[],"categories_nodes":[],"categories_segments":[],"categories_sizes":[],"default_left":[0,0,0,0,0,0,0,0,0,0,0,0,0,0,0,0,0,0,0,0,0,0,0,0,0,0,0,0,0,0,0,0,0,0,0,0,0,0,0,0,0,0,0,0,0,0,0,0,0,0,0,0,0],"id":22,"left_children":[1,3,5,7,9,11,13,15,17,19,21,23,-1,-1,25,27,29,31,33,35,37,-1,-1,-1,-1,-1,-1,39,-1,-1,-1,41,-1,43,45,47,49,-1,51,-1,-1,-1,-1,-1,-1,-1,-1,-1,-1,-1,-1,-1,-1],"loss_changes":[8.5025656E5,1.654737E5,1.8562219E5,2.5321312E4,2.4229227E4,3.8088312E4,4.9965312E3,3.9018906E3,3.6966045E3,2.2539844E3,1.3160234E3,2.0762812E3,0E0,0E0,1.4226875E3,8.8628906E2,1.7285156E2,2.9744434E2,5.268298E2,2.1898975E2,8.940234E1,0E0,0E0,0E0,0E0,0E0,0E0,1.3810938E2,0E0,0E0,0E0,1.4637695E1,0E0,6.8282104E1,5.769554E1,1.4697205E1,1.2668457E1,0E0,1.0958008E1,0E0,0E0,0E0,0E0,0E0,0E0,0E0,0E0,0E0,0E0,0E0,0E0,0E0,0E0],"parents":[2147483647,0,0,1,1,2,2,3,3,4,4,5,5,6,6,7,7,8,8,9,9,10,10,11,11,14,14,15,15,16,16,17,17,18,18,19,19,20,20,27,27,31,31,33,33,34,34,35,35,36,36,38,38],"right_children":[2,4,6,8,10,12,14,16,18,20,22,24,-1,-1,26,28,30,32,34,36,38,-1,-1,-1,-1,-1,-1,40,-1,-1,-1,42,-1,44,46,48,50,-1,52,-1,-1,-1,-1,-1,-1,-1,-1,-1,-1,-1,-1,-1,-1],"split_conditions":[1.5019786E0,9.181521E-2,4.6461253E0,-3.598282E-1,7.443647E-1,2.9241855E0,5.040606E0,-5.32827E-1,-1.734779E-1,3.599642E-1,1.1151432E0,2.2506502E0,9.1748705E0,1.20876465E1,2.00001E0,-6.610744E-1,-4.1986597E-1,-2.5631467E-1,-3.4499347E-2,2.0674725E-1,5.2660143E-1,2.261022E0,3.091003E0,4.4453015E0,5.999759E0,6.1498046E0,2.235448E1,-7.107849E-1,-1.4441885E0,-1.1581553E0,-9.526119E-1,-3.2442817E-1,-5.180524E-1,-8.9531735E-2,3.28325E-2,1.1812005E-1,2.00001E0,1.0967547E0,4.0728955E0,-2.063265E0,-1.6651906E0,-8.240637E-1,-7.0021945E-1,-3.2626837E-1,-1.6728118E-1,-1.0964873E-2,1.5765695E-1,2.5409964E-1,4.1572714E-1,1.3802032E-1,6.8571776E-1,1.4854536E0,4.0567932E-1],"split_indices":[3,3,3,3,3,3,3,3,3,3,3,3,0,0,326,3,3,3,3,3,3,0,0,0,0,0,0,3,0,0,0,3,0,3,3,3,242,0,8,0,0,0,0,0,0,0,0,0,0,0,0,0,0],"split_type":[0,0,0,0,0,0,0,0,0,0,0,0,0,0,0,0,0,0,0,0,0,0,0,0,0,0,0,0,0,0,0,0,0,0,0,0,0,0,0,0,0,0,0,0,0,0,0,0,0,0,0,0,0],"sum_hessian":[1.751E3,1.62E3,1.31E2,1.319E3,3.01E2,1.16E2,1.5E1,8.48E2,4.71E2,1.85E2,1.16E2,8.2E1,3.4E1,7E0,8E0,5.06E2,3.42E2,2.66E2,2.05E2,1.09E2,7.6E1,6.1E1,5.5E1,5.4E1,2.8E1,1E0,7E0,1.64E2,3.42E2,2.46E2,9.6E1,1.91E2,7.5E1,1.23E2,8.2E1,5.5E1,5.4E1,4.8E1,2.8E1,3.5E1,1.29E2,1.02E2,8.9E1,7.5E1,4.8E1,4.8E1,3.4E1,1.4E1,4.1E1,1E0,5.3E1,2.7E1,1E0],"tree_param":{"num_deleted":"0","num_feature":"730","num_nodes":"53","size_leaf_vector":"1"}},{"base_weights":[6.2821114E-1,-5.0626526E0,7.050899E1,-9.477483E0,1.3713187E1,5.3974E1,1.4652373E2,-1.2519325E1,-4.490351E0,7.318689E0,2.414417E1,4.5503685E1,7.7154794E0,1.10634415E2,1.9998691E2,-1.5156637E1,-1.1103143E1,-6.678473E0,-1.5209553E0,4.84454E0,1.1596913E1,2.0385673E0,2.7874222E0,4.0088525E0,5.4204726E0,3.2348022E0,1.1369698E1,1.1721236E1,2.5345839E1,-1.8626698E0,-1.4589517E0,-1.1997181E1,-9.550112E-1,-7.362337E0,-5.2411766E0,-2.648475E0,2.7694848E-1,3.555946E0,6.744307E0,1.0196571E0,1.3225101E1,-1.2386928E0,-1.0897845E0,-8.001563E-1,-6.7445153E-1,-5.6567633E-1,-4.3552476E-1,-3.4997022E-1,-1.9864064E-1,-4.4370852E-2,9.910115E-2,2.7583903E-1,4.4114152E-1,1.2560883E-1,6.832476E-1,1.3422145E0,3.8539582E-1],"categories":[],"categories_nodes":[],"categories_segments":[],"categories_sizes":[],"default_left":[0,0,0,0,0,0,0,0,0,0,0,0,0,0,0,0,0,0,0,0,0,0,0,0,0,0,0,0,0,0,0,0,0,0,0,0,0,0,0,0,0,0,0,0,0,0,0,0,0,0,0,0,0,0,0,0,0],"id":23,"left_children":[1,3,5,7,9,11,13,15,17,19,21,23,-1,25,27,29,31,33,35,37,39,-1,-1,-1,-1,-1,-1,-1,-1,-1,-1,41,-1,43,45,47,49,51,53,-1,55,-1,-1,-1,-1,-1,-1,-1,-1,-1,-1,-1,-1,-1,-1,-1,-1],"loss_changes":[6.9709575E5,1.3449812E5,1.5800262E5,1.9862086E4,2.0433883E4,1.8087531E4,2.2006E4,2.875664E3,3.232046E3,1.9867168E3,1.0720312E3,1.7377656E3,0E0,1.5823438E2,5.7001875E3,2.8320703E2,6.26875E2,2.4350879E2,4.3252106E2,2.79573E2,2.4750977E1,0E0,0E0,0E0,0E0,0E0,0E0,0E0,0E0,0E0,0E0,8.546875E0,0E0,2.1859375E1,1.0708984E1,6.6875916E1,4.3151066E1,3.968518E1,1.5128662E1,0E0,1.8208008E0,0E0,0E0,0E0,0E0,0E0,0E0,0E0,0E0,0E0,0E0,0E0,0E0,0E0,0E0,0E0,0E0],"parents":[2147483647,0,0,1,1,2,2,3,3,4,4,5,5,6,6,7,7,8,8,9,9,10,10,11,11,13,13,14,14,15,15,16,16,17,17,18,18,19,19,20,20,31,31,33,33,34,34,35,35,36,36,37,37,38,38,40,40],"right_children":[2,4,6,8,10,12,14,16,18,20,22,24,-1,26,28,30,32,34,36,38,40,-1,-1,-1,-1,-1,-1,-1,-1,-1,-1,42,-1,44,46,48,50,52,54,-1,56,-1,-1,-1,-1,-1,-1,-1,-1,-1,-1,-1,-1,-1,-1,-1,-1],"split_conditions":[1.5019786E0,7.969379E-2,4.386067E0,-3.8223538E-1,7.443647E-1,2.9241855E0,5.040606E0,-6.195556E-1,-1.8926367E-1,3.8749433E-1,1.1151432E0,2.2506502E0,7.7154794E0,2.00001E0,5.4309626E0,-7.107849E-1,-4.9590313E-1,-2.858766E-1,-4.567698E-2,2.3337933E-1,5.2660143E-1,2.0385673E0,2.7874222E0,4.0088525E0,5.4204726E0,3.2348022E0,1.1369698E1,1.1721236E1,2.5345839E1,-1.8626698E0,-1.4589517E0,-5.284021E-1,-9.550112E-1,-3.549462E-1,-2.3131542E-1,-1.3161542E-1,8.800732E-3,1.5930796E-1,2.00001E0,1.0196571E0,4.0728955E0,-1.2386928E0,-1.0897845E0,-8.001563E-1,-6.7445153E-1,-5.6567633E-1,-4.3552476E-1,-3.4997022E-1,-1.9864064E-1,-4.4370852E-2,9.910115E-2,2.7583903E-1,4.4114152E-1,1.2560883E-1,6.832476E-1,1.3422145E0,3.8539582E-1],"split_indices":[3,3,7,3,3,3,3,3,3,3,3,3,0,86,1,3,3,3,3,3,3,0,0,0,0,0,0,0,0,0,0,3,0,3,3,3,3,3,27,0,8,0,0,0,0,0,0,0,0,0,0,0,0,0,0,0,0],"split_type":[0,0,0,0,0,0,0,0,0,0,0,0,0,0,0,0,0,0,0,0,0,0,0,0,0,0,0,0,0,0,0,0,0,0,0,0,0,0,0,0,0,0,0,0,0,0,0,0,0,0,0,0,0,0,0,0,0],"sum_hessian":[1.751E3,1.62E3,1.31E2,1.312E3,3.08E2,1.09E2,2.2E1,8.14E2,4.98E2,1.92E2,1.16E2,8.2E1,2.7E1,1.5E1,7E0,2.81E2,5.33E2,2.86E2,2.12E2,1.23E2,6.9E1,6.1E1,5.5E1,5.4E1,2.8E1,1E0,1.4E1,4E0,3E0,3.5E1,2.46E2,3.34E2,1.99E2,1.91E2,9.5E1,1.3E2,8.2E1,7.5E1,4.8E1,4.1E1,2.8E1,2.39E2,9.5E1,8.8E1,1.03E2,6.1E1,3.4E1,5.5E1,7.5E1,4.1E1,4.1E1,4.1E1,3.4E1,1E0,4.7E1,2.7E1,1E0],"tree_param":{"num_deleted":"0","num_feature":"730","num_nodes":"57","size_leaf_vector":"1"}},{"base_weights":[6.043972E-1,-4.556681E0,6.3979424E1,-8.369433E0,1.31195965E1,5.14905E1,1.5130597E2,-1.1114509E1,-3.5098608E0,7.1583524E0,2.1771002E1,4.1066925E1,7.4738116E0,1.0035125E1,1.797873E2,-1.3035127E1,-9.4100685E0,-5.502157E0,-6.3893455E-1,4.833824E0,1.0476467E1,1.794084E0,2.4769225E0,3.538821E0,4.7843785E0,1.133816E1,2.34449E1,-1.5522263E0,-1.2399895E1,-1.0234736E0,-8.1952727E-1,-6.236437E0,-4.0147233E0,-1.7758375E0,9.713857E-1,3.7454984E0,6.325309E0,8.9417136E-1,1.1677577E1,-1.2926596E0,-1.1454624E0,-6.6416514E-1,-5.6389153E-1,-4.4814643E-1,-3.466049E-1,-2.3533724E-1,-1.1047126E-1,2.0772552E-2,1.7119177E-1,1.4995575E-2,3.8019833E-1,1.7906342E-1,6.392237E-1,3.4202728E-1,1.1815778E0],"categories":[],"categories_nodes":[],"categories_segments":[],"categories_sizes":[],"default_left":[0,0,0,0,0,0,0,0,0,0,0,0,0,0,0,0,0,0,0,0,0,0,0,0,0,0,0,0,0,0,0,0,0,0,0,0,0,0,0,0,0,0,0,0,0,0,0,0,0,0,0,0,0,0,0],"id":24,"left_children":[1,3,5,7,9,11,13,15,17,19,21,23,-1,-1,25,27,29,31,33,35,37,-1,-1,-1,-1,-1,-1,-1,39,-1,-1,41,43,45,47,49,51,-1,53,-1,-1,-1,-1,-1,-1,-1,-1,-1,-1,-1,-1,-1,-1,-1,-1],"loss_changes":[5.733418E5,1.0935753E5,1.3617031E5,1.7756406E4,1.4697219E4,2.5282562E4,5.17825E3,2.6664219E3,2.7591167E3,1.2760029E3,8.9921094E2,1.5010469E3,0E0,0E0,6.0864375E3,4.3632812E2,3.719453E2,2.862373E2,3.6604987E2,1.4350049E2,2.462207E1,0E0,0E0,0E0,0E0,0E0,0E0,0E0,1.2246094E1,0E0,0E0,8.30957E0,9.307739E0,4.2749176E1,4.6582115E1,1.20216675E1,1.3005371E0,0E0,6.6845703E-1,0E0,0E0,0E0,0E0,0E0,0E0,0E0,0E0,0E0,0E0,0E0,0E0,0E0,0E0,0E0,0E0],"parents":[2147483647,0,0,1,1,2,2,3,3,4,4,5,5,6,6,7,7,8,8,9,9,10,10,11,11,14,14,15,15,16,16,17,17,18,18,19,19,20,20,28,28,31,31,32,32,33,33,34,34,35,35,36,36,38,38],"right_children":[2,4,6,8,10,12,14,16,18,20,22,24,-1,-1,26,28,30,32,34,36,38,-1,-1,-1,-1,-1,-1,-1,40,-1,-1,42,44,46,48,50,52,-1,54,-1,-1,-1,-1,-1,-1,-1,-1,-1,-1,-1,-1,-1,-1,-1,-1],"split_conditions":[1.5019786E0,1.1812005E-1,4.6461253E0,-3.5781363E-1,7.443647E-1,2.9241855E0,5.040606E0,-5.790321E-1,-1.5454373E-1,3.8749433E-1,1.0792024E0,2.1160913E0,7.4738116E0,1.0035125E1,5.4309626E0,-6.9267875E-1,-4.7138137E-1,-2.5631467E-1,-2.52568E-2,2.5834218E-1,5.115822E-1,1.794084E0,2.4769225E0,3.538821E0,4.7843785E0,1.133816E1,2.34449E1,-1.5522263E0,-6.223706E-1,-1.0234736E0,-8.1952727E-1,-3.194616E-1,-2.0280007E-1,-8.092709E-2,4.5961536E-2,2.00001E0,2.00001E0,8.9417136E-1,2.00001E0,-1.2926596E0,-1.1454624E0,-6.6416514E-1,-5.6389153E-1,-4.4814643E-1,-3.466049E-1,-2.3533724E-1,-1.1047126E-1,2.0772552E-2,1.7119177E-1,1.4995575E-2,3.8019833E-1,1.7906342E-1,6.392237E-1,3.4202728E-1,1.1815778E0],"split_indices":[3,3,3,3,3,3,3,3,3,3,3,3,0,0,1,3,3,3,3,3,3,0,0,0,0,0,0,0,3,0,0,3,3,3,3,648,31,0,39,0,0,0,0,0,0,0,0,0,0,0,0,0,0,0,0],"split_type":[0,0,0,0,0,0,0,0,0,0,0,0,0,0,0,0,0,0,0,0,0,0,0,0,0,0,0,0,0,0,0,0,0,0,0,0,0,0,0,0,0,0,0,0,0,0,0,0,0,0,0,0,0,0,0],"sum_hessian":[1.751E3,1.62E3,1.31E2,1.333E3,2.87E2,1.16E2,1.5E1,8.51E2,4.82E2,1.71E2,1.16E2,8.2E1,3.4E1,7E0,8E0,3.97E2,4.54E2,2.84E2,1.98E2,1.02E2,6.9E1,5.4E1,6.2E1,4.8E1,3.4E1,5E0,3E0,7.6E1,3.21E2,2.66E2,1.88E2,1.88E2,9.6E1,1.16E2,8.2E1,6.1E1,4.1E1,3.4E1,3.5E1,1.98E2,1.23E2,1.06E2,8.2E1,4.8E1,4.8E1,6.1E1,5.5E1,4.1E1,4.1E1,1E0,6E1,1E0,4E1,1E0,3.4E1],"tree_param":{"num_deleted":"0","num_feature":"730","num_nodes":"55","size_leaf_vector":"1"}},{"base_weights":[5.784934E-1,-4.1010804E0,5.8040695E1,-7.5894523E0,1.1604581E1,4.3839848E1,1.234343E2,-1.00222435E1,-3.261624E0,6.293827E0,1.9630396E1,3.596061E1,5.969648E0,9.235645E1,1.701607E2,-1.1639923E1,-8.380982E0,-4.9752793E0,-6.7415375E-1,4.047639E0,9.21673E0,1.6836296E1,2.3164326E1,3.0110197E0,3.9979749E0,2.6993775E0,9.491439E0,1.93042E2,6.7677855E0,-1.4766382E0,-1.1202691E1,-9.110983E-1,-7.3939884E-1,-5.6333346E0,-3.621445E0,-1.6799257E0,6.669194E-1,3.2499223E0,5.5046344E0,7.3228664E0,1.0149492E0,1.312383E0,1.8083754E1,1.1657898E0,2.3661315E0,5.2022586E0,2.1084139E1,-1.1762724E0,-1.0286598E0,-6.140217E-1,-5.199657E-1,-4.042464E-1,-3.1265196E-1,-2.1843679E-1,-1.1544927E-1,1.0864102E-2,1.4294542E-1,2.4236679E-1,3.723379E-1,1.6029206E-1,5.5722463E-1,2.060318E-1,7.437232E-1,4.4164735E-1,1.827648E0],"categories":[],"categories_nodes":[],"categories_segments":[],"categories_sizes":[],"default_left":[0,0,0,0,0,0,0,0,0,0,0,0,0,0,0,0,0,0,0,0,0,0,0,0,0,0,0,0,0,0,0,0,0,0,0,0,0,0,0,0,0,0,0,0,0,0,0,0,0,0,0,0,0,0,0,0,0,0,0,0,0,0,0,0,0],"id":25,"left_children":[1,3,5,7,9,11,13,15,17,19,21,23,-1,25,27,29,31,33,35,37,39,41,43,-1,-1,-1,-1,45,-1,-1,47,-1,-1,49,51,53,55,57,59,61,-1,-1,63,-1,-1,-1,-1,-1,-1,-1,-1,-1,-1,-1,-1,-1,-1,-1,-1,-1,-1,-1,-1,-1,-1],"loss_changes":[4.7134844E5,8.889809E4,1.1716975E5,1.3938898E4,1.2450273E4,1.1596484E4,1.7684156E4,2.1565703E3,2.1205474E3,1.1378989E3,7.6527344E2,5.832344E2,0E0,1.12984375E2,5.6948594E3,4.1554688E2,2.3884961E2,2.3617773E2,2.6009265E2,1.01823975E2,6.169922E1,8.222266E1,4.3691406E0,0E0,0E0,0E0,0E0,4.0918438E3,0E0,0E0,7.241797E1,0E0,0E0,1.0278809E1,7.573242E0,2.6633698E1,3.517836E1,1.7968262E1,3.0114746E-1,2.1308594E0,0E0,0E0,4.834961E1,0E0,0E0,0E0,0E0,0E0,0E0,0E0,0E0,0E0,0E0,0E0,0E0,0E0,0E0,0E0,0E0,0E0,0E0,0E0,0E0,0E0,0E0],"parents":[2147483647,0,0,1,1,2,2,3,3,4,4,5,5,6,6,7,7,8,8,9,9,10,10,11,11,13,13,14,14,15,15,16,16,17,17,18,18,19,19,20,20,21,21,22,22,27,27,30,30,33,33,34,34,35,35,36,36,37,37,38,38,39,39,42,42],"right_children":[2,4,6,8,10,12,14,16,18,20,22,24,-1,26,28,30,32,34,36,38,40,42,44,-1,-1,-1,-1,46,-1,-1,48,-1,-1,50,52,54,56,58,60,62,-1,-1,64,-1,-1,-1,-1,-1,-1,-1,-1,-1,-1,-1,-1,-1,-1,-1,-1,-1,-1,-1,-1,-1,-1],"split_conditions":[1.5019786E0,1.0923485E-1,4.386067E0,-3.598282E-1,7.443647E-1,2.81617E0,5.040606E0,-5.665501E-1,-1.5454373E-1,3.599642E-1,1.1361872E0,1.9575124E0,5.969648E0,2.00001E0,4.679279E0,-7.0563453E-1,-4.7138137E-1,-2.5631467E-1,-3.227464E-2,2.5834218E-1,4.5811835E-1,8.654229E-1,6.4121497E-1,3.0110197E0,3.9979749E0,2.6993775E0,9.491439E0,4.557428E0,6.7677855E0,-1.4766382E0,-6.223706E-1,-9.110983E-1,-7.3939884E-1,-3.3514106E-1,-2.0280007E-1,-8.9531735E-2,4.5961536E-2,1.5930796E-1,-3.876952E-1,-2.6374713E-1,1.0149492E0,1.312383E0,2.00001E0,1.1657898E0,2.3661315E0,5.2022586E0,2.1084139E1,-1.1762724E0,-1.0286598E0,-6.140217E-1,-5.199657E-1,-4.042464E-1,-3.1265196E-1,-2.1843679E-1,-1.1544927E-1,1.0864102E-2,1.4294542E-1,2.4236679E-1,3.723379E-1,1.6029206E-1,5.5722463E-1,2.060318E-1,7.437232E-1,4.4164735E-1,1.827648E0],"split_indices":[3,3,7,3,3,3,3,3,3,3,3,3,0,86,6,3,3,3,3,3,3,3,7,0,0,0,0,7,0,0,3,0,0,3,3,3,3,3,1,1,0,0,383,0,0,0,0,0,0,0,0,0,0,0,0,0,0,0,0,0,0,0,0,0,0],"split_type":[0,0,0,0,0,0,0,0,0,0,0,0,0,0,0,0,0,0,0,0,0,0,0,0,0,0,0,0,0,0,0,0,0,0,0,0,0,0,0,0,0,0,0,0,0,0,0,0,0,0,0,0,0,0,0,0,0,0,0,0,0,0,0,0,0],"sum_hessian":[1.751E3,1.62E3,1.31E2,1.326E3,2.94E2,1.09E2,2.2E1,8.48E2,4.78E2,1.78E2,1.16E2,7.5E1,3.4E1,1.5E1,7E0,4.24E2,4.24E2,2.87E2,1.91E2,1.02E2,7.6E1,6.8E1,4.8E1,3.4E1,4.1E1,1E0,1.4E1,5E0,2E0,4.8E1,3.76E2,2.39E2,1.85E2,1.91E2,9.6E1,1.09E2,8.2E1,6.8E1,3.4E1,2.8E1,4.8E1,2E1,4.8E1,3E0,4.5E1,1E0,4E0,2.26E2,1.5E2,8.2E1,1.09E2,4.8E1,4.8E1,5.4E1,5.5E1,4.8E1,3.4E1,2.7E1,4.1E1,1E0,3.3E1,1E0,2.7E1,1E0,4.7E1],"tree_param":{"num_deleted":"0","num_feature":"730","num_nodes":"65","size_leaf_vector":"1"}},{"base_weights":[5.5561495E-1,-3.6890926E0,5.2677704E1,-6.881738E0,1.0277733E1,4.1925785E1,1.2800873E2,-9.334118E0,-3.4740546E0,5.3003197E0,1.7379984E1,3.3348705E1,6.1067844E1,8.326546E1,1.5355734E2,-1.1116271E1,-8.321082E0,-5.0269036E0,-9.644374E-1,3.2349696E0,7.650183E0,1.2984096E1,1.939501E1,2.922702E0,4.001573E1,2.9666443E0,6.308465E1,8.806657E0,2.4828858E0,9.630121E0,2.0105223E1,-1.4276197E0,-1.0700263E0,-9.112312E-1,-7.496164E-1,-5.599579E0,-3.877746E0,-1.8858572E0,3.157903E-1,2.2373574E0,3.9254115E0,6.0968447E0,8.603584E-1,1.3587151E1,7.101242E-1,1.695925E0,2.1368988E0,1.1334015E0,4.0635295E0,1.6673096E0,6.4043956E0,-5.9728473E-1,-4.9691638E-1,-4.279154E-1,-3.233361E-1,-2.3961465E-1,-1.3369206E-1,-2.4216913E-2,9.592242E-2,2.7888915E-1,1.707503E-1,1.419323E-1,4.040486E-1,2.4780579E-1,6.2410724E-1,2.882904E-1,1.3804411E0],"categories":[],"categories_nodes":[],"categories_segments":[],"categories_sizes":[],"default_left":[0,0,0,0,0,0,0,0,0,0,0,0,0,0,0,0,0,0,0,0,0,0,0,0,0,0,0,0,0,0,0,0,0,0,0,0,0,0,0,0,0,0,0,0,0,0,0,0,0,0,0,0,0,0,0,0,0,0,0,0,0,0,0,0,0,0,0],"id":26,"left_children":[1,3,5,7,9,11,13,15,17,19,21,23,25,27,29,31,33,35,37,39,41,43,45,-1,47,-1,49,-1,-1,-1,-1,-1,-1,-1,-1,51,53,55,57,59,61,63,-1,65,-1,-1,-1,-1,-1,-1,-1,-1,-1,-1,-1,-1,-1,-1,-1,-1,-1,-1,-1,-1,-1,-1,-1],"loss_changes":[3.8781212E5,7.235294E4,1.0154694E5,1.099873E4,1.058383E4,1.717289E4,5.5040312E3,1.2922266E3,2.154121E3,8.439907E2,8.465469E2,1.1112422E3,3.450625E2,5.7890625E1,5.1127812E3,2.087461E2,2.5347266E2,2.0335449E2,2.5185614E2,5.8030396E1,7.0464355E1,5.251709E1,3.667383E1,0E0,5.476953E1,0E0,3.5692188E2,0E0,0E0,0E0,0E0,0E0,0E0,0E0,0E0,2.3501465E1,1.6427246E1,3.1531006E1,3.2543194E1,7.511734E0,1.0414856E1,2.80188E0,0E0,4.625E1,0E0,0E0,0E0,0E0,0E0,0E0,0E0,0E0,0E0,0E0,0E0,0E0,0E0,0E0,0E0,0E0,0E0,0E0,0E0,0E0,0E0,0E0,0E0],"parents":[2147483647,0,0,1,1,2,2,3,3,4,4,5,5,6,6,7,7,8,8,9,9,10,10,11,11,12,12,13,13,14,14,15,15,16,16,17,17,18,18,19,19,20,20,21,21,22,22,24,24,26,26,35,35,36,36,37,37,38,38,39,39,40,40,41,41,43,43],"right_children":[2,4,6,8,10,12,14,16,18,20,22,24,26,28,30,32,34,36,38,40,42,44,46,-1,48,-1,50,-1,-1,-1,-1,-1,-1,-1,-1,52,54,56,58,60,62,64,-1,66,-1,-1,-1,-1,-1,-1,-1,-1,-1,-1,-1,-1,-1,-1,-1,-1,-1,-1,-1,-1,-1,-1,-1],"split_conditions":[1.5019786E0,9.181521E-2,4.6461253E0,-4.1162547E-1,6.8931955E-1,2.9241855E0,5.040606E0,-6.223706E-1,-1.8347867E-1,3.2921338E-1,9.6777403E-1,2.2506502E0,1.36278E0,4.6664066E0,5.4309626E0,-7.169376E-1,-5.284021E-1,-2.962775E-1,-4.567698E-2,1.8735375E-1,4.4405273E-1,1.6694666E0,1.2360821E0,2.922702E0,2.00001E0,2.9666443E0,2.00001E0,8.806657E0,2.4828858E0,9.630121E0,2.0105223E1,-1.4276197E0,-1.0700263E0,-9.112312E-1,-7.496164E-1,-3.549462E-1,-2.4237704E-1,-1.2001326E-1,1.7456912E-2,-1.0452085E-1,2.00001E0,-1.7493427E-1,8.603584E-1,2.00001E0,7.101242E-1,1.695925E0,2.1368988E0,1.1334015E0,4.0635295E0,1.6673096E0,6.4043956E0,-5.9728473E-1,-4.9691638E-1,-4.279154E-1,-3.233361E-1,-2.3961465E-1,-1.3369206E-1,-2.4216913E-2,9.592242E-2,2.7888915E-1,1.707503E-1,1.419323E-1,4.040486E-1,2.4780579E-1,6.2410724E-1,2.882904E-1,1.3804411E0],"split_indices":[3,3,3,3,3,3,3,3,3,3,3,3,5,1,1,3,3,3,3,3,3,6,7,0,12,0,524,0,0,0,0,0,0,0,0,3,3,3,3,8,21,1,0,424,0,0,0,0,0,0,0,0,0,0,0,0,0,0,0,0,0,0,0,0,0,0,0],"split_type":[0,0,0,0,0,0,0,0,0,0,0,0,0,0,0,0,0,0,0,0,0,0,0,0,0,0,0,0,0,0,0,0,0,0,0,0,0,0,0,0,0,0,0,0,0,0,0,0,0,0,0,0,0,0,0,0,0,0,0,0,0,0,0,0,0,0,0],"sum_hessian":[1.751E3,1.62E3,1.31E2,1.319E3,3.01E2,1.16E2,1.5E1,7.66E2,5.53E2,1.78E2,1.23E2,8.2E1,3.4E1,7E0,8E0,2.74E2,4.92E2,3.41E2,2.12E2,9.6E1,8.2E1,4.1E1,8.2E1,5.4E1,2.8E1,3E0,3.1E1,6E0,1E0,5E0,3E0,2.8E1,2.46E2,2.46E2,2.46E2,2.25E2,1.16E2,1.23E2,8.9E1,4.1E1,5.5E1,3.4E1,4.8E1,3.6E1,5E0,4.1E1,4.1E1,1E0,2.7E1,1E0,3E1,1.36E2,8.9E1,6.8E1,4.8E1,6.2E1,6.1E1,4.8E1,4.1E1,1.8E1,2.3E1,3E0,5.2E1,2E0,3.2E1,1E0,3.5E1],"tree_param":{"num_deleted":"0","num_feature":"730","num_nodes":"67","size_leaf_vector":"1"}},{"base_weights":[5.359071E-1,-3.2084782E0,4.9298492E1,-6.1164584E0,9.952383E0,3.8890553E1,1.1777192E2,-8.242792E0,-2.7720764E0,5.8902717E0,1.735597E1,3.1938053E1,5.8110806E1,7.635011E0,1.4150554E2,-9.78452E0,-7.18433E0,-4.2290735E0,-5.3068703E-1,3.714976E0,8.702227E0,1.5020928E1,1.9670385E0,2.8608479E1,4.318178E0,1.5839447E0,5.9089767E1,8.82761E0,1.859733E1,-1.2552607E0,-9.41229E-1,-7.825569E-1,-6.2716424E-1,-4.811338E0,-3.2025812E0,-1.3059504E0,8.126048E-1,2.7504683E0,4.8595576E0,7.6171255E0,1.1201746E1,3.8405916E-1,1.515438E0,8.06015E-1,2.8797693E1,1.6396302E0,6.0101196E1,-5.24352E-1,-4.4214684E-1,-3.6755028E-1,-2.7388784E-1,-1.7440139E-1,-6.88115E-2,3.229392E-2,1.3769864E-1,-2.4471283E-2,2.8035817E-1,1.22046664E-1,4.909946E-1,2.0277253E-1,7.6764864E-1,1.1908656E0,6.2751406E-1,8.359497E-1,2.8983521E0,1.6859772E0,6.1156464E0],"categories":[],"categories_nodes":[],"categories_segments":[],"categories_sizes":[],"default_left":[0,0,0,0,0,0,0,0,0,0,0,0,0,0,0,0,0,0,0,0,0,0,0,0,0,0,0,0,0,0,0,0,0,0,0,0,0,0,0,0,0,0,0,0,0,0,0,0,0,0,0,0,0,0,0,0,0,0,0,0,0,0,0,0,0,0,0],"id":27,"left_children":[1,3,5,7,9,11,13,15,17,19,21,23,25,-1,27,29,31,33,35,37,39,41,-1,43,-1,-1,45,-1,-1,-1,-1,-1,-1,47,49,51,53,55,57,59,61,-1,-1,-1,63,-1,65,-1,-1,-1,-1,-1,-1,-1,-1,-1,-1,-1,-1,-1,-1,-1,-1,-1,-1,-1,-1],"loss_changes":[3.2004872E5,6.2366914E4,8.450319E4,9.463586E3,8.769654E3,1.2843234E4,4.9254688E3,1.2596719E3,1.695919E3,1.1421035E3,2.6657422E2,1.8718906E3,2.2274219E2,0E0,4.8859375E3,2.208418E2,2.359375E2,1.7286377E2,2.1559065E2,1.08069336E2,1.3979004E2,2.5350586E1,0E0,2.8390625E1,0E0,0E0,1.8046875E2,0E0,0E0,0E0,0E0,0E0,0E0,1.034668E1,1.5590942E1,3.4255234E1,2.0558537E1,1.0549225E1,2.9925537E0,4.673584E0,5.373047E0,0E0,0E0,0E0,8.371094E0,0E0,1.5532031E2,0E0,0E0,0E0,0E0,0E0,0E0,0E0,0E0,0E0,0E0,0E0,0E0,0E0,0E0,0E0,0E0,0E0,0E0,0E0,0E0],"parents":[2147483647,0,0,1,1,2,2,3,3,4,4,5,5,6,6,7,7,8,8,9,9,10,10,11,11,12,12,14,14,15,15,16,16,17,17,18,18,19,19,20,20,21,21,23,23,26,26,33,33,34,34,35,35,36,36,37,37,38,38,39,39,40,40,44,44,46,46],"right_children":[2,4,6,8,10,12,14,16,18,20,22,24,26,-1,28,30,32,34,36,38,40,42,-1,44,-1,-1,46,-1,-1,-1,-1,-1,-1,48,50,52,54,56,58,60,62,-1,-1,-1,64,-1,66,-1,-1,-1,-1,-1,-1,-1,-1,-1,-1,-1,-1,-1,-1,-1,-1,-1,-1,-1,-1],"split_conditions":[1.5598075E0,1.1812005E-1,4.6461253E0,-3.8223538E-1,8.654229E-1,3.0801342E0,5.040606E0,-6.064394E-1,-1.6087945E-1,4.1140977E-1,1.2157862E0,2.740972E0,2.00001E0,7.635011E0,5.4309626E0,-7.107849E-1,-4.980495E-1,-2.7967727E-1,-1.767448E-2,2.5834218E-1,7.657905E-1,2.00001E0,1.9670385E0,2.00001E0,4.318178E0,1.5839447E0,2.00001E0,8.82761E0,1.859733E1,-1.2552607E0,-9.41229E-1,-7.825569E-1,-6.2716424E-1,-3.549462E-1,-2.3131542E-1,-7.406645E-2,5.7039842E-2,2.00001E0,2.00001E0,2.00001E0,1.3590634E0,3.8405916E-1,1.515438E0,8.06015E-1,2.00001E0,1.6396302E0,2.00001E0,-5.24352E-1,-4.4214684E-1,-3.6755028E-1,-2.7388784E-1,-1.7440139E-1,-6.88115E-2,3.229392E-2,1.3769864E-1,-2.4471283E-2,2.8035817E-1,1.22046664E-1,4.909946E-1,2.0277253E-1,7.6764864E-1,1.1908656E0,6.2751406E-1,8.359497E-1,2.8983521E0,1.6859772E0,6.1156464E0],"split_indices":[3,3,3,3,3,3,3,3,3,3,3,7,524,0,1,3,3,3,3,3,7,383,0,215,0,0,556,0,0,0,0,0,0,3,3,3,3,115,31,88,2,0,0,0,487,0,484,0,0,0,0,0,0,0,0,0,0,0,0,0,0,0,0,0,0,0,0],"split_type":[0,0,0,0,0,0,0,0,0,0,0,0,0,0,0,0,0,0,0,0,0,0,0,0,0,0,0,0,0,0,0,0,0,0,0,0,0,0,0,0,0,0,0,0,0,0,0,0,0,0,0,0,0,0,0,0,0,0,0,0,0,0,0,0,0,0,0],"sum_hessian":[1.751E3,1.627E3,1.24E2,1.333E3,2.94E2,1.09E2,1.5E1,8.14E2,5.19E2,1.91E2,1.03E2,8.2E1,2.7E1,7E0,8E0,3.28E2,4.86E2,3.14E2,2.05E2,1.09E2,8.2E1,5.5E1,4.8E1,6.6E1,1.6E1,1E0,2.6E1,5E0,3E0,3.5E1,2.93E2,2.81E2,2.05E2,1.98E2,1.16E2,1.3E2,7.5E1,6.1E1,4.8E1,6E1,2.2E1,1E0,5.4E1,1E0,6.5E1,1E0,2.5E1,8.8E1,1.1E2,5.4E1,6.2E1,7.5E1,5.5E1,4.1E1,3.4E1,1E0,6E1,1E0,4.7E1,1E0,5.9E1,1.8E1,4E0,1E0,6.4E1,1E0,2.4E1],"tree_param":{"num_deleted":"0","num_feature":"730","num_nodes":"67","size_leaf_vector":"1"}},{"base_weights":[5.149546E-1,-2.798584E0,4.6009132E1,-5.399134E0,9.742139E0,3.600107E1,1.08185974E2,-7.165253E0,-1.8588581E0,5.716395E0,1.5948374E1,2.9463549E1,5.26935E1,6.966948E1,1.3040219E2,-8.273296E0,-5.6392593E0,-3.2824545E0,-3.2464568E-2,3.8226202E0,8.058233E0,1.4018039E1,1.8739918E0,2.6290062E1,3.9117615E1,1.420874E0,5.359261E1,7.397372E0,1.9769897E0,8.091974E0,1.7202534E1,-9.86829E0,-7.755576E0,-6.119569E-1,-4.860773E-1,-3.8180456E-1,-2.3762093E0,-9.156673E-1,1.0473661E0,2.9850984E0,4.848301E0,7.0135374E0,1.0160641E1,3.6485597E-1,1.4116876E0,7.090851E-1,2.6491869E1,1.1498626E0,4.0125136E0,1.4802856E0,5.4515182E1,-1.1685829E0,-9.216447E-1,-8.297493E-1,-7.39069E-1,-2.6093242E-1,-2.0088132E-1,-1.2191959E-1,-3.9521173E-2,4.28061E-2,1.5568243E-1,-2.4801636E-2,3.048392E-1,1.8228912E-1,4.9539995E-1,1.748993E-1,7.0798683E-1,2.6072082E-1,1.0385469E0,7.6412356E-1,2.668186E0,1.4914521E0,5.550263E0],"categories":[],"categories_nodes":[],"categories_segments":[],"categories_sizes":[],"default_left":[0,0,0,0,0,0,0,0,0,0,0,0,0,0,0,0,0,0,0,0,0,0,0,0,0,0,0,0,0,0,0,0,0,0,0,0,0,0,0,0,0,0,0,0,0,0,0,0,0,0,0,0,0,0,0,0,0,0,0,0,0,0,0,0,0,0,0,0,0,0,0,0,0],"id":28,"left_children":[1,3,5,7,9,11,13,15,17,19,21,23,25,27,29,31,33,35,37,39,41,43,-1,45,47,-1,49,-1,-1,-1,-1,51,53,-1,-1,-1,55,57,59,61,63,65,67,-1,-1,-1,69,-1,-1,-1,71,-1,-1,-1,-1,-1,-1,-1,-1,-1,-1,-1,-1,-1,-1,-1,-1,-1,-1,-1,-1,-1,-1],"loss_changes":[2.64237E5,5.3341875E4,7.015531E4,8.452633E3,6.929537E3,9.796672E3,4.606E3,1.4801953E3,1.1751147E3,7.3200195E2,3.3005078E2,1.3306562E3,2.0736719E2,2.5578516E2,4.6162812E3,3.536875E2,1.1346289E2,1.14213135E2,1.9074722E2,6.885327E1,9.56626E1,1.9210938E1,0E0,4.8492188E1,1.1669922E1,0E0,1.5925781E2,0E0,0E0,0E0,0E0,3.9208008E1,1.7373047E1,0E0,0E0,0E0,3.065979E0,1.6895203E1,2.7729492E1,1.2215576E1,4.4002075E0,6.474365E0,1.1982178E1,0E0,0E0,0E0,1.1003906E1,0E0,0E0,0E0,1.8889062E2,0E0,0E0,0E0,0E0,0E0,0E0,0E0,0E0,0E0,0E0,0E0,0E0,0E0,0E0,0E0,0E0,0E0,0E0,0E0,0E0,0E0,0E0],"parents":[2147483647,0,0,1,1,2,2,3,3,4,4,5,5,6,6,7,7,8,8,9,9,10,10,11,11,12,12,13,13,14,14,15,15,16,16,17,17,18,18,19,19,20,20,21,21,23,23,24,24,26,26,31,31,32,32,36,36,37,37,38,38,39,39,40,40,41,41,42,42,46,46,50,50],"right_children":[2,4,6,8,10,12,14,16,18,20,22,24,26,28,30,32,34,36,38,40,42,44,-1,46,48,-1,50,-1,-1,-1,-1,52,54,-1,-1,-1,56,58,60,62,64,66,68,-1,-1,-1,70,-1,-1,-1,72,-1,-1,-1,-1,-1,-1,-1,-1,-1,-1,-1,-1,-1,-1,-1,-1,-1,-1,-1,-1,-1,-1],"split_conditions":[1.6246617E0,1.5930796E-1,4.6461253E0,-3.549462E-1,8.654229E-1,3.0801342E0,5.040606E0,-5.284021E-1,-1.3161542E-1,4.4405273E-1,1.3194739E0,2.740972E0,1.3093479E0,4.6664066E0,5.4309626E0,-6.7408365E-1,-4.1986597E-1,-2.4237704E-1,-5.7343314E-3,3.106004E-1,7.657905E-1,2.00001E0,1.8739918E0,2.00001E0,2.00001E0,1.420874E0,2.00001E0,7.397372E0,1.9769897E0,8.091974E0,1.7202534E1,-7.169376E-1,-6.223706E-1,-6.119569E-1,-4.860773E-1,-3.8180456E-1,-1.734779E-1,-5.32115E-2,7.098137E-2,2.00001E0,-2.04721E-1,2.00001E0,2.00001E0,3.6485597E-1,1.4116876E0,7.090851E-1,2.00001E0,1.1498626E0,4.0125136E0,1.4802856E0,2.00001E0,-1.1685829E0,-9.216447E-1,-8.297493E-1,-7.39069E-1,-2.6093242E-1,-2.0088132E-1,-1.2191959E-1,-3.9521173E-2,4.28061E-2,1.5568243E-1,-2.4801636E-2,3.048392E-1,1.8228912E-1,4.9539995E-1,1.748993E-1,7.0798683E-1,2.6072082E-1,1.0385469E0,7.6412356E-1,2.668186E0,1.4914521E0,5.550263E0],"split_indices":[3,3,3,3,3,3,3,3,3,3,3,7,1,1,1,3,3,3,3,3,7,383,0,262,316,0,35,0,0,0,0,3,3,0,0,0,3,3,3,513,1,458,29,0,0,0,361,0,0,0,199,0,0,0,0,0,0,0,0,0,0,0,0,0,0,0,0,0,0,0,0,0,0],"split_type":[0,0,0,0,0,0,0,0,0,0,0,0,0,0,0,0,0,0,0,0,0,0,0,0,0,0,0,0,0,0,0,0,0,0,0,0,0,0,0,0,0,0,0,0,0,0,0,0,0,0,0,0,0,0,0,0,0,0,0,0,0,0,0,0,0,0,0,0,0,0,0,0,0],"sum_hessian":[1.751E3,1.633E3,1.18E2,1.353E3,2.8E2,1.03E2,1.5E1,9.02E2,4.51E2,1.71E2,1.09E2,7.6E1,2.7E1,7E0,8E0,5.2E2,3.82E2,2.53E2,1.98E2,9.6E1,7.5E1,6.8E1,4.1E1,6E1,1.6E1,1E0,2.6E1,6E0,1E0,5E0,3E0,1.23E2,3.97E2,2.32E2,1.5E2,1.57E2,9.6E1,1.09E2,8.9E1,5.5E1,4.1E1,5.3E1,2.2E1,1E0,6.7E1,1E0,5.9E1,1E0,1.5E1,1E0,2.5E1,2.8E1,9.5E1,1.51E2,2.46E2,5.5E1,4.1E1,6.8E1,4.1E1,4.1E1,4.8E1,1E0,5.4E1,2E0,3.9E1,1E0,5.2E1,1E0,2.1E1,1E0,5.8E1,1E0,2.4E1],"tree_param":{"num_deleted":"0","num_feature":"730","num_nodes":"73","size_leaf_vector":"1"}},{"base_weights":[4.949329E-1,-2.3257642E0,4.476173E1,-4.6846557E0,1.022775E1,3.452705E1,9.953421E1,-6.415E0,-1.3130237E0,5.836174E0,1.5032667E1,2.890622E1,5.0586605E1,6.3874344E1,1.20172516E2,-7.452989E0,-5.0366445E0,-2.6267526E0,7.3923016E-1,4.5023794E0,8.166894E0,1.2641987E1,1.7709887E1,2.3165365E1,3.204521E1,2.9267497E0,5.513531E1,6.7633142E0,1.8781372E0,7.417648E0,1.5912345E1,-9.149596E0,-7.048227E0,-5.51024E-1,-4.3373442E-1,-3.3324018E0,-1.755613E0,-2.0566173E-1,1.7607503E0,3.3925285E0,5.146966E0,2.5548935E-1,8.477353E0,3.4661254E-1,1.2725953E1,1.7863062E1,4.642624E-1,6.607422E-1,2.3533903E1,7.371735E-1,3.2467205E1,1.2801331E0,5.6981102E1,-1.0557543E0,-8.425247E-1,-7.551996E-1,-6.6546124E-1,-3.5623893E-1,-2.9188344E-1,-2.1294932E-1,-1.3182585E-1,-5.5228453E-2,2.6139868E-2,1.2596764E-1,2.2914837E-1,2.297287E-2,3.4763306E-1,1.4213562E-1,5.1896375E-1,2.2352703E-1,8.7102824E-1,3.684845E-1,1.2805898E0,4.690201E-1,1.802015E0,6.7362976E-1,2.3920877E0,7.613312E-1,3.289822E0,1.3498291E0,5.898007E0],"categories":[],"categories_nodes":[],"categories_segments":[],"categories_sizes":[],"default_left":[0,0,0,0,0,0,0,0,0,0,0,0,0,0,0,0,0,0,0,0,0,0,0,0,0,0,0,0,0,0,0,0,0,0,0,0,0,0,0,0,0,0,0,0,0,0,0,0,0,0,0,0,0,0,0,0,0,0,0,0,0,0,0,0,0,0,0,0,0,0,0,0,0,0,0,0,0,0,0,0,0],"id":29,"left_children":[1,3,5,7,9,11,13,15,17,19,21,23,25,27,29,31,33,35,37,39,41,43,45,47,49,-1,51,-1,-1,-1,-1,53,55,-1,-1,57,59,61,63,65,67,-1,69,-1,71,73,-1,-1,75,-1,77,-1,79,-1,-1,-1,-1,-1,-1,-1,-1,-1,-1,-1,-1,-1,-1,-1,-1,-1,-1,-1,-1,-1,-1,-1,-1,-1,-1,-1,-1],"loss_changes":[2.1886448E5,4.884911E4,5.542417E4,8.089285E3,5.41967E3,6.6618516E3,4.0994062E3,1.2744297E3,1.2745035E3,3.9223047E2,5.6975977E2,5.0107422E2,5.197656E2,8.571875E1,4.321078E3,2.9329492E2,1.07581055E2,1.711886E2,1.7892892E2,4.6924194E1,6.3713623E1,9.052734E0,2.915625E1,1.5365234E1,1.9796484E2,0E0,5.989414E2,0E0,0E0,0E0,0E0,9.975098E0,3.401758E1,0E0,0E0,4.630249E0,1.8613647E1,1.58480625E1,2.078183E1,8.743134E0,1.3675537E0,0E0,4.7412598E1,0E0,1.9619141E0,2.9292969E1,0E0,0E0,1.43671875E1,0E0,1.887461E2,0E0,5.9460156E2,0E0,0E0,0E0,0E0,0E0,0E0,0E0,0E0,0E0,0E0,0E0,0E0,0E0,0E0,0E0,0E0,0E0,0E0,0E0,0E0,0E0,0E0,0E0,0E0,0E0,0E0,0E0,0E0],"parents":[2147483647,0,0,1,1,2,2,3,3,4,4,5,5,6,6,7,7,8,8,9,9,10,10,11,11,12,12,13,13,14,14,15,15,16,16,17,17,18,18,19,19,20,20,21,21,22,22,23,23,24,24,26,26,31,31,32,32,35,35,36,36,37,37,38,38,39,39,40,40,42,42,44,44,45,45,48,48,50,50,52,52],"right_children":[2,4,6,8,10,12,14,16,18,20,22,24,26,28,30,32,34,36,38,40,42,44,46,48,50,-1,52,-1,-1,-1,-1,54,56,-1,-1,58,60,62,64,66,68,-1,70,-1,72,74,-1,-1,76,-1,78,-1,80,-1,-1,-1,-1,-1,-1,-1,-1,-1,-1,-1,-1,-1,-1,-1,-1,-1,-1,-1,-1,-1,-1,-1,-1,-1,-1,-1,-1],"split_conditions":[1.8318725E0,2.3337933E-1,4.6461253E0,-3.4228578E-1,8.654229E-1,3.3617942E0,5.040606E0,-5.284021E-1,-7.406645E-2,5.2660143E-1,1.3194739E0,2.2506502E0,6.60561E-1,4.6664066E0,5.4309626E0,-6.837937E-1,-4.1986597E-1,-2.232188E-1,5.7039842E-2,3.48068E-1,2.00001E0,2.00001E0,6.669668E0,2.00001E0,2.00001E0,2.9267497E0,2.00001E0,6.7633142E0,1.8781372E0,7.417648E0,1.5912345E1,-7.169376E-1,-6.223706E-1,-5.51024E-1,-4.3373442E-1,-2.7967727E-1,-1.4813924E-1,-1.767448E-2,1.5333138E-1,2.00001E0,2.00001E0,2.5548935E-1,-5.447001E-1,3.4661254E-1,2.00001E0,2.00001E0,4.642624E-1,6.607422E-1,2.00001E0,7.371735E-1,2.00001E0,1.2801331E0,1.3093479E0,-1.0557543E0,-8.425247E-1,-7.551996E-1,-6.6546124E-1,-3.5623893E-1,-2.9188344E-1,-2.1294932E-1,-1.3182585E-1,-5.5228453E-2,2.6139868E-2,1.2596764E-1,2.2914837E-1,2.297287E-2,3.4763306E-1,1.4213562E-1,5.1896375E-1,2.2352703E-1,8.7102824E-1,3.684845E-1,1.2805898E0,4.690201E-1,1.802015E0,6.7362976E-1,2.3920877E0,7.613312E-1,3.289822E0,1.3498291E0,5.898007E0],"split_indices":[3,3,3,3,3,3,3,3,3,3,3,3,2,1,1,3,3,3,3,3,16,383,8,487,296,0,556,0,0,0,0,3,3,0,0,3,3,3,3,21,249,0,4,0,138,418,0,0,262,0,688,0,1,0,0,0,0,0,0,0,0,0,0,0,0,0,0,0,0,0,0,0,0,0,0,0,0,0,0,0,0],"split_type":[0,0,0,0,0,0,0,0,0,0,0,0,0,0,0,0,0,0,0,0,0,0,0,0,0,0,0,0,0,0,0,0,0,0,0,0,0,0,0,0,0,0,0,0,0,0,0,0,0,0,0,0,0,0,0,0,0,0,0,0,0,0,0,0,0,0,0,0,0,0,0,0,0,0,0,0,0,0,0,0,0],"sum_hessian":[1.751E3,1.647E3,1.04E2,1.387E3,2.6E2,8.9E1,1.5E1,9.16E2,4.71E2,1.37E2,1.23E2,6.8E1,2.1E1,7E0,8E0,5.2E2,3.96E2,2.87E2,1.84E2,8.9E1,4.8E1,6.8E1,5.5E1,2.7E1,4.1E1,5E0,1.6E1,6E0,1E0,5E0,3E0,9.6E1,4.24E2,2.32E2,1.64E2,1.57E2,1.3E2,9.6E1,8.8E1,3.5E1,5.4E1,3E0,4.5E1,1E0,6.7E1,5.4E1,1E0,1E0,2.6E1,1E0,4E1,1E0,1.5E1,2.8E1,6.8E1,1.78E2,2.46E2,9.6E1,6.1E1,6.8E1,6.2E1,5.5E1,4.1E1,4.7E1,4.1E1,1E0,3.4E1,1E0,5.3E1,2E0,4.3E1,1E0,6.6E1,1E0,5.3E1,1E0,2.5E1,1E0,3.9E1,1E0,1.4E1],"tree_param":{"num_deleted":"0","num_feature":"730","num_nodes":"81","size_leaf_vector":"1"}},{"base_weights":[4.763113E-1,-2.0918865E0,4.078025E1,-4.282584E0,8.909213E0,3.1296244E1,9.157902E1,-5.8140407E0,-1.3498403E0,5.02481E0,1.3567565E1,2.6139013E1,4.6048634E1,5.8567095E0,1.10747505E2,-6.8216887E0,-4.69471E0,-2.5291133E0,3.7412637E-1,3.8566644E0,7.3777523E0,1.1406722E1,1.5987756E1,2.0981915E1,2.8954723E1,2.6828532E0,5.0123455E1,6.7995143E0,1.4718918E1,-8.4754544E-1,-6.4837503E0,-5.1262265E-1,-4.0086251E-1,-3.0705976E0,-1.7438651E0,-3.19274E-1,1.445799E0,2.7571843E0,4.5392694E0,2.3632737E-1,7.653408E0,3.2928163E-1,1.147762E1,1.6118061E1,4.410492E-1,6.063141E-1,2.13099E1,6.3391113E-1,2.9351711E1,1.1629609E0,5.180247E1,-7.0067924E-1,-6.1616963E-1,-3.2626367E-1,-2.698942E-1,-1.9584933E-1,-1.31397E-1,-7.140261E-2,1.30523415E-2,7.4556144E-3,1.6060252E-1,8.161888E-2,2.885564E-1,7.106781E-2,4.5903826E-1,2.0862427E-1,7.8590465E-1,3.3167878E-1,1.154992E0,4.4556886E-1,1.6251519E0,6.2770385E-1,2.1646664E0,6.7506105E-1,2.9747975E0,1.2161255E0,5.3634467E0],"categories":[],"categories_nodes":[],"categories_segments":[],"categories_sizes":[],"default_left":[0,0,0,0,0,0,0,0,0,0,0,0,0,0,0,0,0,0,0,0,0,0,0,0,0,0,0,0,0,0,0,0,0,0,0,0,0,0,0,0,0,0,0,0,0,0,0,0,0,0,0,0,0,0,0,0,0,0,0,0,0,0,0,0,0,0,0,0,0,0,0,0,0,0,0,0,0],"id":30,"left_children":[1,3,5,7,9,11,13,15,17,19,21,23,25,-1,27,29,31,33,35,37,39,41,43,45,47,-1,49,-1,-1,-1,51,-1,-1,53,55,57,59,61,63,-1,65,-1,67,69,-1,-1,71,-1,73,-1,75,-1,-1,-1,-1,-1,-1,-1,-1,-1,-1,-1,-1,-1,-1,-1,-1,-1,-1,-1,-1,-1,-1,-1,-1,-1,-1],"loss_changes":[1.8143216E5,3.9755094E4,4.772039E4,6.167785E3,4.889832E3,5.643664E3,3.6384688E3,