{"learner":{"attributes":{"scikit_learn":"{\"_estimator_type\": \"regressor\"}"},"feature_names":[],"feature_types":[],"gradient_booster":{"model":{"gbtree_model_param":{"num_parallel_tree":"1","num_trees":"300"},"iteration_indptr":[0,1,2,3,4,5,6,7,8,9,10,11,12,13,14,15,16,17,18,19,20,21,22,23,24,25,26,27,28,29,30,31,32,33,34,35,36,37,38,39,40,41,42,43,44,45,46,47,48,49,50,51,52,53,54,55,56,57,58,59,60,61,62,63,64,65,66,67,68,69,70,71,72,73,74,75,76,77,78,79,80,81,82,83,84,85,86,87,88,89,90,91,92,93,94,95,96,97,98,99,100,101,102,103,104,105,106,107,108,109,110,111,112,113,114,115,116,117,118,119,120,121,122,123,124,125,126,127,128,129,130,131,132,133,134,135,136,137,138,139,140,141,142,143,144,145,146,147,148,149,150,151,152,153,154,155,156,157,158,159,160,161,162,163,164,165,166,167,168,169,170,171,172,173,174,175,176,177,178,179,180,181,182,183,184,185,186,187,188,189,190,191,192,193,194,195,196,197,198,199,200,201,202,203,204,205,206,207,208,209,210,211,212,213,214,215,216,217,218,219,220,221,222,223,224,225,226,227,228,229,230,231,232,233,234,235,236,237,238,239,240,241,242,243,244,245,246,247,248,249,250,251,252,253,254,255,256,257,258,259,260,261,262,263,264,265,266,267,268,269,270,271,272,273,274,275,276,277,278,279,280,281,282,283,284,285,286,287,288,289,290,291,292,293,294,295,296,297,298,299,300],"tree_info":[0,0,0,0,0,0,0,0,0,0,0,0,0,0,0,0,0,0,0,0,0,0,0,0,0,0,0,0,0,0,0,0,0,0,0,0,0,0,0,0,0,0,0,0,0,0,0,0,0,0,0,0,0,0,0,0,0,0,0,0,0,0,0,0,0,0,0,0,0,0,0,0,0,0,0,0,0,0,0,0,0,0,0,0,0,0,0,0,0,0,0,0,0,0,0,0,0,0,0,0,0,0,0,0,0,0,0,0,0,0,0,0,0,0,0,0,0,0,0,0,0,0,0,0,0,0,0,0,0,0,0,0,0,0,0,0,0,0,0,0,0,0,0,0,0,0,0,0,0,0,0,0,0,0,0,0,0,0,0,0,0,0,0,0,0,0,0,0,0,0,0,0,0,0,0,0,0,0,0,0,0,0,0,0,0,0,0,0,0,0,0,0,0,0,0,0,0,0,0,0,0,0,0,0,0,0,0,0,0,0,0,0,0,0,0,0,0,0,0,0,0,0,0,0,0,0,0,0,0,0,0,0,0,0,0,0,0,0,0,0,0,0,0,0,0,0,0,0,0,0,0,0,0,0,0,0,0,0,0,0,0,0,0,0,0,0,0,0,0,0,0,0,0,0,0,0,0,0,0,0,0,0,0,0,0,0,0,0,0,0,0,0,0,0,0,0,0,0,0,0],"trees":[{"base_weights":[9.798024E-9,-8.3293307E-1,9.2838377E-1,-1.4351901E0,-4.2992762E-1,5.263046E-1,1.8313923E0,-1.5862519E0,-7.019577E-1,-6.218789E-1,-1.3258739E-1,3.1445995E-1,8.692371E-1,1.5495207E0,2.2671504E-1,-2.0191686E0,-1.228041E0,-3.9911056E-1,-1.0878947E0,-8.361112E-1,-2.4235193E-1,-2.7469087E-1,5.930223E-2,8.077279E-2,5.7394165E-1,7.9539686E-1,1.325591E-1,1.3902538E-1,1.7030687E0,-1.2272075E0,-2.2392023E0,-1.3811617E0,-8.540142E-1,-4.200502E-5,-5.41485E-1,-1.1217446E0,-8.697367E-3,-1.3039583E0,-6.826711E-1,-3.7109813E-1,5.5398677E-2,-3.5615784E-1,2.3163471E-2,6.0843304E-3,3.629699E-1,-3.562327E-1,2.5369576E-1,3.2544884E-1,7.463563E-1,6.7524534E-1,9.9805254E-1,4.50696E-2,1.7137578E-1,-2.7078096E-2,-1.6496389E-1,-2.808661E-1,-1.9663773E-1,-1.4006837E-1,-6.559234E-2,-8.787905E-2,-1.5640546E-2,-8.305773E-2,-1.4402637E-2,-2.3328757E-2,-1.1469435E-1,-1.7633268E-1,-1.1526009E-1,-7.9583794E-2,-5.377687E-2,-4.1074187E-2,-9.239992E-3,-6.0009635E-3,2.0149186E-2,2.2306204E-2,-3.6434438E-2,-2.5268698E-2,4.2738933E-3,-5.574728E-3,1.3902609E-2,6.7645647E-3,4.7433507E-2,-5.9274565E-2,-1.6163452E-2,4.9864813E-3,3.381059E-2,3.7359618E-2,2.8863908E-3,6.8547904E-2,1.3531499E-1,-2.590108E-2,6.850262E-2,6.9559575E-3,1.0106839E-1],"categories":[],"categories_nodes":[],"categories_segments":[],"categories_sizes":[],"default_left":[0,0,0,0,0,0,0,0,0,0,0,0,0,0,0,0,0,0,0,0,0,0,0,0,0,0,0,0,0,0,0,0,0,0,0,0,0,0,0,0,0,0,0,0,0,0,0,0,0,0,0,0,0,0,0,0,0,0,0,0,0,0,0,0,0,0,0,0,0,0,0,0,0,0,0,0,0,0,0,0,0,0,0,0,0,0,0,0,0,0,0,0,0],"id":0,"left_children":[1,3,5,7,9,11,13,15,17,19,21,23,25,27,-1,29,31,33,35,37,39,41,43,45,47,49,-1,-1,51,53,55,57,59,-1,61,63,-1,65,67,69,71,73,75,77,79,81,83,85,87,89,91,-1,-1,-1,-1,-1,-1,-1,-1,-1,-1,-1,-1,-1,-1,-1,-1,-1,-1,-1,-1,-1,-1,-1,-1,-1,-1,-1,-1,-1,-1,-1,-1,-1,-1,-1,-1,-1,-1,-1,-1,-1,-1],"loss_changes":[1.3555625E3,2.2364966E2,3.0003027E2,3.9868896E1,3.1594093E1,4.1499496E1,2.7808105E1,4.497345E1,7.163002E0,2.71978E1,5.9880214E0,2.160125E1,6.3253326E0,1.4961853E0,0E0,2.1125427E1,8.55658E0,2.1567798E0,8.5110855E-1,1.4543915E1,4.7356715E0,3.0656767E0,1.516884E0,1.437278E1,6.9976997E0,3.976799E0,0E0,0E0,2.4499512E-1,1.248209E1,1.0945496E1,7.6608276E-1,7.6132584E-1,0E0,3.0976372E0,3.3691025E-1,0E0,1.5830917E0,2.261322E0,9.1223145E-1,6.5278536E-1,5.507097E-1,1.6199675E-1,6.735706E-1,4.283569E-1,2.3895411E0,2.3230753E0,1.0030799E0,2.7294922E0,1.301384E0,7.389374E-1,0E0,0E0,0E0,0E0,0E0,0E0,0E0,0E0,0E0,0E0,0E0,0E0,0E0,0E0,0E0,0E0,0E0,0E0,0E0,0E0,0E0,0E0,0E0,0E0,0E0,0E0,0E0,0E0,0E0,0E0,0E0,0E0,0E0,0E0,0E0,0E0,0E0,0E0,0E0,0E0,0E0,0E0],"parents":[2147483647,0,0,1,1,2,2,3,3,4,4,5,5,6,6,7,7,8,8,9,9,10,10,11,11,12,12,13,13,15,15,16,16,17,17,18,18,19,19,20,20,21,21,22,22,23,23,24,24,25,25,28,28,29,29,30,30,31,31,32,32,34,34,35,35,37,37,38,38,39,39,40,40,41,41,42,42,43,43,44,44,45,45,46,46,47,47,48,48,49,49,50,50],"right_children":[2,4,6,8,10,12,14,16,18,20,22,24,26,28,-1,30,32,34,36,38,40,42,44,46,48,50,-1,-1,52,54,56,58,60,-1,62,64,-1,66,68,70,72,74,76,78,80,82,84,86,88,90,92,-1,-1,-1,-1,-1,-1,-1,-1,-1,-1,-1,-1,-1,-1,-1,-1,-1,-1,-1,-1,-1,-1,-1,-1,-1,-1,-1,-1,-1,-1,-1,-1,-1,-1,-1,-1,-1,-1,-1,-1,-1,-1],"split_conditions":[-3.9810717E-1,-5.6538695E-1,5.7578015E-1,-1.0452085E-1,-4.1950542E-1,-1.710834E-2,1.9825243E0,-5.803921E-1,-6.344861E-1,-3.00997E-1,-3.4287554E-1,-3.473265E-1,5.878034E-1,1.2025987E0,2.2671504E-1,-6.2880456E-1,-5.271569E-1,-6.3198924E-1,-1.15552746E-1,-5.166913E-1,1.0248961E0,-6.290409E-2,3.501155E-1,-2.8710252E-1,-3.0811098E-1,2.567195E-1,1.325591E-1,1.3902538E-1,2.00001E0,-6.582468E-1,-6.156409E-1,-6.290409E-2,-2.8094742E-1,-4.200502E-5,-5.3989357E-1,2.00001E0,-8.697367E-3,-5.7070756E-1,-4.6044284E-1,-4.7095454E-1,1.6391162E0,-5.5145514E-1,-5.3611803E-1,-2.7319464E-1,-4.9239242E-1,-4.0922868E-1,-2.1475342E-1,-3.5667497E-1,5.525767E0,2.00001E0,2.00001E0,4.50696E-2,1.7137578E-1,-2.7078096E-2,-1.6496389E-1,-2.808661E-1,-1.9663773E-1,-1.4006837E-1,-6.559234E-2,-8.787905E-2,-1.5640546E-2,-8.305773E-2,-1.4402637E-2,-2.3328757E-2,-1.1469435E-1,-1.7633268E-1,-1.1526009E-1,-7.9583794E-2,-5.377687E-2,-4.1074187E-2,-9.239992E-3,-6.0009635E-3,2.0149186E-2,2.2306204E-2,-3.6434438E-2,-2.5268698E-2,4.2738933E-3,-5.574728E-3,1.3902609E-2,6.7645647E-3,4.7433507E-2,-5.9274565E-2,-1.6163452E-2,4.9864813E-3,3.381059E-2,3.7359618E-2,2.8863908E-3,6.8547904E-2,1.3531499E-1,-2.590108E-2,6.850262E-2,6.9559575E-3,1.0106839E-1],"split_indices":[1,1,6,7,6,6,6,6,6,8,6,8,8,6,0,4,6,1,2,6,8,9,2,6,1,6,0,0,727,1,6,9,8,0,0,33,0,6,6,1,8,3,1,6,0,6,6,0,8,564,629,0,0,0,0,0,0,0,0,0,0,0,0,0,0,0,0,0,0,0,0,0,0,0,0,0,0,0,0,0,0,0,0,0,0,0,0,0,0,0,0,0,0],"split_type":[0,0,0,0,0,0,0,0,0,0,0,0,0,0,0,0,0,0,0,0,0,0,0,0,0,0,0,0,0,0,0,0,0,0,0,0,0,0,0,0,0,0,0,0,0,0,0,0,0,0,0,0,0,0,0,0,0,0,0,0,0,0,0,0,0,0,0,0,0,0,0,0,0,0,0,0,0,0,0,0,0,0,0,0,0,0,0,0,0,0,0,0,0],"sum_hessian":[1.751E3,9.23E2,8.28E2,3.69E2,5.54E2,5.74E2,2.54E2,3.05E2,6.4E1,3.36E2,2.18E2,3.56E2,2.18E2,1.57E2,9.7E1,1.36E2,1.69E2,3.7E1,2.7E1,2.14E2,1.22E2,1.25E2,9.3E1,1.88E2,1.68E2,1.9E2,2.8E1,8.2E1,7.5E1,3.1E1,1.05E2,1.18E2,5.1E1,1E1,2.7E1,2.6E1,1E0,5.1E1,1.63E2,8.5E1,3.7E1,9.8E1,2.7E1,8E1,1.3E1,5.3E1,1.35E2,7E1,9.8E1,1.22E2,6.8E1,1E0,7.4E1,1E1,2.1E1,3.1E1,7.4E1,1.14E2,4E0,4.9E1,2E0,1.5E1,1.2E1,1E0,2.5E1,1E1,4.1E1,8.9E1,7.4E1,7.4E1,1.1E1,2.1E1,1.6E1,1E0,9.7E1,1E0,2.6E1,5.5E1,2.5E1,4E0,9E0,2.3E1,3E1,4E1,9.5E1,6E1,1E1,9.1E1,7E0,1E0,1.21E2,1E0,6.7E1],"tree_param":{"num_deleted":"0","num_feature":"729","num_nodes":"93","size_leaf_vector":"1"}},{"base_weights":[-3.331924E-4,-7.5143266E-1,8.368396E-1,-1.2949762E0,-3.8771632E-1,4.7452748E-1,1.6505362E0,-1.4308251E0,-6.3551927E-1,-5.2880824E-1,-5.6743428E-2,2.8359514E-1,7.836066E-1,1.3666328E0,2.0008178E0,-1.8221389E0,-1.1070555E0,-3.6176524E-1,-9.8434544E-1,-6.9538623E-1,-2.0294839E-1,-1.5477508E-1,1.2065927E-1,8.8103786E-2,5.377961E-1,7.0659083E-1,1.1433436E0,1.2124276E-1,1.4653567E0,1.7836498E-1,2.2344331E-1,-1.1104882E0,-2.0197868E0,-1.2510052E0,-7.833243E-1,2.3405552E-2,-4.8210806E-1,-1.0146823E0,-8.262492E-3,-1.17917E0,-5.6989044E-1,-3.6698768E-1,-3.086325E-2,-2.1426573E-1,1.5458182E-1,5.6311637E-2,4.021795E-1,-2.995925E-1,2.4151668E-1,4.4169033E-1,8.9339983E-1,6.0516095E-1,8.9018494E-1,4.8417028E-2,1.1671772E-1,4.2816114E-2,1.472784E-1,-2.4616446E-2,-1.4921734E-1,-2.536572E-1,-1.7723615E-1,-1.2687443E-1,-6.034496E-2,-8.559841E-2,-4.8273236E-2,4.119289E-3,9.897709E-4,-3.7341648E-5,-6.656083E-2,-2.2162318E-2,-1.0366607E-1,-1.6308461E-1,-1.0467066E-1,-7.171386E-2,-4.5175176E-2,-4.6567254E-2,-2.1821592E-2,-1.3935787E-2,1.5264223E-2,-3.0858224E-2,-1.4392696E-2,6.507655E-3,2.859363E-2,1.2540038E-3,2.3014402E-2,1.3960155E-2,4.450189E-2,-5.2096765E-2,-1.280051E-2,5.474526E-3,3.1895768E-2,3.7860267E-2,7.330915E-2,7.335155E-2,1.2204917E-1,-2.4606038E-2,6.1430495E-2,6.6081523E-3,9.024111E-2],"categories":[],"categories_nodes":[],"categories_segments":[],"categories_sizes":[],"default_left":[0,0,0,0,0,0,0,0,0,0,0,0,0,0,0,0,0,0,0,0,0,0,0,0,0,0,0,0,0,0,0,0,0,0,0,0,0,0,0,0,0,0,0,0,0,0,0,0,0,0,0,0,0,0,0,0,0,0,0,0,0,0,0,0,0,0,0,0,0,0,0,0,0,0,0,0,0,0,0,0,0,0,0,0,0,0,0,0,0,0,0,0,0,0,0,0,0,0,0],"id":1,"left_children":[1,3,5,7,9,11,13,15,17,19,21,23,25,27,29,31,33,35,37,39,41,43,45,47,49,51,53,-1,55,-1,-1,57,59,61,63,65,67,69,-1,71,73,75,77,79,81,83,85,87,89,91,93,95,97,-1,-1,-1,-1,-1,-1,-1,-1,-1,-1,-1,-1,-1,-1,-1,-1,-1,-1,-1,-1,-1,-1,-1,-1,-1,-1,-1,-1,-1,-1,-1,-1,-1,-1,-1,-1,-1,-1,-1,-1,-1,-1,-1,-1,-1,-1],"loss_changes":[1.1022864E3,1.8216876E2,2.4361603E2,3.223767E1,2.5887169E1,3.3710373E1,2.2624329E1,3.6751648E1,5.850914E0,2.0974205E1,2.9229856E0,1.7693405E1,5.259613E0,4.1558838E-1,1.6967468E0,1.7026947E1,6.9422455E0,1.7726812E0,6.8211174E-1,1.4931206E1,3.743095E0,2.0207365E0,1.0642624E0,1.2146311E1,4.902611E0,2.86911E0,1.6174316E-2,0E0,8.7890625E-3,0E0,0E0,1.0189465E1,9.058044E0,5.6684875E-1,7.8804016E-1,1.9949703E-3,2.563305E0,2.408638E-1,0E0,1.4041672E0,3.2595444E0,8.9672565E-1,1.3352894E0,5.592904E-1,1.9301677E-1,3.7756008E-1,6.1610103E-2,2.136454E0,2.0942488E0,2.0020428E0,7.7825165E-1,1.092968E0,5.7512665E-1,0E0,0E0,0E0,0E0,0E0,0E0,0E0,0E0,0E0,0E0,0E0,0E0,0E0,0E0,0E0,0E0,0E0,0E0,0E0,0E0,0E0,0E0,0E0,0E0,0E0,0E0,0E0,0E0,0E0,0E0,0E0,0E0,0E0,0E0,0E0,0E0,0E0,0E0,0E0,0E0,0E0,0E0,0E0,0E0,0E0,0E0],"parents":[2147483647,0,0,1,1,2,2,3,3,4,4,5,5,6,6,7,7,8,8,9,9,10,10,11,11,12,12,13,13,14,14,15,15,16,16,17,17,18,18,19,19,20,20,21,21,22,22,23,23,24,24,25,25,26,26,28,28,31,31,32,32,33,33,34,34,35,35,36,36,37,37,39,39,40,40,41,41,42,42,43,43,44,44,45,45,46,46,47,47,48,48,49,49,50,50,51,51,52,52],"right_children":[2,4,6,8,10,12,14,16,18,20,22,24,26,28,30,32,34,36,38,40,42,44,46,48,50,52,54,-1,56,-1,-1,58,60,62,64,66,68,70,-1,72,74,76,78,80,82,84,86,88,90,92,94,96,98,-1,-1,-1,-1,-1,-1,-1,-1,-1,-1,-1,-1,-1,-1,-1,-1,-1,-1,-1,-1,-1,-1,-1,-1,-1,-1,-1,-1,-1,-1,-1,-1,-1,-1,-1,-1,-1,-1,-1,-1,-1,-1,-1,-1,-1,-1],"split_conditions":[-3.9810717E-1,-5.6538695E-1,5.7578015E-1,-1.0452085E-1,-3.968652E-1,-1.710834E-2,1.8099117E0,-5.803921E-1,-6.344861E-1,-2.9104012E-1,-3.070402E-1,-2.0796923E-1,2.8463346E-1,1.0123935E0,2.8781793E0,-6.2880456E-1,-5.293479E-1,2.00001E0,-1.15552746E-1,-5.166913E-1,6.1672294E-1,-3.00997E-1,3.501155E-1,-2.8710252E-1,-1.9039063E-1,2.567195E-1,-2.5040027E-1,1.2124276E-1,2.00001E0,1.7836498E-1,2.2344331E-1,-6.582468E-1,-6.156409E-1,-6.290409E-2,-4.7317195E-1,-5.3989357E-1,-6.3198924E-1,2.00001E0,-8.262492E-3,-5.731406E-1,-4.6044284E-1,-4.7988063E-1,-4.7702762E-1,-3.6565393E-1,2.3475209E-1,-2.242157E-1,-4.9239242E-1,-4.0922868E-1,-2.1475342E-1,1.5648555E0,4.8127737E0,2.00001E0,2.00001E0,4.8417028E-2,1.1671772E-1,4.2816114E-2,1.472784E-1,-2.4616446E-2,-1.4921734E-1,-2.536572E-1,-1.7723615E-1,-1.2687443E-1,-6.034496E-2,-8.559841E-2,-4.8273236E-2,4.119289E-3,9.897709E-4,-3.7341648E-5,-6.656083E-2,-2.2162318E-2,-1.0366607E-1,-1.6308461E-1,-1.0467066E-1,-7.171386E-2,-4.5175176E-2,-4.6567254E-2,-2.1821592E-2,-1.3935787E-2,1.5264223E-2,-3.0858224E-2,-1.4392696E-2,6.507655E-3,2.859363E-2,1.2540038E-3,2.3014402E-2,1.3960155E-2,4.450189E-2,-5.2096765E-2,-1.280051E-2,5.474526E-3,3.1895768E-2,3.7860267E-2,7.330915E-2,7.335155E-2,1.2204917E-1,-2.4606038E-2,6.1430495E-2,6.6081523E-3,9.024111E-2],"split_indices":[1,1,6,7,6,6,6,6,6,8,6,8,8,6,6,4,6,25,2,6,8,8,2,6,1,6,1,0,727,0,0,1,6,9,6,0,1,33,0,6,6,6,1,6,8,6,0,6,6,9,8,564,629,0,0,0,0,0,0,0,0,0,0,0,0,0,0,0,0,0,0,0,0,0,0,0,0,0,0,0,0,0,0,0,0,0,0,0,0,0,0,0,0,0,0,0,0,0,0],"split_type":[0,0,0,0,0,0,0,0,0,0,0,0,0,0,0,0,0,0,0,0,0,0,0,0,0,0,0,0,0,0,0,0,0,0,0,0,0,0,0,0,0,0,0,0,0,0,0,0,0,0,0,0,0,0,0,0,0,0,0,0,0,0,0,0,0,0,0,0,0,0,0,0,0,0,0,0,0,0,0,0,0,0,0,0,0,0,0,0,0,0,0,0,0,0,0,0,0,0,0],"sum_hessian":[1.751E3,9.23E2,8.28E2,3.69E2,5.54E2,5.74E2,2.54E2,3.05E2,6.4E1,3.88E2,1.66E2,3.56E2,2.18E2,1.43E2,1.11E2,1.36E2,1.69E2,3.7E1,2.7E1,2.56E2,1.32E2,1.07E2,5.9E1,2.02E2,1.54E2,1.82E2,3.6E1,6.1E1,8.2E1,6.2E1,4.9E1,3.1E1,1.05E2,1.15E2,5.4E1,9E0,2.8E1,2.6E1,1E0,5.1E1,2.05E2,6.7E1,6.5E1,9E1,1.7E1,4.9E1,1E1,5.7E1,1.45E2,1.23E2,3.1E1,1.2E2,6.2E1,2E0,3.4E1,1E0,8.1E1,1E1,2.1E1,3.1E1,7.4E1,1.11E2,4E0,4.2E1,1.2E1,3E0,6E0,8E0,2E1,1E0,2.5E1,9E0,4.2E1,8.9E1,1.16E2,3.9E1,2.8E1,4.1E1,2.4E1,3.7E1,5.3E1,1.1E1,6E0,4E1,9E0,2E0,8E0,2.4E1,3.3E1,4.3E1,1.02E2,1.03E2,2E1,2.3E1,8E0,1E0,1.19E2,1E0,6.1E1],"tree_param":{"num_deleted":"0","num_feature":"729","num_nodes":"99","size_leaf_vector":"1"}},{"base_weights":[-4.194681E-4,-6.7791337E-1,7.5471294E-1,-1.1685095E0,-3.4962782E-1,3.9604962E-1,1.4235094E0,-1.3257428E0,-6.927419E-1,-5.204239E-1,-1.23289555E-1,2.2354361E-1,6.2312394E-1,1.1758986E0,1.8043237E0,-1.8568671E0,-1.0472026E0,2.6518544E-2,-7.8838503E-1,-6.279659E-1,-3.044963E-1,-2.425828E-1,5.2039243E-2,2.4848105E-4,4.482871E-1,5.6239223E-1,1.0656551E0,9.4009066E-1,1.2710077E-1,1.643751E-1,2.0853834E-1,-1.9574039E0,-6.8986374E-1,-1.2472035E0,-8.1484693E-1,4.2479675E-2,9.049212E-3,2.259975E-2,-8.751914E-1,-8.0720973E-1,-2.9456434E-1,-3.4422985E-1,9.286954E-3,-4.3299994E-1,-4.338511E-2,2.60638E-3,2.7159607E-1,-4.1247296E-1,1.2303958E-1,2.5292706E-1,6.0389787E-1,4.9489972E-1,7.272454E-1,3.0340577E-2,1.083303E-1,6.277752E-3,9.5517464E-2,-3.0467708E-2,-2.0343092E-1,-2.3127794E-2,-1.0104769E-1,-1.260978E-1,-3.952759E-2,-8.812689E-2,-4.8559852E-2,-2.2697449E-4,5.188351E-3,-7.050038E-5,1.0792415E-3,4.098587E-3,-3.063202E-5,-9.7718604E-2,-3.1358715E-2,-1.2221884E-1,-6.833165E-2,-4.1727092E-2,-1.2574776E-2,-3.6083702E-2,2.6866626E-3,-4.3260455E-3,7.780234E-3,-6.644088E-2,-3.900767E-2,-1.0025908E-2,1.7562833E-2,-8.43181E-3,1.1360415E-2,7.8270435E-3,3.212412E-2,-5.1517643E-2,8.660937E-3,1.4862351E-3,2.2574272E-2,1.3973641E-2,3.6866613E-2,5.3002227E-2,1.00913934E-1,4.5876846E-2,7.198694E-2,4.729605E-3,7.383446E-2],"categories":[],"categories_nodes":[],"categories_segments":[],"categories_sizes":[],"default_left":[0,0,0,0,0,0,0,0,0,0,0,0,0,0,0,0,0,0,0,0,0,0,0,0,0,0,0,0,0,0,0,0,0,0,0,0,0,0,0,0,0,0,0,0,0,0,0,0,0,0,0,0,0,0,0,0,0,0,0,0,0,0,0,0,0,0,0,0,0,0,0,0,0,0,0,0,0,0,0,0,0,0,0,0,0,0,0,0,0,0,0,0,0,0,0,0,0,0,0,0,0],"id":2,"left_children":[1,3,5,7,9,11,13,15,17,19,21,23,25,27,29,31,33,35,37,39,41,43,45,47,49,51,53,55,-1,-1,-1,57,59,61,63,65,67,69,71,73,75,77,79,81,83,85,87,89,91,93,95,97,99,-1,-1,-1,-1,-1,-1,-1,-1,-1,-1,-1,-1,-1,-1,-1,-1,-1,-1,-1,-1,-1,-1,-1,-1,-1,-1,-1,-1,-1,-1,-1,-1,-1,-1,-1,-1,-1,-1,-1,-1,-1,-1,-1,-1,-1,-1,-1,-1],"loss_changes":[8.968306E2,1.4840686E2,1.9829065E2,2.676004E1,2.1390862E1,2.1052582E1,2.5129272E1,3.903473E1,6.487385E0,7.1467133E0,5.0323534E0,1.5506781E1,5.6627197E0,2.7972107E0,1.62677E0,9.678345E0,7.534439E0,2.9615564E-3,5.8628693E0,1.2311867E1,1.3372431E0,5.405299E0,1.0629177E0,7.9566E0,4.528879E0,1.9432373E0,3.452301E-2,6.6786957E-1,0E0,0E0,0E0,1.0311096E1,1.0895562E0,6.3986206E-1,1.4965591E0,2.6426585E-3,1.266338E-4,3.8029393E-3,3.9896088E0,6.1570206E0,1.5011458E0,5.951662E-1,5.0169744E-2,4.6592426E-1,9.019959E-1,7.9110116E-1,1.476146E-1,1.8898873E0,1.3409722E0,8.655238E-1,2.0098152E0,8.890114E-1,4.027996E-1,0E0,0E0,0E0,0E0,0E0,0E0,0E0,0E0,0E0,0E0,0E0,0E0,0E0,0E0,0E0,0E0,0E0,0E0,0E0,0E0,0E0,0E0,0E0,0E0,0E0,0E0,0E0,0E0,0E0,0E0,0E0,0E0,0E0,0E0,0E0,0E0,0E0,0E0,0E0,0E0,0E0,0E0,0E0,0E0,0E0,0E0,0E0,0E0],"parents":[2147483647,0,0,1,1,2,2,3,3,4,4,5,5,6,6,7,7,8,8,9,9,10,10,11,11,12,12,13,13,14,14,15,15,16,16,17,17,18,18,19,19,20,20,21,21,22,22,23,23,24,24,25,25,26,26,27,27,31,31,32,32,33,33,34,34,35,35,36,36,37,37,38,38,39,39,40,40,41,41,42,42,43,43,44,44,45,45,46,46,47,47,48,48,49,49,50,50,51,51,52,52],"right_children":[2,4,6,8,10,12,14,16,18,20,22,24,26,28,30,32,34,36,38,40,42,44,46,48,50,52,54,56,-1,-1,-1,58,60,62,64,66,68,70,72,74,76,78,80,82,84,86,88,90,92,94,96,98,100,-1,-1,-1,-1,-1,-1,-1,-1,-1,-1,-1,-1,-1,-1,-1,-1,-1,-1,-1,-1,-1,-1,-1,-1,-1,-1,-1,-1,-1,-1,-1,-1,-1,-1,-1,-1,-1,-1,-1,-1,-1,-1,-1,-1,-1,-1,-1,-1],"split_conditions":[-3.9810717E-1,-5.6538695E-1,4.091515E-1,-2.17424E-1,-4.884092E-1,-9.5363684E-2,1.8099117E0,-5.902891E-1,2.00001E0,-4.5220223E-1,-3.8468897E-1,-2.17424E-1,5.878034E-1,7.137404E-1,3.2310293E0,-2.661965E-1,-5.508789E-1,-5.3989357E-1,-6.5157425E-1,-3.4130967E-1,-3.193728E-1,-3.7751493E-1,1.9489276E-1,-3.2876384E-1,-3.0811098E-1,2.0845029E-1,2.00001E0,2.00001E0,1.2710077E-1,1.643751E-1,2.0853834E-1,2.00001E0,-6.459095E-1,-6.290409E-2,-4.959628E-1,2.00001E0,-5.1275E-1,-5.6703705E-1,5.7289803E-1,-5.315394E-1,6.9105977E-1,3.162839E-3,-5.195359E-1,-4.9283803E-1,-2.7319464E-1,2.7221164E-1,-4.832154E-1,-1.05954185E-2,-2.1475342E-1,-1.9316413E-1,-7.4211575E-2,2.9882026E-1,2.00001E0,3.0340577E-2,1.083303E-1,6.277752E-3,9.5517464E-2,-3.0467708E-2,-2.0343092E-1,-2.3127794E-2,-1.0104769E-1,-1.260978E-1,-3.952759E-2,-8.812689E-2,-4.8559852E-2,-2.2697449E-4,5.188351E-3,-7.050038E-5,1.0792415E-3,4.098587E-3,-3.063202E-5,-9.7718604E-2,-3.1358715E-2,-1.2221884E-1,-6.833165E-2,-4.1727092E-2,-1.2574776E-2,-3.6083702E-2,2.6866626E-3,-4.3260455E-3,7.780234E-3,-6.644088E-2,-3.900767E-2,-1.0025908E-2,1.7562833E-2,-8.43181E-3,1.1360415E-2,7.8270435E-3,3.212412E-2,-5.1517643E-2,8.660937E-3,1.4862351E-3,2.2574272E-2,1.3973641E-2,3.6866613E-2,5.3002227E-2,1.00913934E-1,4.5876846E-2,7.198694E-2,4.729605E-3,7.383446E-2],"split_indices":[1,1,6,7,1,6,6,6,25,6,8,7,8,6,6,8,6,0,1,8,6,6,2,6,1,6,295,629,0,0,0,25,1,9,6,262,0,0,7,6,8,8,0,6,6,8,1,0,6,2,1,9,175,0,0,0,0,0,0,0,0,0,0,0,0,0,0,0,0,0,0,0,0,0,0,0,0,0,0,0,0,0,0,0,0,0,0,0,0,0,0,0,0,0,0,0,0,0,0,0,0],"split_type":[0,0,0,0,0,0,0,0,0,0,0,0,0,0,0,0,0,0,0,0,0,0,0,0,0,0,0,0,0,0,0,0,0,0,0,0,0,0,0,0,0,0,0,0,0,0,0,0,0,0,0,0,0,0,0,0,0,0,0,0,0,0,0,0,0,0,0,0,0,0,0,0,0,0,0,0,0,0,0,0,0,0,0,0,0,0,0,0,0,0,0,0,0,0,0,0,0,0,0,0,0],"sum_hessian":[1.751E3,9.23E2,8.28E2,3.69E2,5.54E2,5.4E2,2.88E2,2.76E2,9.3E1,3.15E2,2.39E2,3.08E2,2.32E2,1.77E2,1.11E2,9.3E1,1.83E2,1.1E1,8.2E1,2.09E2,1.06E2,1.42E2,9.7E1,1.55E2,1.53E2,2.06E2,2.6E1,5.4E1,1.23E2,7.5E1,3.6E1,8.5E1,8E0,9.6E1,8.7E1,5E0,6E0,8E0,7.4E1,1.35E2,7.4E1,9.4E1,1.2E1,7.2E1,7E1,8E1,1.7E1,3.5E1,1.2E2,6.9E1,8.4E1,1.49E2,5.7E1,1E0,2.5E1,1E0,5.3E1,4E0,8.1E1,4E0,4E0,9.4E1,2E0,7.1E1,1.6E1,1E0,4E0,1E0,5E0,4E0,4E0,6.2E1,1.2E1,2.9E1,1.06E2,4.2E1,3.2E1,9E1,4E0,7E0,5E0,9E0,6.3E1,5.6E1,1.4E1,4.5E1,3.5E1,4E0,1.3E1,2.9E1,6E0,5.9E1,6.1E1,3.6E1,3.3E1,7.3E1,1.1E1,1.31E2,1.8E1,1E0,5.6E1],"tree_param":{"num_deleted":"0","num_feature":"729","num_nodes":"101","size_leaf_vector":"1"}},{"base_weights":[-3.6982313E-4,-6.113225E-1,6.80596E-1,-1.0537652E0,-3.1525934E-1,3.6843818E-1,1.3047078E0,-1.165659E0,-5.107921E-1,-4.6012482E-1,-9.089891E-2,2.0179096E-1,5.7626563E-1,1.1003044E0,1.6647435E0,-1.4038181E0,-7.9991126E-1,-2.8161073E-1,-8.035813E-1,-5.827271E-1,-8.9789525E-2,-1.9562179E-1,5.0441325E-2,2.2740148E-2,4.3239912E-1,5.1800406E-1,9.366204E-1,9.776844E-1,1.2536225E0,1.5079527E-1,1.8824811E-1,-1.5391698E0,-1.0402287E0,-8.7583095E-1,-4.9753648E-1,-7.9798445E-2,-1.9739074E-1,-8.3114845E-1,-2.9634237E-3,-9.550704E-1,-4.8860997E-1,-1.7884958E-1,1.0814872E-1,-2.5977388E-1,3.818822E-2,1.635643E-2,3.3511883E-1,-3.1002915E-1,1.3349098E-1,3.5010594E-1,7.4860495E-1,4.4336745E-1,6.751416E-1,7.620287E-2,1.1786536E-1,5.963874E-3,9.860184E-2,3.432026E-2,1.2611854E-1,-2.1425007E-1,-1.3327761E-1,5.25723E-3,-1.2649511E-1,-4.106045E-3,-8.840988E-2,-5.471043E-2,-2.3286497E-2,-8.531108E-2,-1.0641426E-2,-8.689342E-2,-2.3921823E-2,-1.2848452E-1,-8.044781E-2,-6.0697544E-2,-4.024008E-2,-2.0674562E-2,2.564075E-2,2.3214861E-3,1.5674423E-2,-6.589053E-2,-2.4475155E-2,-1.2717056E-2,6.311809E-3,-1.4549132E-3,2.789533E-2,1.5518284E-2,3.9006528E-2,-3.7356798E-2,7.918583E-3,3.0098842E-3,2.1923304E-2,2.4687437E-2,4.5851607E-2,8.471551E-2,4.573762E-2,-2.5669575E-2,4.49876E-2,4.4931173E-3,6.840094E-2],"categories":[],"categories_nodes":[],"categories_segments":[],"categories_sizes":[],"default_left":[0,0,0,0,0,0,0,0,0,0,0,0,0,0,0,0,0,0,0,0,0,0,0,0,0,0,0,0,0,0,0,0,0,0,0,0,0,0,0,0,0,0,0,0,0,0,0,0,0,0,0,0,0,0,0,0,0,0,0,0,0,0,0,0,0,0,0,0,0,0,0,0,0,0,0,0,0,0,0,0,0,0,0,0,0,0,0,0,0,0,0,0,0,0,0,0,0,0,0],"id":3,"left_children":[1,3,5,7,9,11,13,15,17,19,21,23,25,27,29,31,33,35,37,39,41,43,45,47,49,51,53,55,57,-1,-1,59,61,63,65,-1,67,69,-1,71,73,75,77,79,81,83,85,87,89,91,93,95,97,-1,-1,-1,-1,-1,-1,-1,-1,-1,-1,-1,-1,-1,-1,-1,-1,-1,-1,-1,-1,-1,-1,-1,-1,-1,-1,-1,-1,-1,-1,-1,-1,-1,-1,-1,-1,-1,-1,-1,-1,-1,-1,-1,-1,-1,-1],"loss_changes":[7.293146E2,1.2070346E2,1.6102618E2,2.1884033E1,1.799683E1,1.907087E1,1.8479858E1,2.5531555E1,4.1353226E0,1.5248802E1,3.251408E0,1.2748954E1,4.679558E0,2.1395416E0,5.06958E-1,7.45401E0,2.3878555E0,1.4950666E0,5.7276535E-1,8.399445E0,1.5177556E0,1.8998456E0,9.0661967E-1,6.490919E0,3.250824E0,2.2104988E0,4.963131E-1,7.369003E-1,9.043884E-2,0E0,0E0,1.3581665E1,1.3082073E1,6.3316345E-1,2.2681665E-1,0E0,1.9374906E0,3.9603043E-1,0E0,1.4494438E0,1.8374062E0,7.693864E-1,1.0780111E-1,4.323249E-1,1.23453245E-1,6.9389325E-1,3.8336992E-2,1.117713E0,1.1635888E0,1.1066618E0,3.8744926E-1,7.8982735E-1,3.4370422E-1,0E0,0E0,0E0,0E0,0E0,0E0,0E0,0E0,0E0,0E0,0E0,0E0,0E0,0E0,0E0,0E0,0E0,0E0,0E0,0E0,0E0,0E0,0E0,0E0,0E0,0E0,0E0,0E0,0E0,0E0,0E0,0E0,0E0,0E0,0E0,0E0,0E0,0E0,0E0,0E0,0E0,0E0,0E0,0E0,0E0,0E0],"parents":[2147483647,0,0,1,1,2,2,3,3,4,4,5,5,6,6,7,7,8,8,9,9,10,10,11,11,12,12,13,13,14,14,15,15,16,16,17,17,18,18,19,19,20,20,21,21,22,22,23,23,24,24,25,25,26,26,27,27,28,28,31,31,32,32,33,33,34,34,36,36,37,37,39,39,40,40,41,41,42,42,43,43,44,44,45,45,46,46,47,47,48,48,49,49,50,50,51,51,52,52],"right_children":[2,4,6,8,10,12,14,16,18,20,22,24,26,28,30,32,34,36,38,40,42,44,46,48,50,52,54,56,58,-1,-1,60,62,64,66,-1,68,70,-1,72,74,76,78,80,82,84,86,88,90,92,94,96,98,-1,-1,-1,-1,-1,-1,-1,-1,-1,-1,-1,-1,-1,-1,-1,-1,-1,-1,-1,-1,-1,-1,-1,-1,-1,-1,-1,-1,-1,-1,-1,-1,-1,-1,-1,-1,-1,-1,-1,-1,-1,-1,-1,-1,-1,-1],"split_conditions":[-3.9810717E-1,-5.6538695E-1,4.664474E-1,-1.0452085E-1,-4.1950542E-1,-9.5363684E-2,1.9825243E0,-5.645893E-1,-6.344861E-1,2.3475209E-1,-3.4287554E-1,-1.2024015E-1,4.5572457E-1,1.2025987E0,3.2310293E0,-3.8032195E-1,-5.042948E-1,2.00001E0,-1.15552746E-1,-5.2505296E-1,1.344855E0,-6.290409E-2,1.3984165E-1,-3.265874E-1,-1.9724217E-1,2.0845029E-1,2.3515074E0,2.00001E0,2.00001E0,1.5079527E-1,1.8824811E-1,-6.094789E-1,-6.582468E-1,-6.028798E-1,-4.4978034E-1,-7.9798445E-2,2.00001E0,-5.772813E-1,-2.9634237E-3,-5.645893E-1,-4.7988063E-1,1.9489276E-1,1.6391162E0,2.00001E0,2.00001E0,-2.0862404E-1,4.599949E-1,-1.05954185E-2,-2.1475342E-1,-3.0811098E-1,-3.758231E-1,2.00001E0,2.00001E0,7.620287E-2,1.1786536E-1,5.963874E-3,9.860184E-2,3.432026E-2,1.2611854E-1,-2.1425007E-1,-1.3327761E-1,5.25723E-3,-1.2649511E-1,-4.106045E-3,-8.840988E-2,-5.471043E-2,-2.3286497E-2,-8.531108E-2,-1.0641426E-2,-8.689342E-2,-2.3921823E-2,-1.2848452E-1,-8.044781E-2,-6.0697544E-2,-4.024008E-2,-2.0674562E-2,2.564075E-2,2.3214861E-3,1.5674423E-2,-6.589053E-2,-2.4475155E-2,-1.2717056E-2,6.311809E-3,-1.4549132E-3,2.789533E-2,1.5518284E-2,3.9006528E-2,-3.7356798E-2,7.918583E-3,3.0098842E-3,2.1923304E-2,2.4687437E-2,4.5851607E-2,8.471551E-2,4.573762E-2,-2.5669575E-2,4.49876E-2,4.4931173E-3,6.840094E-2],"split_indices":[1,1,6,7,6,6,6,6,6,8,6,8,8,6,6,8,6,35,2,6,8,9,8,6,1,6,8,629,727,0,0,6,1,4,6,0,30,4,0,6,6,2,8,37,13,6,7,0,6,1,3,564,175,0,0,0,0,0,0,0,0,0,0,0,0,0,0,0,0,0,0,0,0,0,0,0,0,0,0,0,0,0,0,0,0,0,0,0,0,0,0,0,0,0,0,0,0,0,0],"split_type":[0,0,0,0,0,0,0,0,0,0,0,0,0,0,0,0,0,0,0,0,0,0,0,0,0,0,0,0,0,0,0,0,0,0,0,0,0,0,0,0,0,0,0,0,0,0,0,0,0,0,0,0,0,0,0,0,0,0,0,0,0,0,0,0,0,0,0,0,0,0,0,0,0,0,0,0,0,0,0,0,0,0,0,0,0,0,0,0,0,0,0,0,0,0,0,0,0,0,0],"sum_hessian":[1.751E3,9.23E2,8.28E2,3.69E2,5.54E2,5.53E2,2.75E2,3.05E2,6.4E1,3.36E2,2.18E2,3.08E2,2.45E2,1.78E2,9.7E1,1.83E2,1.22E2,3.7E1,2.7E1,2.52E2,8.4E1,1.25E2,9.3E1,1.74E2,1.34E2,2.13E2,3.2E1,1.03E2,7.5E1,6.1E1,3.6E1,1.31E2,5.2E1,9.6E1,2.6E1,4E0,3.3E1,2.6E1,1E0,4.9E1,2.03E2,5.8E1,2.6E1,9.8E1,2.7E1,8.4E1,9E0,4.3E1,1.31E2,1.08E2,2.6E1,1.47E2,6.6E1,2.1E1,1.1E1,1E0,1.02E2,1E0,7.4E1,3.1E1,1E2,9E0,4.3E1,1E0,9.5E1,2.1E1,5E0,3E0,3E1,2.4E1,2E0,1.3E1,3.6E1,8.3E1,1.2E2,5.5E1,3E0,1E1,1.6E1,2E0,9.6E1,3E0,2.4E1,7.6E1,8E0,3E0,6E0,3.7E1,6E0,6E1,7.1E1,5.7E1,5.1E1,1.8E1,8E0,1E0,1.46E2,1E0,6.5E1],"tree_param":{"num_deleted":"0","num_feature":"729","num_nodes":"99","size_leaf_vector":"1"}},{"base_weights":[-4.1543145E-4,-5.515231E-1,6.1384743E-1,-1.0201784E0,-3.234566E-1,3.577455E-1,1.233575E0,-1.163062E0,-5.8755684E-1,-5.1881063E-1,-1.4730792E-1,2.0648037E-1,5.8896923E-1,1.0829009E0,1.581214E-1,-1.525097E0,-9.077266E-1,3.228339E-2,-6.805521E-1,-6.1496854E-1,-3.0989963E-1,-2.3221564E-1,4.3930005E-2,3.4501385E-2,3.7540138E-1,5.329703E-1,8.889353E-1,9.444689E-2,1.1826547E0,-1.6143906E0,-5.222347E-1,-1.0265929E0,-7.270571E-1,4.2626936E-2,1.6559282E-2,2.3184882E-2,-7.7636707E-1,-8.012793E-1,-3.6662313E-1,-3.3367172E-1,1.8473196E-1,-3.034373E-1,6.4162076E-2,4.898185E-3,2.6998803E-1,-2.2212987E-1,1.7019913E-1,2.4166366E-1,5.1876974E-1,4.491636E-1,6.765519E-1,5.506004E-2,9.399494E-2,3.2604244E-2,1.1882396E-1,-2.5680184E-2,-1.6790602E-1,-2.1219304E-2,-1.071587E-1,-1.0368984E-1,-1.1137962E-2,-7.6763615E-2,-4.8757773E-2,3.16453E-4,4.9886513E-3,4.6510698E-4,1.8010711E-3,3.3501436E-3,8.2313543E-4,-8.724364E-2,-5.487058E-3,-1.3089573E-1,-7.287196E-2,-4.0741216E-2,-1.7230367E-2,-3.52046E-2,-1.4694929E-3,3.8966727E-2,3.6081315E-3,-3.45661E-2,-3.3552502E-3,-3.90306E-3,1.34402765E-2,-1.7792635E-3,1.8366585E-2,3.4057617E-3,3.261325E-2,-4.40159E-2,-9.972083E-3,-3.4252834E-2,1.8209463E-2,2.7976861E-2,-4.5209527E-3,3.88653E-2,7.063409E-2,-2.4386097E-2,4.5654066E-2,5.6656837E-3,6.845982E-2],"categories":[],"categories_nodes":[],"categories_segments":[],"categories_sizes":[],"default_left":[0,0,0,0,0,0,0,0,0,0,0,0,0,0,0,0,0,0,0,0,0,0,0,0,0,0,0,0,0,0,0,0,0,0,0,0,0,0,0,0,0,0,0,0,0,0,0,0,0,0,0,0,0,0,0,0,0,0,0,0,0,0,0,0,0,0,0,0,0,0,0,0,0,0,0,0,0,0,0,0,0,0,0,0,0,0,0,0,0,0,0,0,0,0,0,0,0,0,0],"id":4,"left_children":[1,3,5,7,9,11,13,15,17,19,21,23,25,27,-1,29,31,33,35,37,39,41,43,45,47,49,51,-1,53,55,57,59,61,63,65,67,69,71,73,75,77,79,81,83,85,87,89,91,93,95,97,-1,-1,-1,-1,-1,-1,-1,-1,-1,-1,-1,-1,-1,-1,-1,-1,-1,-1,-1,-1,-1,-1,-1,-1,-1,-1,-1,-1,-1,-1,-1,-1,-1,-1,-1,-1,-1,-1,-1,-1,-1,-1,-1,-1,-1,-1,-1,-1],"loss_changes":[5.9343427E2,9.8431366E1,1.3113214E2,1.798465E1,2.1361847E1,2.0444336E1,1.0963715E1,1.9507141E1,4.4604206E0,5.735512E0,5.3523636E0,1.0358208E1,3.4233017E0,1.2581787E0,0E0,7.395447E0,2.1528015E0,1.0832008E-3,4.5357113E0,9.006378E0,1.178689E0,4.8322096E0,8.986701E-1,6.2365284E0,3.3259068E0,2.0786743E0,8.6559296E-2,0E0,7.185364E-2,6.9435425E0,1.3055155E0,6.296234E-1,1.796341E-1,1.561014E-3,1.9934494E-5,1.1126571E-3,4.0416336E0,3.2455597E0,6.2729836E-1,5.281763E-1,1.3825913E-1,2.0851803E0,3.3142042E-1,3.602298E-1,1.8758547E-1,1.6108088E0,7.7597356E-1,1.0511203E0,1.8244095E0,7.65728E-1,3.1534958E-1,0E0,0E0,0E0,0E0,0E0,0E0,0E0,0E0,0E0,0E0,0E0,0E0,0E0,0E0,0E0,0E0,0E0,0E0,0E0,0E0,0E0,0E0,0E0,0E0,0E0,0E0,0E0,0E0,0E0,0E0,0E0,0E0,0E0,0E0,0E0,0E0,0E0,0E0,0E0,0E0,0E0,0E0,0E0,0E0,0E0,0E0,0E0,0E0],"parents":[2147483647,0,0,1,1,2,2,3,3,4,4,5,5,6,6,7,7,8,8,9,9,10,10,11,11,12,12,13,13,15,15,16,16,17,17,18,18,19,19,20,20,21,21,22,22,23,23,24,24,25,25,26,26,28,28,29,29,30,30,31,31,32,32,33,33,34,34,35,35,36,36,37,37,38,38,39,39,40,40,41,41,42,42,43,43,44,44,45,45,46,46,47,47,48,48,49,49,50,50],"right_children":[2,4,6,8,10,12,14,16,18,20,22,24,26,28,-1,30,32,34,36,38,40,42,44,46,48,50,52,-1,54,56,58,60,62,64,66,68,70,72,74,76,78,80,82,84,86,88,90,92,94,96,98,-1,-1,-1,-1,-1,-1,-1,-1,-1,-1,-1,-1,-1,-1,-1,-1,-1,-1,-1,-1,-1,-1,-1,-1,-1,-1,-1,-1,-1,-1,-1,-1,-1,-1,-1,-1,-1,-1,-1,-1,-1,-1,-1,-1,-1,-1,-1,-1],"split_conditions":[-3.9810717E-1,-5.873682E-1,6.6432464E-1,-2.17424E-1,-5.0913936E-1,-1.710834E-2,2.4416194E0,-5.902891E-1,2.00001E0,-3.3032715E-1,-3.6410186E-1,-3.9779013E-1,5.7289803E-1,1.2360821E0,1.581214E-1,-2.661965E-1,-5.549979E-1,-5.3989357E-1,-6.5157425E-1,-4.867983E-1,3.501155E-1,5.522848E-1,3.501155E-1,-2.6485664E-1,-2.7810878E-1,3.1451663E-1,-1.22660644E-1,9.444689E-2,2.00001E0,2.00001E0,-6.344861E-1,-6.290409E-2,-5.042948E-1,2.00001E0,-5.1275E-1,-5.6703705E-1,5.7289803E-1,-5.731406E-1,-3.854453E-1,-3.9959088E-1,-5.602512E-1,-6.290409E-2,-4.7702762E-1,-2.242157E-1,-5.0596416E-1,-4.1113392E-1,2.00001E0,-3.498891E-1,1.8354973E0,2.00001E0,2.00001E0,5.506004E-2,9.399494E-2,3.2604244E-2,1.1882396E-1,-2.5680184E-2,-1.6790602E-1,-2.1219304E-2,-1.071587E-1,-1.0368984E-1,-1.1137962E-2,-7.6763615E-2,-4.8757773E-2,3.16453E-4,4.9886513E-3,4.6510698E-4,1.8010711E-3,3.3501436E-3,8.2313543E-4,-8.724364E-2,-5.487058E-3,-1.3089573E-1,-7.287196E-2,-4.0741216E-2,-1.7230367E-2,-3.52046E-2,-1.4694929E-3,3.8966727E-2,3.6081315E-3,-3.45661E-2,-3.3552502E-3,-3.90306E-3,1.34402765E-2,-1.7792635E-3,1.8366585E-2,3.4057617E-3,3.261325E-2,-4.40159E-2,-9.972083E-3,-3.4252834E-2,1.8209463E-2,2.7976861E-2,-4.5209527E-3,3.88653E-2,7.063409E-2,-2.4386097E-2,4.5654066E-2,5.6656837E-3,6.845982E-2],"split_indices":[1,1,6,7,1,6,6,6,25,7,6,8,7,6,0,8,6,0,1,6,2,8,2,6,1,6,1,0,727,25,6,9,6,262,0,0,7,6,6,6,0,9,1,6,0,6,37,0,8,564,629,0,0,0,0,0,0,0,0,0,0,0,0,0,0,0,0,0,0,0,0,0,0,0,0,0,0,0,0,0,0,0,0,0,0,0,0,0,0,0,0,0,0,0,0,0,0,0,0],"split_type":[0,0,0,0,0,0,0,0,0,0,0,0,0,0,0,0,0,0,0,0,0,0,0,0,0,0,0,0,0,0,0,0,0,0,0,0,0,0,0,0,0,0,0,0,0,0,0,0,0,0,0,0,0,0,0,0,0,0,0,0,0,0,0,0,0,0,0,0,0,0,0,0,0,0,0,0,0,0,0,0,0,0,0,0,0,0,0,0,0,0,0,0,0,0,0,0,0,0,0],"sum_hessian":[1.751E3,9.23E2,8.28E2,3.01E2,6.22E2,5.87E2,2.41E2,2.25E2,7.6E1,2.94E2,3.28E2,3.56E2,2.31E2,1.71E2,7E1,9.1E1,1.34E2,1E1,6.6E1,2E2,9.4E1,2.27E2,1.01E2,1.77E2,1.79E2,1.97E2,3.4E1,7.6E1,9.5E1,8.3E1,8E0,7.8E1,5.6E1,5E0,5E0,8E0,5.8E1,1.13E2,8.7E1,9E1,4E0,1.83E2,4.4E1,8.7E1,1.4E1,6.1E1,1.16E2,9.4E1,8.5E1,1.27E2,7E1,6E0,2.8E1,1E0,9.4E1,4E0,7.9E1,6E0,2E0,7.7E1,1E0,4.6E1,1E1,1E0,4E0,1E0,4E0,4E0,4E0,5.1E1,7E0,1.2E1,1.01E2,7.1E1,1.6E1,8.5E1,5E0,1E0,3E0,1.58E2,2.5E1,1.8E1,2.6E1,7.8E1,9E0,3E0,1.1E1,2.1E1,4E1,2E0,1.14E2,8.3E1,1.1E1,5.2E1,3.3E1,1E0,1.26E2,1E0,6.9E1],"tree_param":{"num_deleted":"0","num_feature":"729","num_nodes":"99","size_leaf_vector":"1"}},{"base_weights":[-4.672717E-4,-4.973177E-1,5.533207E-1,-8.419544E-1,-2.4404001E-1,2.9027674E-1,1.0438173E0,-1.0619115E0,-6.531551E-1,-3.4000733E-1,-2.7361551E-2,1.470527E-1,4.3999642E-1,8.600892E-1,1.3264939E0,-1.2413883E0,-5.6041396E-1,-3.0477217E-1,-7.1082044E-1,-4.608967E-1,-1.3343316E-1,-8.8826664E-2,1.15784734E-1,-5.2187808E-2,3.1497148E-1,3.926606E-1,7.831122E-1,6.8520343E-1,9.3072325E-1,1.2161876E-1,1.5874578E-1,-1.4877678E0,-9.91246E-1,2.3960633E-2,-7.10868E-1,-4.174852E-1,-1.0792347E-1,-8.666775E-1,-5.306699E-1,-7.957642E-1,-3.765095E-1,-2.3844878E-1,-1.5257799E-2,-1.4813459E-1,7.148585E-2,6.926598E-2,3.5134997E-2,-3.755966E-1,2.6056496E-2,2.5766924E-1,6.074596E-1,3.1271368E-1,4.9305546E-1,6.281969E-2,9.492876E-2,5.382395E-3,6.958989E-2,2.572806E-2,9.341066E-2,7.659209E-3,-1.5659593E-1,-1.0890909E-1,-7.5245835E-2,3.2243186E-3,7.572937E-4,-9.9839024E-2,-2.3515534E-2,-1.9626755E-2,-5.48608E-2,3.039772E-3,-5.7912666E-2,-8.9668445E-2,-4.2451497E-2,-5.8940556E-2,-3.3034157E-2,-6.609417E-2,-1.03033476E-1,-4.7100943E-2,-2.9395118E-2,-3.0769227E-2,-1.2277966E-2,-1.5329522E-2,4.809098E-3,-1.5698528E-2,1.4611308E-2,3.3720017E-3,2.6867732E-2,4.18254E-3,2.0441389E-2,-5.1639665E-2,1.5633639E-2,-8.049789E-3,8.610142E-3,2.0754168E-2,4.2163774E-2,4.3660913E-2,8.436983E-2,4.0863767E-2,2.460879E-2,-2.31668E-2,5.0252467E-2],"categories":[],"categories_nodes":[],"categories_segments":[],"categories_sizes":[],"default_left":[0,0,0,0,0,0,0,0,0,0,0,0,0,0,0,0,0,0,0,0,0,0,0,0,0,0,0,0,0,0,0,0,0,0,0,0,0,0,0,0,0,0,0,0,0,0,0,0,0,0,0,0,0,0,0,0,0,0,0,0,0,0,0,0,0,0,0,0,0,0,0,0,0,0,0,0,0,0,0,0,0,0,0,0,0,0,0,0,0,0,0,0,0,0,0,0,0,0,0,0,0],"id":5,"left_children":[1,3,5,7,9,11,13,15,17,19,21,23,25,27,29,31,33,35,37,39,41,43,45,47,49,51,53,55,57,-1,-1,59,61,63,65,67,69,71,73,75,77,79,81,83,85,87,-1,89,91,93,95,97,99,-1,-1,-1,-1,-1,-1,-1,-1,-1,-1,-1,-1,-1,-1,-1,-1,-1,-1,-1,-1,-1,-1,-1,-1,-1,-1,-1,-1,-1,-1,-1,-1,-1,-1,-1,-1,-1,-1,-1,-1,-1,-1,-1,-1,-1,-1,-1,-1],"loss_changes":[4.8233762E2,8.044939E1,1.0665636E2,1.5543732E1,1.1094723E1,1.1536205E1,1.38685E1,1.5415604E1,4.0624466E0,9.178368E0,1.4620376E0,9.317268E0,3.9803085E0,1.5610809E0,1.2933807E0,6.59877E0,4.3251867E0,6.649411E-1,4.650223E0,6.28463E0,1.7089772E0,1.1134946E0,5.2357346E-1,3.2488134E0,2.3742704E0,1.7239609E0,2.016964E-1,3.3395576E-1,4.220581E-2,0E0,0E0,7.9483795E0,7.6927185E-1,1.2488761E-3,5.0995617E0,4.7245932E-1,8.649102E-1,8.9307404E-1,8.2897186E-1,7.73777E-1,1.3282738E0,5.4690266E-1,5.845092E-1,2.4430299E-1,2.2924739E-1,1.509174E-1,0E0,1.9531364E0,6.7232805E-1,9.645672E-1,6.003103E-1,7.49444E-1,8.163986E-1,0E0,0E0,0E0,0E0,0E0,0E0,0E0,0E0,0E0,0E0,0E0,0E0,0E0,0E0,0E0,0E0,0E0,0E0,0E0,0E0,0E0,0E0,0E0,0E0,0E0,0E0,0E0,0E0,0E0,0E0,0E0,0E0,0E0,0E0,0E0,0E0,0E0,0E0,0E0,0E0,0E0,0E0,0E0,0E0,0E0,0E0,0E0,0E0],"parents":[2147483647,0,0,1,1,2,2,3,3,4,4,5,5,6,6,7,7,8,8,9,9,10,10,11,11,12,12,13,13,14,14,15,15,16,16,17,17,18,18,19,19,20,20,21,21,22,22,23,23,24,24,25,25,26,26,27,27,28,28,31,31,32,32,33,33,34,34,35,35,36,36,37,37,38,38,39,39,40,40,41,41,42,42,43,43,44,44,45,45,47,47,48,48,49,49,50,50,51,51,52,52],"right_children":[2,4,6,8,10,12,14,16,18,20,22,24,26,28,30,32,34,36,38,40,42,44,46,48,50,52,54,56,58,-1,-1,60,62,64,66,68,70,72,74,76,78,80,82,84,86,88,-1,90,92,94,96,98,100,-1,-1,-1,-1,-1,-1,-1,-1,-1,-1,-1,-1,-1,-1,-1,-1,-1,-1,-1,-1,-1,-1,-1,-1,-1,-1,-1,-1,-1,-1,-1,-1,-1,-1,-1,-1,-1,-1,-1,-1,-1,-1,-1,-1,-1,-1,-1,-1],"split_conditions":[-3.9810717E-1,-5.6060845E-1,4.091515E-1,-6.150576E-1,-3.968652E-1,-1.3108487E-1,1.8099117E0,-2.17424E-1,-5.5145514E-1,-3.6747313E-1,-3.9584923E-1,-3.987606E-1,5.878034E-1,7.137404E-1,3.6184585E0,-6.054079E-1,-6.5157425E-1,-5.2632177E-1,-5.443195E-1,-5.166913E-1,6.1672294E-1,-3.0394247E-1,3.8505608E-1,-3.854453E-1,-1.9724217E-1,9.4794735E-2,2.3515074E0,2.00001E0,2.00001E0,1.2161876E-1,1.5874578E-1,2.00001E0,-5.6791836E-1,-5.6703705E-1,8.382301E-3,-5.602512E-1,-5.746312E-1,-6.290409E-2,-4.7721156E-1,-4.448913E-1,-4.548035E-1,1.17958084E-1,-5.1657647E-1,4.7968242E-1,-1.9694068E-1,3.501155E-1,3.5134997E-2,-1.05954185E-2,-2.6485664E-1,6.605446E-1,4.632755E0,-2.9476216E-1,2.00001E0,6.281969E-2,9.492876E-2,5.382395E-3,6.958989E-2,2.572806E-2,9.341066E-2,7.659209E-3,-1.5659593E-1,-1.0890909E-1,-7.5245835E-2,3.2243186E-3,7.572937E-4,-9.9839024E-2,-2.3515534E-2,-1.9626755E-2,-5.48608E-2,3.039772E-3,-5.7912666E-2,-8.9668445E-2,-4.2451497E-2,-5.8940556E-2,-3.3034157E-2,-6.609417E-2,-1.03033476E-1,-4.7100943E-2,-2.9395118E-2,-3.0769227E-2,-1.2277966E-2,-1.5329522E-2,4.809098E-3,-1.5698528E-2,1.4611308E-2,3.3720017E-3,2.6867732E-2,4.18254E-3,2.0441389E-2,-5.1639665E-2,1.5633639E-2,-8.049789E-3,8.610142E-3,2.0754168E-2,4.2163774E-2,4.3660913E-2,8.436983E-2,4.0863767E-2,2.460879E-2,-2.31668E-2,5.0252467E-2],"split_indices":[1,1,6,1,6,6,6,7,3,8,8,8,8,6,6,6,1,0,6,6,8,6,8,6,1,6,8,629,37,0,0,25,6,0,7,0,1,9,6,0,6,9,1,9,6,2,0,0,6,9,8,3,564,0,0,0,0,0,0,0,0,0,0,0,0,0,0,0,0,0,0,0,0,0,0,0,0,0,0,0,0,0,0,0,0,0,0,0,0,0,0,0,0,0,0,0,0,0,0,0,0],"split_type":[0,0,0,0,0,0,0,0,0,0,0,0,0,0,0,0,0,0,0,0,0,0,0,0,0,0,0,0,0,0,0,0,0,0,0,0,0,0,0,0,0,0,0,0,0,0,0,0,0,0,0,0,0,0,0,0,0,0,0,0,0,0,0,0,0,0,0,0,0,0,0,0,0,0,0,0,0,0,0,0,0,0,0,0,0,0,0,0,0,0,0,0,0,0,0,0,0,0,0,0,0],"sum_hessian":[1.751E3,9.23E2,8.28E2,3.9E2,5.33E2,5.4E2,2.88E2,1.78E2,2.12E2,3.69E2,1.64E2,2.77E2,2.63E2,1.77E2,1.11E2,1.3E2,4.8E1,3.1E1,1.81E2,2.32E2,1.37E2,1.15E2,4.9E1,1.27E2,1.5E2,2.33E2,3E1,5.4E1,1.23E2,8.2E1,2.9E1,6.3E1,6.7E1,1E1,3.8E1,1.9E1,1.2E1,9.5E1,8.6E1,4.5E1,1.87E2,7.2E1,6.5E1,8.4E1,3.1E1,4.2E1,7E0,2.4E1,1.03E2,1.27E2,2.3E1,1.32E2,1.01E2,1.8E1,1.2E1,1E0,5.3E1,1E0,1.22E2,3E0,6E1,4.5E1,2.2E1,6E0,4E0,2.3E1,1.5E1,8E0,1.1E1,1E1,2E0,8.8E1,7E0,6.5E1,2.1E1,3.1E1,1.4E1,8.5E1,1.02E2,4.4E1,2.8E1,2E1,4.5E1,8.2E1,2E0,2.7E1,4E0,3.6E1,6E0,1.9E1,5E0,3.7E1,6.6E1,9.9E1,2.8E1,1.5E1,8E0,5.2E1,8E1,1E0,1E2],"tree_param":{"num_deleted":"0","num_feature":"729","num_nodes":"101","size_leaf_vector":"1"}},{"base_weights":[-4.98108E-4,-4.4868568E-1,4.9905053E-1,-7.5982016E-1,-2.2002976E-1,2.6199913E-1,9.4107735E-1,-1.081237E0,-6.515583E-1,-3.3199918E-1,-6.7137174E-2,1.4623667E-1,4.1439658E-1,7.833378E-1,1.2100368E0,-5.2874804E-1,-1.3578525E0,-6.9296175E-1,-2.4789284E-1,-2.9798514E-1,-7.826682E-1,-3.1357378E-2,-3.4253648E-1,1.1257997E-2,3.201258E-1,3.7162665E-1,7.269515E-1,6.6845274E-1,8.806721E-2,1.1057073E-1,1.4340036E-1,-1.3777785E-1,-2.5760013E-1,-1.7464568E-1,-1.1274537E-1,-8.0549866E-1,-4.8411483E-1,-3.697214E-1,-9.095355E-2,-1.11822106E-1,-3.385303E-1,-1.09897904E-1,-4.538535E-1,-6.837827E-2,1.5358053E-1,-3.9589635E-1,-3.9245702E-2,-3.3947006E-1,6.9251E-2,2.7374932E-1,6.7288744E-1,2.9846352E-1,4.440155E-1,5.704042E-1,9.028017E-2,5.113268E-3,6.748867E-2,-1.2893135E-3,-1.661442E-1,-8.64444E-2,-5.8231484E-2,-5.191193E-2,-1.3116424E-2,1.3444901E-3,-4.5917865E-2,2.9017052E-3,-5.4051813E-2,3.2801043E-2,-1.3550201E-2,-4.217035E-2,-1.5436246E-2,-4.968869E-2,-1.5912438E-2,-1.0387085E-2,9.953307E-3,1.0923006E-2,3.4234438E-2,-1.923019E-2,-4.3045614E-2,-1.01374E-2,3.596449E-3,-4.673301E-2,1.4330841E-2,3.6448054E-3,3.0960342E-2,1.7388072E-2,3.5997793E-2,5.1969666E-2,9.64238E-2,-2.3119498E-2,3.0570975E-2,-2.2008467E-2,4.527698E-2,6.315372E-2,3.5307076E-2],"categories":[],"categories_nodes":[],"categories_segments":[],"categories_sizes":[],"default_left":[0,0,0,0,0,0,0,0,0,0,0,0,0,0,0,0,0,0,0,0,0,0,0,0,0,0,0,0,0,0,0,0,0,0,0,0,0,0,0,0,0,0,0,0,0,0,0,0,0,0,0,0,0,0,0,0,0,0,0,0,0,0,0,0,0,0,0,0,0,0,0,0,0,0,0,0,0,0,0,0,0,0,0,0,0,0,0,0,0,0,0,0,0,0,0],"id":6,"left_children":[1,3,5,7,9,11,13,15,17,19,21,23,25,27,29,31,33,35,37,39,41,43,45,47,49,51,53,55,-1,-1,-1,-1,57,-1,-1,59,61,63,65,67,69,-1,71,73,75,77,79,81,83,85,87,89,91,93,-1,-1,-1,-1,-1,-1,-1,-1,-1,-1,-1,-1,-1,-1,-1,-1,-1,-1,-1,-1,-1,-1,-1,-1,-1,-1,-1,-1,-1,-1,-1,-1,-1,-1,-1,-1,-1,-1,-1,-1,-1],"loss_changes":[3.924818E2,6.556871E1,8.661862E1,1.2901215E1,9.119415E0,9.483669E0,1.131311E1,1.4106247E1,4.7586136E0,4.4881287E0,2.226056E0,7.249034E0,2.8445778E0,1.4800339E0,8.6787415E-1,7.4723206E0,3.7611313E0,5.8853455E0,5.208435E-1,2.135971E0,1.6853848E0,1.3935081E0,4.0523553E-1,3.5829692E0,2.024376E0,9.637909E-1,2.2831821E-1,3.1898117E-1,0E0,0E0,0E0,0E0,9.253887E0,0E0,0E0,1.7593842E0,1.1179771E0,5.546057E-1,7.7076775E-1,5.964513E-1,3.5499134E0,0E0,7.313156E-2,1.0175123E0,2.4724567E-1,7.201815E-2,2.7009267E-2,1.6101742E0,1.17924E0,9.7940254E-1,1.683712E-1,4.775095E-1,6.92646E-1,2.8886795E-3,0E0,0E0,0E0,0E0,0E0,0E0,0E0,0E0,0E0,0E0,0E0,0E0,0E0,0E0,0E0,0E0,0E0,0E0,0E0,0E0,0E0,0E0,0E0,0E0,0E0,0E0,0E0,0E0,0E0,0E0,0E0,0E0,0E0,0E0,0E0,0E0,0E0,0E0,0E0,0E0,0E0],"parents":[2147483647,0,0,1,1,2,2,3,3,4,4,5,5,6,6,7,7,8,8,9,9,10,10,11,11,12,12,13,13,14,14,15,15,16,16,17,17,18,18,19,19,20,20,21,21,22,22,23,23,24,24,25,25,26,26,27,27,32,32,35,35,36,36,37,37,38,38,39,39,40,40,42,42,43,43,44,44,45,45,46,46,47,47,48,48,49,49,50,50,51,51,52,52,53,53],"right_children":[2,4,6,8,10,12,14,16,18,20,22,24,26,28,30,32,34,36,38,40,42,44,46,48,50,52,54,56,-1,-1,-1,-1,58,-1,-1,60,62,64,66,68,70,-1,72,74,76,78,80,82,84,86,88,90,92,94,-1,-1,-1,-1,-1,-1,-1,-1,-1,-1,-1,-1,-1,-1,-1,-1,-1,-1,-1,-1,-1,-1,-1,-1,-1,-1,-1,-1,-1,-1,-1,-1,-1,-1,-1,-1,-1,-1,-1,-1,-1],"split_conditions":[-3.9810717E-1,-5.6060845E-1,4.091515E-1,-6.3339496E-1,-4.861572E-1,-9.5363684E-2,1.9089136E0,-6.2880456E-1,1.2573123E-1,-4.1635358E-1,-3.8933328E-1,-1.2024015E-1,5.878034E-1,9.4678915E-1,3.6184585E0,2.00001E0,-6.221303E-1,-5.443195E-1,-5.3989357E-1,-5.5195737E-1,-5.4001987E-1,3.9670005E-2,-4.0072754E-1,-4.0922868E-1,-1.22660644E-1,9.4794735E-2,2.3515074E0,2.00001E0,8.806721E-2,1.1057073E-1,1.4340036E-1,-1.3777785E-1,-6.344861E-1,-1.7464568E-1,-1.1274537E-1,-2.5066924E-1,-4.4978034E-1,-1.0452085E-1,-5.746312E-1,2.00001E0,-4.2854974E-1,-1.09897904E-1,-4.4145992E-1,2.7221164E-1,1.048618E0,2.00001E0,-3.973902E-1,-1.05954185E-2,1.17958084E-1,-3.0811098E-1,4.863218E0,2.00001E0,2.00001E0,1.9277358E0,9.028017E-2,5.113268E-3,6.748867E-2,-1.2893135E-3,-1.661442E-1,-8.64444E-2,-5.8231484E-2,-5.191193E-2,-1.3116424E-2,1.3444901E-3,-4.5917865E-2,2.9017052E-3,-5.4051813E-2,3.2801043E-2,-1.3550201E-2,-4.217035E-2,-1.5436246E-2,-4.968869E-2,-1.5912438E-2,-1.0387085E-2,9.953307E-3,1.0923006E-2,3.4234438E-2,-1.923019E-2,-4.3045614E-2,-1.01374E-2,3.596449E-3,-4.673301E-2,1.4330841E-2,3.6448054E-3,3.0960342E-2,1.7388072E-2,3.5997793E-2,5.1969666E-2,9.64238E-2,-2.3119498E-2,3.0570975E-2,-2.2008467E-2,4.527698E-2,6.315372E-2,3.5307076E-2],"split_indices":[1,1,6,1,1,6,6,4,8,3,3,8,8,6,6,12,6,6,0,4,6,2,1,6,1,6,8,629,0,0,0,0,6,0,0,8,6,7,1,20,6,0,6,8,2,31,0,0,9,1,7,492,564,7,0,0,0,0,0,0,0,0,0,0,0,0,0,0,0,0,0,0,0,0,0,0,0,0,0,0,0,0,0,0,0,0,0,0,0,0,0,0,0,0,0],"split_type":[0,0,0,0,0,0,0,0,0,0,0,0,0,0,0,0,0,0,0,0,0,0,0,0,0,0,0,0,0,0,0,0,0,0,0,0,0,0,0,0,0,0,0,0,0,0,0,0,0,0,0,0,0,0,0,0,0,0,0,0,0,0,0,0,0,0,0,0,0,0,0,0,0,0,0,0,0,0,0,0,0,0,0,0,0,0,0,0,0,0,0,0,0,0,0],"sum_hessian":[1.751E3,9.23E2,8.28E2,3.9E2,5.33E2,5.4E2,2.88E2,9.6E1,2.94E2,3.07E2,2.26E2,3.08E2,2.32E2,1.84E2,1.04E2,3.3E1,6.3E1,2.66E2,2.8E1,2.87E2,2E1,2.01E2,2.5E1,1.74E2,1.34E2,2.06E2,2.6E1,8.8E1,9.6E1,7.5E1,2.9E1,7E0,2.6E1,2.1E1,4.2E1,1.71E2,9.5E1,1.5E1,1.3E1,5.2E1,2.35E2,9E0,1.1E1,1.68E2,3.3E1,2.1E1,4E0,2.4E1,1.5E2,1.2E2,1.4E1,1.05E2,1.01E2,1.6E1,1E1,1E0,8.7E1,2.3E1,3E0,1.33E2,3.8E1,8.6E1,9E0,3E0,1.2E1,1.1E1,2E0,2E0,5E1,1.61E2,7.4E1,9E0,2E0,1.39E2,2.9E1,2.8E1,5E0,4E0,1.7E1,2E0,2E0,1.9E1,5E0,1.33E2,1.7E1,5.7E1,6.3E1,1.1E1,3E0,1E0,1.04E2,1E0,1E2,1.1E1,5E0],"tree_param":{"num_deleted":"0","num_feature":"729","num_nodes":"95","size_leaf_vector":"1"}},{"base_weights":[-6.18348E-4,-4.2486292E-1,4.2996624E-1,-7.508916E-1,-2.5495654E-1,2.2144634E-1,8.4840435E-1,-8.328578E-1,-3.3115888E-1,-3.8414928E-1,-1.21738434E-1,1.0492078E-1,3.5852733E-1,6.669633E-1,1.0394058E0,-1.0141664E0,-6.1498743E-1,-1.5347505E-1,-6.2233824E-1,-4.572846E-1,-2.2536671E-1,-1.6622998E-1,5.37665E-2,-5.554066E-2,2.4841955E-1,3.1928346E-1,6.469878E-1,5.529185E-1,7.247519E-1,9.104648E-1,1.2089268E-1,-2.3217899E-1,-1.0548E0,-6.572749E-1,-4.1358307E-1,-6.63595E-2,-8.034322E-2,-6.606663E-1,-1.9769995E-2,-7.53281E-1,-3.5690892E-1,4.9941476E-2,-2.5834346E-1,-2.1186006E-1,-2.4021817E-2,3.2397985E-2,3.3505432E-2,-2.5787154E-1,4.5173053E-2,2.0070358E-1,4.994676E-1,2.565169E-1,3.9984193E-1,5.181998E-2,7.8544813E-1,4.857612E-3,5.6135863E-2,2.1067215E-2,7.279124E-2,2.1900153E-2,9.162265E-2,5.916405E-3,-7.374721E-2,3.2122314E-2,-1.0680597E-1,-6.678923E-2,-2.4875665E-2,-4.3504003E-2,-1.2552326E-2,-6.282734E-2,3.8072976E-4,-1.9091332E-2,-6.780938E-2,-1.2580617E-1,-6.8203785E-2,-4.5918535E-2,-2.5132556E-2,-3.3157428E-3,2.8259102E-2,-3.7836187E-2,-2.104265E-2,-2.5694389E-2,-3.7711413E-4,-5.473851E-3,9.572732E-3,-2.3858787E-3,1.1684795E-2,-3.064773E-2,8.448928E-3,-6.136374E-4,1.1739668E-2,1.5138072E-2,3.3658247E-2,5.3277075E-2,-1.6655518E-2,3.3769187E-2,1.9722907E-2,-2.0908047E-2,4.07941E-2,2.1676516E-2,8.1477456E-2],"categories":[],"categories_nodes":[],"categories_segments":[],"categories_sizes":[],"default_left":[0,0,0,0,0,0,0,0,0,0,0,0,0,0,0,0,0,0,0,0,0,0,0,0,0,0,0,0,0,0,0,0,0,0,0,0,0,0,0,0,0,0,0,0,0,0,0,0,0,0,0,0,0,0,0,0,0,0,0,0,0,0,0,0,0,0,0,0,0,0,0,0,0,0,0,0,0,0,0,0,0,0,0,0,0,0,0,0,0,0,0,0,0,0,0,0,0,0,0,0,0],"id":7,"left_children":[1,3,5,7,9,11,13,15,17,19,21,23,25,27,29,31,33,35,37,39,41,43,45,47,49,51,53,55,57,59,-1,61,63,65,67,-1,69,71,-1,73,75,77,79,81,83,-1,85,87,89,91,93,95,97,-1,99,-1,-1,-1,-1,-1,-1,-1,-1,-1,-1,-1,-1,-1,-1,-1,-1,-1,-1,-1,-1,-1,-1,-1,-1,-1,-1,-1,-1,-1,-1,-1,-1,-1,-1,-1,-1,-1,-1,-1,-1,-1,-1,-1,-1,-1,-1],"loss_changes":[3.2022607E2,4.872177E1,7.5721954E1,1.0114166E1,9.969925E0,9.2589245E0,9.322189E0,9.3307495E0,2.543119E0,3.3226662E0,2.257781E0,7.29002E0,2.8159485E0,5.944443E-1,1.9375916E0,4.0765076E0,7.246399E-1,1.1777828E0,1.7862129E-1,5.703022E0,8.753848E-1,1.4873738E0,3.1215882E-1,3.068273E0,1.9002476E0,1.0957966E0,1.4577389E-1,2.0685005E-1,4.245758E-3,1.3002777E-1,0E0,1.2213408E0,2.6967773E0,2.4591064E-1,8.7552786E-2,0E0,1.3856502E0,9.715557E-3,0E0,9.400635E-1,1.5259972E0,2.2203213E-1,4.092102E-1,1.6314015E0,2.1490294E-1,0E0,2.7051702E-1,8.5792994E-1,3.750015E-1,9.00722E-1,6.6543293E-1,5.8792305E-1,5.883236E-1,0E0,4.019165E-2,0E0,0E0,0E0,0E0,0E0,0E0,0E0,0E0,0E0,0E0,0E0,0E0,0E0,0E0,0E0,0E0,0E0,0E0,0E0,0E0,0E0,0E0,0E0,0E0,0E0,0E0,0E0,0E0,0E0,0E0,0E0,0E0,0E0,0E0,0E0,0E0,0E0,0E0,0E0,0E0,0E0,0E0,0E0,0E0,0E0,0E0],"parents":[2147483647,0,0,1,1,2,2,3,3,4,4,5,5,6,6,7,7,8,8,9,9,10,10,11,11,12,12,13,13,14,14,15,15,16,16,17,17,18,18,19,19,20,20,21,21,22,22,23,23,24,24,25,25,26,26,27,27,28,28,29,29,31,31,32,32,33,33,34,34,36,36,37,37,39,39,40,40,41,41,42,42,43,43,44,44,46,46,47,47,48,48,49,49,50,50,51,51,52,52,54,54],"right_children":[2,4,6,8,10,12,14,16,18,20,22,24,26,28,30,32,34,36,38,40,42,44,46,48,50,52,54,56,58,60,-1,62,64,66,68,-1,70,72,-1,74,76,78,80,82,84,-1,86,88,90,92,94,96,98,-1,100,-1,-1,-1,-1,-1,-1,-1,-1,-1,-1,-1,-1,-1,-1,-1,-1,-1,-1,-1,-1,-1,-1,-1,-1,-1,-1,-1,-1,-1,-1,-1,-1,-1,-1,-1,-1,-1,-1,-1,-1,-1,-1,-1,-1,-1,-1],"split_conditions":[-4.164967E-1,-5.873682E-1,4.091515E-1,-1.0452085E-1,-5.0913936E-1,-1.3108487E-1,1.5215135E0,-5.793275E-1,-6.2729204E-1,-3.3032715E-1,-6.290409E-2,-3.987606E-1,5.878034E-1,7.137404E-1,2.740972E0,2.00001E0,-5.271569E-1,2.00001E0,-1.9316413E-1,-5.293479E-1,-5.534653E-1,-3.6410186E-1,2.00001E0,-3.2876384E-1,3.2820761E0,9.4794735E-2,2.3515074E0,2.00001E0,2.00001E0,2.00001E0,1.2089268E-1,-6.582468E-1,2.00001E0,-6.290409E-2,-5.3310764E-1,-6.63595E-2,2.00001E0,2.00001E0,-1.9769995E-2,-6.021527E-1,-4.7988063E-1,-5.47967E-1,-5.6208545E-1,2.3475209E-1,-2.7730724E-1,3.2397985E-2,1.17281385E-1,-1.05954185E-2,-2.1475342E-1,3.9670005E-2,6.669668E0,-2.9476216E-1,2.00001E0,5.181998E-2,-1.24792844E-1,4.857612E-3,5.6135863E-2,2.1067215E-2,7.279124E-2,2.1900153E-2,9.162265E-2,5.916405E-3,-7.374721E-2,3.2122314E-2,-1.0680597E-1,-6.678923E-2,-2.4875665E-2,-4.3504003E-2,-1.2552326E-2,-6.282734E-2,3.8072976E-4,-1.9091332E-2,-6.780938E-2,-1.2580617E-1,-6.8203785E-2,-4.5918535E-2,-2.5132556E-2,-3.3157428E-3,2.8259102E-2,-3.7836187E-2,-2.104265E-2,-2.5694389E-2,-3.7711413E-4,-5.473851E-3,9.572732E-3,-2.3858787E-3,1.1684795E-2,-3.064773E-2,8.448928E-3,-6.136374E-4,1.1739668E-2,1.5138072E-2,3.3658247E-2,5.3277075E-2,-1.6655518E-2,3.3769187E-2,1.9722907E-2,-2.0908047E-2,4.07941E-2,2.1676516E-2,8.1477456E-2],"split_indices":[1,1,6,7,1,6,6,6,6,7,9,8,8,6,6,25,6,35,2,6,0,6,20,6,8,6,8,629,37,727,0,1,11,9,0,0,30,515,0,6,6,1,1,8,6,0,2,0,6,2,7,3,564,0,6,0,0,0,0,0,0,0,0,0,0,0,0,0,0,0,0,0,0,0,0,0,0,0,0,0,0,0,0,0,0,0,0,0,0,0,0,0,0,0,0,0,0,0,0,0,0],"split_type":[0,0,0,0,0,0,0,0,0,0,0,0,0,0,0,0,0,0,0,0,0,0,0,0,0,0,0,0,0,0,0,0,0,0,0,0,0,0,0,0,0,0,0,0,0,0,0,0,0,0,0,0,0,0,0,0,0,0,0,0,0,0,0,0,0,0,0,0,0,0,0,0,0,0,0,0,0,0,0,0,0,0,0,0,0,0,0,0,0,0,0,0,0,0,0,0,0,0,0,0,0],"sum_hessian":[1.751E3,8.82E2,8.69E2,3.01E2,5.81E2,5.81E2,2.88E2,2.51E2,5E1,2.94E2,2.87E2,3.15E2,2.66E2,1.5E2,1.38E2,1.35E2,1.16E2,3.2E1,1.8E1,2E2,9.4E1,2.29E2,5.8E1,1.49E2,1.66E2,2.36E2,3E1,5.4E1,9.6E1,8.2E1,5.6E1,7E0,1.28E2,9.4E1,2.2E1,3E0,2.9E1,1.6E1,2E0,4.9E1,1.51E2,1E1,8.4E1,1.73E2,5.6E1,3E0,5.5E1,4.9E1,1E2,1.41E2,2.5E1,1.35E2,1.01E2,1.8E1,1.2E1,1E0,5.3E1,1E0,9.5E1,1E0,8.1E1,5E0,2E0,1E0,1.27E2,9.1E1,3E0,2E1,2E0,3E0,2.6E1,1E0,1.5E1,4E0,4.5E1,7.5E1,7.6E1,8E0,2E0,2.2E1,6.2E1,1.42E2,3.1E1,4.5E1,1.1E1,3.3E1,2.2E1,4.3E1,6E0,5.9E1,4.1E1,1.05E2,3.6E1,2.4E1,1E0,5.5E1,8E1,1E0,1E2,1E0,1.1E1],"tree_param":{"num_deleted":"0","num_feature":"729","num_nodes":"101","size_leaf_vector":"1"}},{"base_weights":[-6.209931E-4,-3.832883E-1,3.8776502E-1,-6.7754316E-1,-2.2994074E-1,1.7587101E-1,7.223752E-1,-7.750086E-1,-3.8267657E-1,-3.1733504E-1,-6.644867E-2,8.156247E-2,2.9735306E-1,5.619171E-1,9.284408E-1,-1.0572121E0,-6.038191E-1,6.0723044E-2,-4.4976193E-1,-4.073817E-1,-1.1471163E-1,-1.0437525E-1,6.246299E-2,-2.2773317E-1,1.468069E-1,2.0799902E-1,4.756807E-1,4.836083E-1,6.4529374E-2,8.1570566E-1,1.09015524E-1,-1.1397315E0,-2.429141E-1,-7.028704E-1,-4.9347305E-1,8.992604E-2,7.694244E-4,-6.020577E-1,-1.1088154E-1,-6.724275E-1,-3.3040592E-1,-2.02534E-1,-2.036893E-2,-1.4262752E-1,2.4574809E-2,1.744506E-2,1.7886026E-1,-2.683104E-1,7.724721E-2,3.8683075E-2,2.1060836E-1,1.5135004E-1,3.5950574E-1,4.317461E-1,9.236159E-2,4.4072706E-1,6.4999247E-1,2.0805145E-2,8.201956E-2,-1.8454948E-2,-1.190234E-1,1.3952203E-2,-5.767674E-2,-7.118291E-2,-2.8924942E-3,-5.1732637E-2,-3.1633455E-2,1.8630981E-3,1.1471787E-2,2.6649E-3,-6.4654075E-2,1.5867352E-3,-3.8475305E-2,-9.270244E-2,-5.7035066E-2,-4.1763354E-2,-2.6639972E-2,-2.386441E-2,-1.6702218E-3,2.4606705E-2,-3.937575E-3,-1.8068328E-2,-9.751974E-3,1.166704E-3,2.4462724E-2,-3.2947857E-3,8.683215E-3,7.6568127E-4,2.2945562E-2,-7.970594E-3,-3.725294E-2,-1.8670177E-3,2.1136045E-2,1.1451021E-3,1.8134184E-2,-2.2949671E-2,2.149007E-2,1.7592182E-2,-7.626561E-3,2.506972E-2,4.384912E-2,3.9081555E-2,5.87445E-2,4.6147346E-3,4.4487506E-2,1.8882608E-2,6.651225E-2],"categories":[],"categories_nodes":[],"categories_segments":[],"categories_sizes":[],"default_left":[0,0,0,0,0,0,0,0,0,0,0,0,0,0,0,0,0,0,0,0,0,0,0,0,0,0,0,0,0,0,0,0,0,0,0,0,0,0,0,0,0,0,0,0,0,0,0,0,0,0,0,0,0,0,0,0,0,0,0,0,0,0,0,0,0,0,0,0,0,0,0,0,0,0,0,0,0,0,0,0,0,0,0,0,0,0,0,0,0,0,0,0,0,0,0,0,0,0,0,0,0,0,0,0,0,0,0],"id":8,"left_children":[1,3,5,7,9,11,13,15,17,19,21,23,25,27,29,31,33,35,37,39,41,43,45,47,49,51,53,55,-1,57,-1,59,61,63,65,67,-1,69,71,73,75,77,79,81,83,85,87,89,91,93,95,97,99,101,-1,103,105,-1,-1,-1,-1,-1,-1,-1,-1,-1,-1,-1,-1,-1,-1,-1,-1,-1,-1,-1,-1,-1,-1,-1,-1,-1,-1,-1,-1,-1,-1,-1,-1,-1,-1,-1,-1,-1,-1,-1,-1,-1,-1,-1,-1,-1,-1,-1,-1,-1,-1],"loss_changes":[2.6053546E2,3.968805E1,6.1557602E1,8.38269E0,8.294685E0,6.0936737E0,1.0621155E1,1.027977E1,2.3177233E0,6.8683395E0,1.0039121E0,6.127737E0,3.6137524E0,9.415245E-1,1.7724609E0,5.3675537E0,1.2161331E0,1.6342685E-2,3.3911161E0,5.1231766E0,9.7355187E-1,7.828609E-1,2.431581E-1,6.7661476E-1,1.7164683E0,1.2930727E0,1.116581E0,4.4841003E-1,0E0,7.490921E-2,0E0,3.446518E0,1.2295699E0,4.2015457E-1,1.3635063E-1,1.0235433E-2,0E0,1.3036995E0,7.69789E-1,9.7860146E-1,1.0332794E0,4.0534878E-1,3.034069E-1,1.9180632E-1,1.02240205E-1,1.2524255E-1,1.10850364E-1,8.941467E-1,9.399268E-2,3.6310327E-1,3.4590292E-1,6.621957E-1,2.510314E-1,2.2926235E-1,0E0,1.1859131E-1,6.9799423E-3,0E0,0E0,0E0,0E0,0E0,0E0,0E0,0E0,0E0,0E0,0E0,0E0,0E0,0E0,0E0,0E0,0E0,0E0,0E0,0E0,0E0,0E0,0E0,0E0,0E0,0E0,0E0,0E0,0E0,0E0,0E0,0E0,0E0,0E0,0E0,0E0,0E0,0E0,0E0,0E0,0E0,0E0,0E0,0E0,0E0,0E0,0E0,0E0,0E0,0E0],"parents":[2147483647,0,0,1,1,2,2,3,3,4,4,5,5,6,6,7,7,8,8,9,9,10,10,11,11,12,12,13,13,14,14,15,15,16,16,17,17,18,18,19,19,20,20,21,21,22,22,23,23,24,24,25,25,26,26,27,27,29,29,31,31,32,32,33,33,34,34,35,35,37,37,38,38,39,39,40,40,41,41,42,42,43,43,44,44,45,45,46,46,47,47,48,48,49,49,50,50,51,51,52,52,53,53,55,55,56,56],"right_children":[2,4,6,8,10,12,14,16,18,20,22,24,26,28,30,32,34,36,38,40,42,44,46,48,50,52,54,56,-1,58,-1,60,62,64,66,68,-1,70,72,74,76,78,80,82,84,86,88,90,92,94,96,98,100,102,-1,104,106,-1,-1,-1,-1,-1,-1,-1,-1,-1,-1,-1,-1,-1,-1,-1,-1,-1,-1,-1,-1,-1,-1,-1,-1,-1,-1,-1,-1,-1,-1,-1,-1,-1,-1,-1,-1,-1,-1,-1,-1,-1,-1,-1,-1,-1,-1,-1,-1,-1,-1],"split_conditions":[-4.164967E-1,-5.873682E-1,2.567195E-1,-2.17424E-1,-4.2854974E-1,-2.17424E-1,1.4331362E0,-5.9648114E-1,-6.5157425E-1,-1.1041915E-1,-6.290409E-2,-3.265874E-1,-1.9039063E-1,7.137404E-1,2.740972E0,-2.661965E-1,-5.6311023E-1,-5.6703705E-1,2.341886E-1,-5.293479E-1,6.9105977E-1,-3.2272756E-1,1.8465723E-1,-1.05954185E-2,-1.598133E-1,6.605446E-1,1.8247317E0,5.7289803E-1,6.4529374E-2,2.00001E0,1.09015524E-1,2.00001E0,-6.459095E-1,-6.290409E-2,-5.042948E-1,2.00001E0,7.694244E-4,2.00001E0,-6.2880456E-1,-5.731406E-1,-4.867983E-1,-4.7988063E-1,2.00001E0,-3.7984285E-1,3.501155E-1,4.7968242E-1,2.00001E0,-4.1774783E-1,6.171236E-2,-3.794137E-2,2.00001E0,-2.7524447E-1,-3.240626E-1,7.262478E-2,9.236159E-2,2.00001E0,2.00001E0,2.0805145E-2,8.201956E-2,-1.8454948E-2,-1.190234E-1,1.3952203E-2,-5.767674E-2,-7.118291E-2,-2.8924942E-3,-5.1732637E-2,-3.1633455E-2,1.8630981E-3,1.1471787E-2,2.6649E-3,-6.4654075E-2,1.5867352E-3,-3.8475305E-2,-9.270244E-2,-5.7035066E-2,-4.1763354E-2,-2.6639972E-2,-2.386441E-2,-1.6702218E-3,2.4606705E-2,-3.937575E-3,-1.8068328E-2,-9.751974E-3,1.166704E-3,2.4462724E-2,-3.2947857E-3,8.683215E-3,7.6568127E-4,2.2945562E-2,-7.970594E-3,-3.725294E-2,-1.8670177E-3,2.1136045E-2,1.1451021E-3,1.8134184E-2,-2.2949671E-2,2.149007E-2,1.7592182E-2,-7.626561E-3,2.506972E-2,4.384912E-2,3.9081555E-2,5.87445E-2,4.6147346E-3,4.4487506E-2,1.8882608E-2,6.651225E-2],"split_indices":[1,1,6,7,6,7,6,6,1,8,9,6,1,6,6,8,6,0,7,6,8,6,8,0,6,9,2,7,0,727,0,25,1,9,6,25,0,31,4,6,6,6,20,6,2,9,37,0,1,2,492,0,1,1,0,629,182,0,0,0,0,0,0,0,0,0,0,0,0,0,0,0,0,0,0,0,0,0,0,0,0,0,0,0,0,0,0,0,0,0,0,0,0,0,0,0,0,0,0,0,0,0,0,0,0,0,0],"split_type":[0,0,0,0,0,0,0,0,0,0,0,0,0,0,0,0,0,0,0,0,0,0,0,0,0,0,0,0,0,0,0,0,0,0,0,0,0,0,0,0,0,0,0,0,0,0,0,0,0,0,0,0,0,0,0,0,0,0,0,0,0,0,0,0,0,0,0,0,0,0,0,0,0,0,0,0,0,0,0,0,0,0,0,0,0,0,0,0,0,0,0,0,0,0,0,0,0,0,0,0,0,0,0,0,0,0,0],"sum_hessian":[1.751E3,8.82E2,8.69E2,3.01E2,5.81E2,5.33E2,3.36E2,2.25E2,7.6E1,3.78E2,2.03E2,3.01E2,2.32E2,1.91E2,1.45E2,8.3E1,1.42E2,1E1,6.6E1,2.61E2,1.17E2,1.57E2,4.6E1,5.2E1,2.49E2,1.56E2,7.6E1,1.02E2,8.9E1,8.9E1,5.6E1,7.5E1,8E0,7.2E1,7E1,6E0,4E0,4.5E1,2.1E1,5.7E1,2.04E2,6E1,5.7E1,1.21E2,3.6E1,3.4E1,1.2E1,4.6E1,6E0,9.3E1,1.56E2,1.15E2,4.1E1,7.1E1,5E0,8.4E1,1.8E1,1E0,8.8E1,4E0,7.1E1,4E0,4E0,7.1E1,1E0,6E1,1E1,2E0,4E0,3E0,4.2E1,1.5E1,6E0,1.4E1,4.3E1,8.4E1,1.2E2,5E1,1E1,3E0,5.4E1,6.4E1,5.7E1,3.5E1,1E0,2E1,1.4E1,3E0,9E0,1.7E1,2.9E1,4E0,2E0,7.9E1,1.4E1,1E0,1.55E2,1.04E2,1.1E1,1.9E1,2.2E1,5.9E1,1.2E1,1E0,8.3E1,1E0,1.7E1],"tree_param":{"num_deleted":"0","num_feature":"729","num_nodes":"107","size_leaf_vector":"1"}},{"base_weights":[-5.290276E-4,-2.862465E-1,4.2319158E-1,-5.089573E-1,-8.329762E-2,2.6320115E-1,7.427332E-1,-7.136926E-1,-3.9320478E-1,-1.7647931E-1,3.304407E-2,1.8772142E-1,4.0381116E-1,6.480755E-1,9.5225126E-1,-8.390913E-1,-3.6387786E-1,-4.335733E-1,-1.6573596E-1,-2.743451E-1,-2.3316678E-2,-9.605028E-3,1.6765995E-1,9.069179E-2,3.2240856E-1,3.5714492E-1,6.0873514E-1,5.6097883E-1,7.048327E-1,8.5879534E-2,1.1099508E-1,-1.2913455E0,-7.459703E-1,5.5932913E-2,-4.7295582E-1,-5.1458406E-1,-2.553943E-1,-2.0709172E-1,-2.8452007E-4,-6.672306E-1,-2.4341488E-1,-4.9395967E-2,1.625314E-1,-5.7471164E-2,1.3419774E-1,1.3108566E-1,3.562854E-2,-3.753147E-2,1.5458375E-1,2.9176223E-1,5.968966E-1,-4.7240973E-2,3.666216E-1,1.6512632E-2,6.1868095E-1,1.6283846E-2,5.6438904E-2,1.9764876E-2,7.0809096E-2,8.121836E-3,-1.5246181E-1,3.6765005E-2,-7.594364E-2,8.283847E-3,7.078552E-4,-6.777098E-2,-1.36265205E-2,-8.5887186E-2,-4.8590403E-2,-3.0483885E-2,-1.608853E-2,-2.8255153E-2,-7.6242536E-3,-4.267112E-2,8.502927E-3,-7.15247E-2,-4.551673E-3,-2.5562916E-2,4.198462E-3,-9.633673E-3,5.7361997E-3,4.26534E-3,2.1820506E-2,-4.297213E-2,-4.34659E-3,1.4734213E-2,-1.0770067E-2,3.6398985E-3,1.6592931E-2,-7.3591955E-3,7.796014E-3,-8.4821705E-4,1.7599875E-2,2.5624687E-2,4.8769187E-2,6.73967E-2,1.4102967E-2,-1.5474272E-2,4.0173847E-3,1.1992801E-2,3.8570296E-2,4.93894E-2,7.246741E-2],"categories":[],"categories_nodes":[],"categories_segments":[],"categories_sizes":[],"default_left":[0,0,0,0,0,0,0,0,0,0,0,0,0,0,0,0,0,0,0,0,0,0,0,0,0,0,0,0,0,0,0,0,0,0,0,0,0,0,0,0,0,0,0,0,0,0,0,0,0,0,0,0,0,0,0,0,0,0,0,0,0,0,0,0,0,0,0,0,0,0,0,0,0,0,0,0,0,0,0,0,0,0,0,0,0,0,0,0,0,0,0,0,0,0,0,0,0,0,0,0,0,0,0],"id":9,"left_children":[1,3,5,7,9,11,13,15,17,19,21,23,25,27,29,31,33,35,37,39,41,43,45,47,49,51,53,55,57,-1,-1,59,61,63,65,67,69,71,73,75,77,79,81,83,85,87,-1,89,91,93,95,97,99,-1,101,-1,-1,-1,-1,-1,-1,-1,-1,-1,-1,-1,-1,-1,-1,-1,-1,-1,-1,-1,-1,-1,-1,-1,-1,-1,-1,-1,-1,-1,-1,-1,-1,-1,-1,-1,-1,-1,-1,-1,-1,-1,-1,-1,-1,-1,-1,-1,-1],"loss_changes":[2.1222594E2,4.7280876E1,3.589776E1,1.1544983E1,5.957494E0,4.933628E0,4.043503E0,7.5467453E0,2.8757477E0,4.565365E0,1.4082158E0,4.0089703E0,1.3509293E0,4.2025757E-1,9.3177795E-2,4.553673E0,2.270267E0,3.794735E0,3.4205937E-1,2.0978632E0,5.896427E-1,1.2948864E0,3.6032748E-1,1.4886324E0,9.110031E-1,5.3850365E-1,2.5788307E-2,3.1375885E-3,1.8692017E-2,0E0,0E0,6.847641E0,1.9437714E0,1.3872612E-2,2.596262E0,1.4192734E0,3.5750246E-1,3.7341166E-1,4.3646377E-1,3.5552692E-1,6.172867E-1,5.36724E-1,9.0803534E-2,7.1641994E-1,1.6531038E-1,1.6222101E-1,0E0,2.5978294E-1,4.2403197E-1,6.961336E-1,3.2655668E-1,4.3805595E-2,5.798073E-1,0E0,1.2432098E-2,0E0,0E0,0E0,0E0,0E0,0E0,0E0,0E0,0E0,0E0,0E0,0E0,0E0,0E0,0E0,0E0,0E0,0E0,0E0,0E0,0E0,0E0,0E0,0E0,0E0,0E0,0E0,0E0,0E0,0E0,0E0,0E0,0E0,0E0,0E0,0E0,0E0,0E0,0E0,0E0,0E0,0E0,0E0,0E0,0E0,0E0,0E0,0E0],"parents":[2147483647,0,0,1,1,2,2,3,3,4,4,5,5,6,6,7,7,8,8,9,9,10,10,11,11,12,12,13,13,14,14,15,15,16,16,17,17,18,18,19,19,20,20,21,21,22,22,23,23,24,24,25,25,26,26,27,27,28,28,31,31,32,32,33,33,34,34,35,35,36,36,37,37,38,38,39,39,40,40,41,41,42,42,43,43,44,44,45,45,47,47,48,48,49,49,50,50,51,51,52,52,54,54],"right_children":[2,4,6,8,10,12,14,16,18,20,22,24,26,28,30,32,34,36,38,40,42,44,46,48,50,52,54,56,58,-1,-1,60,62,64,66,68,70,72,74,76,78,80,82,84,86,88,-1,90,92,94,96,98,100,-1,102,-1,-1,-1,-1,-1,-1,-1,-1,-1,-1,-1,-1,-1,-1,-1,-1,-1,-1,-1,-1,-1,-1,-1,-1,-1,-1,-1,-1,-1,-1,-1,-1,-1,-1,-1,-1,-1,-1,-1,-1,-1,-1,-1,-1,-1,-1,-1,-1],"split_conditions":[-3.1886703E-1,-5.317635E-1,7.137404E-1,-6.150576E-1,-3.968652E-1,1.029993E-1,2.4416194E0,-2.17424E-1,1.3485351E-1,-1.0452085E-1,1.17958084E-1,-2.17424E-1,3.964298E-1,1.2360821E0,4.386067E0,-6.532771E-1,-6.5157425E-1,-5.0621676E-1,9.116075E-1,-5.3827935E-1,1.17281385E-1,-2.4512748E-1,8.0761135E-1,-2.1475342E-1,5.539949E-2,2.00001E0,1.4914612E-1,2.00001E0,2.00001E0,8.5879534E-2,1.1099508E-1,2.00001E0,2.00001E0,-5.6703705E-1,8.382301E-3,-6.0042423E-1,-4.5220223E-1,-5.9869325E-1,2.00001E0,-1.1916939E-1,4.7968242E-1,1.344855E0,4.8002476E-1,2.00001E0,-3.2953146E-1,-4.3241355E-1,3.562854E-2,6.171236E-2,2.00001E0,6.60561E-1,-2.2721139E-1,1.859195E-1,2.00001E0,1.6512632E-2,1.5085706E0,1.6283846E-2,5.6438904E-2,1.9764876E-2,7.0809096E-2,8.121836E-3,-1.5246181E-1,3.6765005E-2,-7.594364E-2,8.283847E-3,7.078552E-4,-6.777098E-2,-1.36265205E-2,-8.5887186E-2,-4.8590403E-2,-3.0483885E-2,-1.608853E-2,-2.8255153E-2,-7.6242536E-3,-4.267112E-2,8.502927E-3,-7.15247E-2,-4.551673E-3,-2.5562916E-2,4.198462E-3,-9.633673E-3,5.7361997E-3,4.26534E-3,2.1820506E-2,-4.297213E-2,-4.34659E-3,1.4734213E-2,-1.0770067E-2,3.6398985E-3,1.6592931E-2,-7.3591955E-3,7.796014E-3,-8.4821705E-4,1.7599875E-2,2.5624687E-2,4.8769187E-2,6.73967E-2,1.4102967E-2,-1.5474272E-2,4.0173847E-3,1.1992801E-2,3.8570296E-2,4.93894E-2,7.246741E-2],"split_indices":[1,1,6,1,6,6,6,7,8,7,9,7,8,6,6,1,1,6,7,6,2,6,8,6,1,37,6,286,727,0,0,25,31,0,7,6,6,6,10,0,9,8,8,37,0,1,0,1,22,2,3,6,36,0,8,0,0,0,0,0,0,0,0,0,0,0,0,0,0,0,0,0,0,0,0,0,0,0,0,0,0,0,0,0,0,0,0,0,0,0,0,0,0,0,0,0,0,0,0,0,0,0,0],"split_type":[0,0,0,0,0,0,0,0,0,0,0,0,0,0,0,0,0,0,0,0,0,0,0,0,0,0,0,0,0,0,0,0,0,0,0,0,0,0,0,0,0,0,0,0,0,0,0,0,0,0,0,0,0,0,0,0,0,0,0,0,0,0,0,0,0,0,0,0,0,0,0,0,0,0,0,0,0,0,0,0,0,0,0,0,0,0,0,0,0,0,0,0,0,0,0,0,0,0,0,0,0,0,0],"sum_hessian":[1.751E3,1.046E3,7.05E2,4.98E2,5.48E2,4.71E2,2.34E2,1.78E2,3.2E2,3.04E2,2.44E2,3.08E2,1.63E2,1.64E2,7E1,1.3E2,4.8E1,2.71E2,4.9E1,1.85E2,1.19E2,1.86E2,5.8E1,1.8E2,1.28E2,1.35E2,2.8E1,6.9E1,9.5E1,4.8E1,2.2E1,2E1,1.1E2,1E1,3.8E1,1.85E2,8.6E1,3.9E1,1E1,1.2E1,1.73E2,1.05E2,1.4E1,1.4E2,4.6E1,5E1,8E0,6E1,1.2E2,1.17E2,1.1E1,3E0,1.32E2,1E0,2.7E1,1E0,6.8E1,1E0,9.4E1,3E0,1.7E1,1E0,1.09E2,6E0,4E0,2.3E1,1.5E1,1.2E1,1.73E2,5.5E1,3.1E1,2.4E1,1.5E1,1E0,9E0,1.1E1,1E0,1.66E2,7E0,7.3E1,3.2E1,5E0,9E0,4E0,1.36E2,4.4E1,2E0,1.4E1,3.6E1,4.6E1,1.4E1,1.4E1,1.06E2,1.01E2,1.6E1,9E0,2E0,1E0,2E0,1E1,1.22E2,1.5E1,1.2E1],"tree_param":{"num_deleted":"0","num_feature":"729","num_nodes":"103","size_leaf_vector":"1"}},{"base_weights":[-3.9571355E-4,-2.624688E-1,3.7560692E-1,-4.5907766E-1,-7.8599095E-2,2.3248708E-1,6.699926E-1,-7.4459857E-1,-3.8921514E-1,-1.6822058E-1,1.6839862E-2,1.6473292E-1,3.6451212E-1,5.7286E-1,8.377803E-1,-3.60718E-1,-9.3690073E-1,-4.2260575E-1,-1.5570132E-1,-2.5921404E-1,-2.2079384E-2,-2.2836413E-2,1.4947471E-1,1.1043557E-1,3.491699E-1,3.1147E-1,5.160417E-1,4.9881908E-1,6.183235E-2,7.6268665E-2,1.0037815E-1,-1.01018764E-1,-1.5492263E-1,-1.2562773E-1,-7.517104E-1,-5.4758096E-1,-3.1680974E-1,-2.1050982E-1,-3.0477384E-2,-2.143014E-1,-4.997185E-1,-4.8308667E-2,1.7129458E-1,-8.8149495E-2,4.9517997E-2,1.03650995E-1,3.24132E-1,-2.132742E-2,1.6996644E-1,3.1075317E-1,6.6699155E-2,-2.1536803E-2,3.175042E-1,4.4764754E-1,6.618759E-2,1.396544E-2,5.0235957E-2,4.329355E-3,-1.3054891E-1,-8.088227E-2,-5.5769574E-2,-5.981285E-2,-3.8098507E-2,-3.7582375E-2,-1.9755825E-2,-3.0142656E-2,-6.3131303E-3,-4.0537562E-2,1.8289731E-3,-2.8124256E-2,-1.5944123E-2,-2.8105652E-2,-5.6548573E-2,-1.0336812E-2,2.6729829E-3,2.4566872E-2,4.357998E-3,-6.9012567E-3,-2.4714915E-2,6.461969E-3,-1.8777734E-2,3.4572703E-3,1.63429E-2,3.485712E-2,2.7650595E-3,-8.902565E-3,4.690399E-3,1.3860069E-2,3.2744616E-2,3.20529E-2,-1.6722655E-2,-4.538107E-3,3.269545E-2,4.5521285E-2,1.1034417E-2],"categories":[],"categories_nodes":[],"categories_segments":[],"categories_sizes":[],"default_left":[0,0,0,0,0,0,0,0,0,0,0,0,0,0,0,0,0,0,0,0,0,0,0,0,0,0,0,0,0,0,0,0,0,0,0,0,0,0,0,0,0,0,0,0,0,0,0,0,0,0,0,0,0,0,0,0,0,0,0,0,0,0,0,0,0,0,0,0,0,0,0,0,0,0,0,0,0,0,0,0,0,0,0,0,0,0,0,0,0,0,0,0,0,0,0],"id":10,"left_children":[1,3,5,7,9,11,13,15,17,19,21,23,25,27,29,31,33,35,37,39,41,43,45,47,49,51,53,55,-1,-1,-1,-1,57,-1,59,61,63,65,67,69,71,73,75,77,79,81,83,85,87,89,-1,-1,91,93,-1,-1,-1,-1,-1,-1,-1,-1,-1,-1,-1,-1,-1,-1,-1,-1,-1,-1,-1,-1,-1,-1,-1,-1,-1,-1,-1,-1,-1,-1,-1,-1,-1,-1,-1,-1,-1,-1,-1,-1,-1],"loss_changes":[1.7274097E2,3.730729E1,3.017958E1,9.6638565E0,4.5788918E0,4.287344E0,3.3500214E0,6.8226852E0,3.076458E0,3.6644945E0,1.3716521E0,3.196103E0,1.1574097E0,2.0322418E-1,2.815361E-1,4.387865E0,2.8409576E0,4.4806213E0,3.504777E-1,1.7291956E0,5.509855E-1,9.542287E-1,4.466102E-1,1.9724603E0,6.8403625E-1,4.6258068E-1,1.1265564E-1,9.9544525E-3,0E0,0E0,0E0,0E0,6.2141633E0,0E0,2.5388718E-2,1.119484E0,1.2839928E0,4.6334076E-1,3.182202E-1,4.8765707E-1,2.1496725E-1,3.95263E-1,1.1277637E-1,3.0547673E-1,3.5615593E-1,1.9668865E-1,7.73108E-2,3.6908814E-1,8.0914354E-1,3.6666965E-1,0E0,0E0,4.3665218E-1,2.8875351E-2,0E0,0E0,0E0,0E0,0E0,0E0,0E0,0E0,0E0,0E0,0E0,0E0,0E0,0E0,0E0,0E0,0E0,0E0,0E0,0E0,0E0,0E0,0E0,0E0,0E0,0E0,0E0,0E0,0E0,0E0,0E0,0E0,0E0,0E0,0E0,0E0,0E0,0E0,0E0,0E0,0E0],"parents":[2147483647,0,0,1,1,2,2,3,3,4,4,5,5,6,6,7,7,8,8,9,9,10,10,11,11,12,12,13,13,14,14,15,15,16,16,17,17,18,18,19,19,20,20,21,21,22,22,23,23,24,24,25,25,26,26,27,27,32,32,34,34,35,35,36,36,37,37,38,38,39,39,40,40,41,41,42,42,43,43,44,44,45,45,46,46,47,47,48,48,49,49,52,52,53,53],"right_children":[2,4,6,8,10,12,14,16,18,20,22,24,26,28,30,32,34,36,38,40,42,44,46,48,50,52,54,56,-1,-1,-1,-1,58,-1,60,62,64,66,68,70,72,74,76,78,80,82,84,86,88,90,-1,-1,92,94,-1,-1,-1,-1,-1,-1,-1,-1,-1,-1,-1,-1,-1,-1,-1,-1,-1,-1,-1,-1,-1,-1,-1,-1,-1,-1,-1,-1,-1,-1,-1,-1,-1,-1,-1,-1,-1,-1,-1,-1,-1],"split_conditions":[-3.306309E-1,-5.317635E-1,7.137404E-1,-6.3339496E-1,-4.0922868E-1,1.029993E-1,2.1987133E0,-6.2880456E-1,1.2573123E-1,-1.7943788E-1,-1.7943788E-1,5.093907E-1,7.471657E-3,1.2025987E0,4.386067E0,2.00001E0,-6.221303E-1,-5.549979E-1,7.987043E-1,-3.973902E-1,1.9489276E-1,-3.193728E-1,1.2772143E0,-2.1475342E-1,7.262478E-2,-2.9324195E-1,2.23909E0,2.00001E0,6.183235E-2,7.6268665E-2,1.0037815E-1,-1.01018764E-1,-6.344861E-1,-1.2562773E-1,-5.9648114E-1,-2.832765E-1,-4.9283803E-1,-3.4838688E-1,2.00001E0,-4.6044284E-1,2.00001E0,-4.6902576E-1,5.0533825E-1,-4.1774783E-1,-3.431032E-1,-3.158262E-1,-3.7703258E-1,-2.8710252E-1,1.17958084E-1,6.1051526E0,6.6699155E-2,-2.1536803E-2,2.00001E0,6.001332E-1,6.618759E-2,1.396544E-2,5.0235957E-2,4.329355E-3,-1.3054891E-1,-8.088227E-2,-5.5769574E-2,-5.981285E-2,-3.8098507E-2,-3.7582375E-2,-1.9755825E-2,-3.0142656E-2,-6.3131303E-3,-4.0537562E-2,1.8289731E-3,-2.8124256E-2,-1.5944123E-2,-2.8105652E-2,-5.6548573E-2,-1.0336812E-2,2.6729829E-3,2.4566872E-2,4.357998E-3,-6.9012567E-3,-2.4714915E-2,6.461969E-3,-1.8777734E-2,3.4572703E-3,1.63429E-2,3.485712E-2,2.7650595E-3,-8.902565E-3,4.690399E-3,1.3860069E-2,3.2744616E-2,3.20529E-2,-1.6722655E-2,-4.538107E-3,3.269545E-2,4.5521285E-2,1.1034417E-2],"split_indices":[1,1,6,1,6,6,6,4,8,8,8,8,8,6,6,12,6,6,7,0,2,6,8,6,1,1,8,37,0,0,0,0,6,0,6,8,6,2,10,6,36,1,2,0,0,6,0,6,9,7,0,0,37,0,0,0,0,0,0,0,0,0,0,0,0,0,0,0,0,0,0,0,0,0,0,0,0,0,0,0,0,0,0,0,0,0,0,0,0,0,0,0,0,0,0],"split_type":[0,0,0,0,0,0,0,0,0,0,0,0,0,0,0,0,0,0,0,0,0,0,0,0,0,0,0,0,0,0,0,0,0,0,0,0,0,0,0,0,0,0,0,0,0,0,0,0,0,0,0,0,0,0,0,0,0,0,0,0,0,0,0,0,0,0,0,0,0,0,0,0,0,0,0,0,0,0,0,0,0,0,0,0,0,0,0,0,0,0,0,0,0,0,0],"sum_hessian":[1.751E3,1.032E3,7.19E2,4.98E2,5.34E2,4.85E2,2.34E2,9.6E1,4.02E2,2.75E2,2.59E2,3.22E2,1.63E2,1.51E2,8.3E1,3.3E1,6.3E1,3.51E2,5.1E1,1.69E2,1.06E2,2E2,5.9E1,2.5E2,7.2E1,1.23E2,4E1,6.2E1,8.9E1,6.1E1,2.2E1,7E0,2.6E1,2.1E1,4.2E1,1.59E2,1.92E2,3.5E1,1.6E1,1.44E2,2.5E1,9.4E1,1.2E1,1.05E2,9.5E1,4.8E1,1.1E1,7.8E1,1.72E2,6.6E1,6E0,1E0,1.22E2,3E1,1E1,1E0,6.1E1,2.3E1,3E0,3E1,1.2E1,1.2E2,3.9E1,1.27E2,6.5E1,2.1E1,1.4E1,1E0,1.5E1,6.3E1,8.1E1,7E0,1.8E1,5.4E1,4E1,7E0,5E0,9.5E1,1E1,9E1,5E0,2.3E1,2.5E1,1E1,1E0,3.9E1,3.9E1,1.45E2,2.7E1,6.5E1,1E0,3E0,1.19E2,2.9E1,1E0],"tree_param":{"num_deleted":"0","num_feature":"729","num_nodes":"95","size_leaf_vector":"1"}},{"base_weights":[-5.0308014E-4,-2.9551107E-1,2.7216128E-1,-5.370263E-1,-1.9833387E-1,1.1991942E-1,5.3111356E-1,-6.177542E-1,-2.8868553E-1,-2.7847347E-1,-9.741935E-2,8.824682E-2,3.3315894E-1,4.1748732E-1,6.899661E-1,-9.9141616E-1,-5.3695107E-1,9.372547E-2,-3.4817633E-1,-3.3132526E-1,-1.7170861E-1,-7.8687035E-2,-3.693679E-1,4.6839505E-3,1.6296273E-1,2.7702394E-1,6.647205E-1,3.5902077E-1,4.752664E-1,6.317851E-1,8.8029735E-2,-7.644997E-2,-1.1241353E0,-6.0841304E-1,-3.6587748E-1,2.0357704E-2,5.4546893E-2,5.4721832E-2,-4.2101872E-1,-3.887312E-1,-1.19542316E-1,-1.8267296E-1,2.041912E-2,-1.01448126E-1,7.543804E-2,-5.2530136E-2,-2.3655863E-1,-6.054371E-2,1.6209523E-1,1.1678398E-1,2.240458E-1,1.6174927E-1,3.4972632E-1,3.3097234E-2,7.604737E-2,3.2647765E-1,4.857126E-1,1.2957859E-2,4.7751755E-1,5.1801264E-2,6.698729E-2,7.1879984E-3,-3.348849E-2,3.3399295E-2,-1.193063E-1,-3.0350129E-3,-6.3701265E-2,-2.4093508E-3,-3.727838E-2,1.0522271E-2,3.2275678E-3,9.545021E-3,3.0490875E-4,-5.004716E-2,9.0098084E-4,-8.191389E-2,-3.6592174E-2,-1.51585E-2,4.931038E-4,-1.9577736E-2,3.9660334E-4,4.389485E-3,-6.021762E-3,-1.1699008E-2,7.946653E-3,3.649807E-2,3.4317747E-3,-2.4941476E-2,-5.399871E-3,-1.8122101E-2,-1.6615533E-3,7.5305686E-3,2.5712276E-2,-1.7557621E-3,1.3828951E-2,3.2120474E-2,1.7444937E-2,1.712513E-3,1.8615674E-2,3.6438704E-3,3.570118E-2,2.149582E-3,3.298525E-2,1.319294E-2,4.980378E-2,1.3267159E-2,4.7975097E-2],"categories":[],"categories_nodes":[],"categories_segments":[],"categories_sizes":[],"default_left":[0,0,0,0,0,0,0,0,0,0,0,0,0,0,0,0,0,0,0,0,0,0,0,0,0,0,0,0,0,0,0,0,0,0,0,0,0,0,0,0,0,0,0,0,0,0,0,0,0,0,0,0,0,0,0,0,0,0,0,0,0,0,0,0,0,0,0,0,0,0,0,0,0,0,0,0,0,0,0,0,0,0,0,0,0,0,0,0,0,0,0,0,0,0,0,0,0,0,0,0,0,0,0,0,0,0,0],"id":11,"left_children":[1,3,5,7,9,11,13,15,17,19,21,23,25,27,29,31,33,35,37,39,41,43,45,47,49,51,53,55,57,59,-1,61,63,65,67,-1,69,71,73,75,77,79,81,83,85,-1,87,89,91,93,95,97,99,-1,-1,101,103,-1,105,-1,-1,-1,-1,-1,-1,-1,-1,-1,-1,-1,-1,-1,-1,-1,-1,-1,-1,-1,-1,-1,-1,-1,-1,-1,-1,-1,-1,-1,-1,-1,-1,-1,-1,-1,-1,-1,-1,-1,-1,-1,-1,-1,-1,-1,-1,-1,-1],"loss_changes":[1.410081E2,1.9655045E1,3.5851006E1,4.653244E0,4.8413944E0,3.854062E0,5.794731E0,4.9325943E0,1.4203792E0,1.8334198E0,1.3361886E0,3.133461E0,1.19316E0,5.0161743E-1,9.8308563E-1,3.6784992E0,1.6234131E0,2.7629964E-2,1.5784864E0,2.6646748E0,2.4177074E-1,8.916831E-1,2.277956E-1,2.4534953E0,7.213316E-1,4.8818064E-1,6.787872E-2,2.6608944E-1,1.3607025E-2,1.2966537E-1,0E0,2.1573971E-1,3.1121216E0,1.7165642E0,1.0196066E-1,0E0,5.63276E-3,1.864989E-2,1.5420241E0,1.4183006E0,1.9618195E-1,2.6247597E-1,1.5894284E-2,6.278851E-1,3.8037527E-1,0E0,1.2349069E-2,8.928805E-1,5.57955E-1,4.4445872E-1,4.8848248E-1,9.2119515E-2,7.600641E-2,0E0,0E0,8.0397606E-2,1.7142773E-2,0E0,1.0290146E-2,0E0,0E0,0E0,0E0,0E0,0E0,0E0,0E0,0E0,0E0,0E0,0E0,0E0,0E0,0E0,0E0,0E0,0E0,0E0,0E0,0E0,0E0,0E0,0E0,0E0,0E0,0E0,0E0,0E0,0E0,0E0,0E0,0E0,0E0,0E0,0E0,0E0,0E0,0E0,0E0,0E0,0E0,0E0,0E0,0E0,0E0,0E0,0E0],"parents":[2147483647,0,0,1,1,2,2,3,3,4,4,5,5,6,6,7,7,8,8,9,9,10,10,11,11,12,12,13,13,14,14,15,15,16,16,17,17,18,18,19,19,20,20,21,21,22,22,23,23,24,24,25,25,26,26,27,27,28,28,29,29,31,31,32,32,33,33,34,34,36,36,37,37,38,38,39,39,40,40,41,41,42,42,43,43,44,44,46,46,47,47,48,48,49,49,50,50,51,51,52,52,55,55,56,56,58,58],"right_children":[2,4,6,8,10,12,14,16,18,20,22,24,26,28,30,32,34,36,38,40,42,44,46,48,50,52,54,56,58,60,-1,62,64,66,68,-1,70,72,74,76,78,80,82,84,86,-1,88,90,92,94,96,98,100,-1,-1,102,104,-1,106,-1,-1,-1,-1,-1,-1,-1,-1,-1,-1,-1,-1,-1,-1,-1,-1,-1,-1,-1,-1,-1,-1,-1,-1,-1,-1,-1,-1,-1,-1,-1,-1,-1,-1,-1,-1,-1,-1,-1,-1,-1,-1,-1,-1,-1,-1,-1,-1],"split_conditions":[-4.3658042E-1,-6.004874E-1,2.567195E-1,-2.17424E-1,-5.149952E-1,6.605446E-1,1.5215135E0,-6.498366E-1,2.00001E0,-4.9283803E-1,-3.8933328E-1,-2.1475342E-1,2.0575657E0,7.137404E-1,3.6184585E0,2.00001E0,-5.645893E-1,2.00001E0,-6.5157425E-1,1.9325545E-1,-3.193728E-1,2.9882026E-1,-5.0176865E-1,2.9123253E-1,4.505457E-3,-3.240626E-1,-3.973902E-1,5.7289803E-1,2.00001E0,1.4950103E0,8.8029735E-2,-5.738229E-1,2.00001E0,-6.2880456E-1,2.00001E0,2.0357704E-2,2.00001E0,-5.6703705E-1,2.341886E-1,-6.021527E-1,-4.9239242E-1,-1.626296E-1,-5.202081E-1,1.344855E0,2.00001E0,-5.2530136E-2,-1.0452085E-1,-4.0922868E-1,-3.0811098E-1,2.00001E0,-1.1913012E-1,1.17281385E-1,2.00001E0,3.3097234E-2,7.604737E-2,2.00001E0,2.00001E0,1.2957859E-2,2.00001E0,5.1801264E-2,6.698729E-2,7.1879984E-3,-3.348849E-2,3.3399295E-2,-1.193063E-1,-3.0350129E-3,-6.3701265E-2,-2.4093508E-3,-3.727838E-2,1.0522271E-2,3.2275678E-3,9.545021E-3,3.0490875E-4,-5.004716E-2,9.0098084E-4,-8.191389E-2,-3.6592174E-2,-1.51585E-2,4.931038E-4,-1.9577736E-2,3.9660334E-4,4.389485E-3,-6.021762E-3,-1.1699008E-2,7.946653E-3,3.649807E-2,3.4317747E-3,-2.4941476E-2,-5.399871E-3,-1.8122101E-2,-1.6615533E-3,7.5305686E-3,2.5712276E-2,-1.7557621E-3,1.3828951E-2,3.2120474E-2,1.7444937E-2,1.712513E-3,1.8615674E-2,3.6438704E-3,3.570118E-2,2.149582E-3,3.298525E-2,1.319294E-2,4.980378E-2,1.3267159E-2,4.7975097E-2],"split_indices":[1,1,6,7,1,9,6,1,25,6,3,6,2,6,6,25,6,480,1,8,6,9,6,8,6,1,0,7,286,1,0,0,11,4,568,0,611,0,7,6,0,8,1,8,20,0,7,6,1,22,3,2,251,0,0,629,182,0,37,0,0,0,0,0,0,0,0,0,0,0,0,0,0,0,0,0,0,0,0,0,0,0,0,0,0,0,0,0,0,0,0,0,0,0,0,0,0,0,0,0,0,0,0,0,0,0,0],"split_type":[0,0,0,0,0,0,0,0,0,0,0,0,0,0,0,0,0,0,0,0,0,0,0,0,0,0,0,0,0,0,0,0,0,0,0,0,0,0,0,0,0,0,0,0,0,0,0,0,0,0,0,0,0,0,0,0,0,0,0,0,0,0,0,0,0,0,0,0,0,0,0,0,0,0,0,0,0,0,0,0,0,0,0,0,0,0,0,0,0,0,0,0,0,0,0,0,0,0,0,0,0,0,0,0,0,0,0],"sum_hessian":[1.751E3,8.41E2,9.1E2,2.4E2,6.01E2,5.74E2,3.36E2,1.8E2,6E1,3.34E2,2.67E2,5.01E2,7.3E1,1.98E2,1.38E2,3E1,1.5E2,8E0,5.2E1,2.22E2,1.12E2,2.51E2,1.6E1,2.37E2,2.64E2,6.4E1,9E0,1.02E2,9.6E1,1.09E2,2.9E1,4E0,2.6E1,1.04E2,4.6E1,1E0,7E0,8E0,4.4E1,1.74E2,4.8E1,1.06E2,6E0,2.19E2,3.2E1,6E0,1E1,1.68E2,6.9E1,1.52E2,1.12E2,2.6E1,3.8E1,3E0,6E0,8.4E1,1.8E1,1E0,9.5E1,3.1E1,7.8E1,3E0,1E0,1E0,2.5E1,5E0,9.9E1,1E0,4.5E1,1E0,6E0,4E0,4E0,3.7E1,7E0,7E0,1.67E2,3.8E1,1E1,9.9E1,7E0,5E0,1E0,2.02E2,1.7E1,3E0,2.9E1,9E0,1E0,4.4E1,1.24E2,3.7E1,3.2E1,2.1E1,1.31E2,3.6E1,7.6E1,4E0,2.2E1,1E0,3.7E1,1E0,8.3E1,1E0,1.7E1,1E0,9.4E1],"tree_param":{"num_deleted":"0","num_feature":"729","num_nodes":"107","size_leaf_vector":"1"}},{"base_weights":[-3.3941382E-4,-2.318178E-1,2.831339E-1,-3.7657538E-1,-7.8559116E-2,1.6438483E-1,5.306981E-1,-6.1502665E-1,-3.1780952E-1,-1.3372096E-1,1.3219528E-1,1.02618374E-1,2.6784784E-1,4.5252043E-1,6.844585E-1,-3.0234694E-1,-7.7152795E-1,-3.520531E-1,-1.6472653E-1,-1.997672E-1,-6.55239E-2,9.0948485E-2,4.8607224E-1,7.348565E-2,2.603147E-1,3.575468E-1,2.1304172E-1,3.9378357E-1,5.016608E-1,6.2181473E-2,8.235651E-2,-1.6926743E-1,-1.0403546E-1,-1.0382621E0,-6.1711675E-1,-5.016724E-1,-2.776835E-1,2.3519951E-1,-1.8465677E-1,-2.4436808E-1,-9.21938E-2,-9.32167E-2,3.401219E-2,3.045696E-1,6.899827E-2,1.4658197E-2,5.5262208E-2,5.215073E-2,2.0672256E-1,1.936927E-1,3.49438E-1,3.27587E-1,5.6376662E-2,1.5163755E-1,2.8020176E-1,3.5238323E-1,4.7573707E-1,1.309495E-2,5.043548E-2,-8.695543E-2,4.2035724E-3,-2.9025853E-2,-1.0600596E-1,-6.648434E-2,-4.558366E-2,-4.666025E-2,-8.77337E-2,-3.1874858E-2,-1.7028725E-2,7.2802543E-3,2.6506433E-2,9.911376E-3,-2.167415E-2,-2.6056126E-2,1.4181479E-2,-1.1832304E-2,1.11347E-2,-4.1379996E-2,-8.118739E-3,7.09557E-3,-3.475361E-3,1.0914362E-2,3.9999645E-2,-4.2453423E-4,1.3235061E-2,2.0033568E-3,9.916263E-3,3.8726449E-3,2.196465E-2,9.749948E-3,2.4653366E-2,9.385014E-3,3.575249E-2,2.5719216E-2,3.6089595E-2,-6.506705E-3,1.6986914E-2,2.708308E-3,2.8860798E-2,1.0072566E-2,3.5498552E-2,1.2603807E-2,4.8505627E-2],"categories":[],"categories_nodes":[],"categories_segments":[],"categories_sizes":[],"default_left":[0,0,0,0,0,0,0,0,0,0,0,0,0,0,0,0,0,0,0,0,0,0,0,0,0,0,0,0,0,0,0,0,0,0,0,0,0,0,0,0,0,0,0,0,0,0,0,0,0,0,0,0,0,0,0,0,0,0,0,0,0,0,0,0,0,0,0,0,0,0,0,0,0,0,0,0,0,0,0,0,0,0,0,0,0,0,0,0,0,0,0,0,0,0,0,0,0,0,0,0,0,0,0],"id":12,"left_children":[1,3,5,7,9,11,13,15,17,19,21,23,25,27,29,31,33,35,37,39,41,43,45,47,49,51,53,55,57,-1,-1,59,-1,61,63,65,67,69,71,73,75,77,79,81,83,-1,-1,85,87,89,91,93,-1,95,97,99,101,-1,-1,-1,-1,-1,-1,-1,-1,-1,-1,-1,-1,-1,-1,-1,-1,-1,-1,-1,-1,-1,-1,-1,-1,-1,-1,-1,-1,-1,-1,-1,-1,-1,-1,-1,-1,-1,-1,-1,-1,-1,-1,-1,-1,-1,-1],"loss_changes":[1.15028275E2,2.137928E1,2.3078407E1,6.7548904E0,5.4817104E0,3.385065E0,2.7555313E0,4.513405E0,2.0388489E0,1.6669612E0,1.3862292E0,1.5244961E0,9.021206E-1,2.9890823E-1,2.1988297E-1,3.1631675E0,1.995224E0,3.48814E0,6.412282E-1,8.842678E-1,5.131107E-1,3.9630884E-1,1.4492583E-1,7.993598E-1,2.4107003E-1,2.7251148E-1,4.7712326E-1,1.1396885E-1,2.3836136E-2,0E0,0E0,4.475737E0,0E0,5.101013E-2,2.7927399E-2,1.0003071E0,9.1597176E-1,1.02460384E-4,6.770203E-1,8.6867094E-1,3.1632188E-1,5.2558196E-1,1.0662441E-1,1.0553408E-1,3.8105455E-1,0E0,0E0,3.7095594E-1,7.616949E-2,1.3861728E-1,9.851456E-3,6.428051E-2,0E0,2.7971208E-1,1.17722034E-1,2.8820038E-3,2.0337105E-2,0E0,0E0,0E0,0E0,0E0,0E0,0E0,0E0,0E0,0E0,0E0,0E0,0E0,0E0,0E0,0E0,0E0,0E0,0E0,0E0,0E0,0E0,0E0,0E0,0E0,0E0,0E0,0E0,0E0,0E0,0E0,0E0,0E0,0E0,0E0,0E0,0E0,0E0,0E0,0E0,0E0,0E0,0E0,0E0,0E0,0E0],"parents":[2147483647,0,0,1,1,2,2,3,3,4,4,5,5,6,6,7,7,8,8,9,9,10,10,11,11,12,12,13,13,14,14,15,15,16,16,17,17,18,18,19,19,20,20,21,21,22,22,23,23,24,24,25,25,26,26,27,27,28,28,31,31,33,33,34,34,35,35,36,36,37,37,38,38,39,39,40,40,41,41,42,42,43,43,44,44,47,47,48,48,49,49,50,50,51,51,53,53,54,54,55,55,56,56],"right_children":[2,4,6,8,10,12,14,16,18,20,22,24,26,28,30,32,34,36,38,40,42,44,46,48,50,52,54,56,58,-1,-1,60,-1,62,64,66,68,70,72,74,76,78,80,82,84,-1,-1,86,88,90,92,94,-1,96,98,100,102,-1,-1,-1,-1,-1,-1,-1,-1,-1,-1,-1,-1,-1,-1,-1,-1,-1,-1,-1,-1,-1,-1,-1,-1,-1,-1,-1,-1,-1,-1,-1,-1,-1,-1,-1,-1,-1,-1,-1,-1,-1,-1,-1,-1,-1,-1],"split_conditions":[-3.193728E-1,-5.317635E-1,5.7578015E-1,-6.3339496E-1,8.0761135E-1,1.858796E-2,2.1987133E0,-6.2880456E-1,-2.1253794E-2,-4.2854974E-1,-1.9724217E-1,4.7968242E-1,-9.21098E-2,1.2025987E0,4.386067E0,-6.344861E-1,-6.221303E-1,-5.645893E-1,2.00001E0,-3.8468897E-1,-6.290409E-2,2.00001E0,1.5890265E0,1.5189469E-1,8.157838E-1,2.3515074E0,2.4188948E-1,-1.0452085E-1,2.00001E0,6.2181473E-2,8.235651E-2,2.00001E0,-1.0403546E-1,2.00001E0,-5.9648114E-1,-4.991783E-1,-4.9283803E-1,2.00001E0,2.00001E0,-1.05954185E-2,-3.794137E-2,2.00001E0,-4.6524894E-1,-2.707755E-1,1.6391162E0,1.4658197E-2,5.5262208E-2,-1.598133E-1,-4.7913945E-1,-3.3396542E-1,2.00001E0,-1.22660644E-1,5.6376662E-2,2.00001E0,2.00001E0,2.00001E0,2.00001E0,1.309495E-2,5.043548E-2,-8.695543E-2,4.2035724E-3,-2.9025853E-2,-1.0600596E-1,-6.648434E-2,-4.558366E-2,-4.666025E-2,-8.77337E-2,-3.1874858E-2,-1.7028725E-2,7.2802543E-3,2.6506433E-2,9.911376E-3,-2.167415E-2,-2.6056126E-2,1.4181479E-2,-1.1832304E-2,1.11347E-2,-4.1379996E-2,-8.118739E-3,7.09557E-3,-3.475361E-3,1.0914362E-2,3.9999645E-2,-4.2453423E-4,1.3235061E-2,2.0033568E-3,9.916263E-3,3.8726449E-3,2.196465E-2,9.749948E-3,2.4653366E-2,9.385014E-3,3.575249E-2,2.5719216E-2,3.6089595E-2,-6.506705E-3,1.6986914E-2,2.708308E-3,2.8860798E-2,1.0072566E-2,3.5498552E-2,1.2603807E-2,4.8505627E-2],"split_indices":[6,1,6,1,8,6,6,4,8,6,1,9,3,6,6,6,6,6,11,8,9,20,7,8,2,8,6,7,727,0,0,12,0,33,6,0,6,220,25,0,2,37,0,2,8,0,0,6,4,1,299,1,0,36,22,267,37,0,0,0,0,0,0,0,0,0,0,0,0,0,0,0,0,0,0,0,0,0,0,0,0,0,0,0,0,0,0,0,0,0,0,0,0,0,0,0,0,0,0,0,0,0,0],"split_type":[0,0,0,0,0,0,0,0,0,0,0,0,0,0,0,0,0,0,0,0,0,0,0,0,0,0,0,0,0,0,0,0,0,0,0,0,0,0,0,0,0,0,0,0,0,0,0,0,0,0,0,0,0,0,0,0,0,0,0,0,0,0,0,0,0,0,0,0,0,0,0,0,0,0,0,0,0,0,0,0,0,0,0,0,0,0,0,0,0,0,0,0,0,0,0,0,0,0,0,0,0,0,0],"sum_hessian":[1.751E3,9.64E2,7.87E2,4.95E2,4.69E2,5.33E2,2.54E2,9.6E1,3.99E2,3.72E2,9.7E1,3.35E2,1.98E2,1.71E2,8.3E1,3.3E1,6.3E1,3.25E2,7.4E1,1.88E2,1.84E2,8.8E1,9E0,2.84E2,5.1E1,7.3E1,1.25E2,8.2E1,8.9E1,6.1E1,2.2E1,2.9E1,4E0,2.1E1,4.2E1,1.06E2,2.19E2,3E0,7.1E1,1.32E2,5.6E1,1.44E2,4E1,7E0,8.1E1,2E0,7E0,2.46E2,3.8E1,3.1E1,2E1,6.6E1,7E0,6.7E1,5.8E1,5.8E1,2.4E1,1E0,8.8E1,6E0,2.3E1,1E0,2E1,3E1,1.2E1,9.9E1,7E0,1.57E2,6.2E1,1E0,2E0,7E0,6.4E1,1.27E2,5E0,5E1,6E0,4E0,1.4E2,2.6E1,1.4E1,3E0,4E0,3.8E1,4.3E1,1.47E2,9.9E1,3E0,3.5E1,1.2E1,1.9E1,1E0,1.9E1,2.4E1,4.2E1,5E0,6.2E1,2E0,5.6E1,1E0,5.7E1,1E0,2.3E1],"tree_param":{"num_deleted":"0","num_feature":"729","num_nodes":"103","size_leaf_vector":"1"}},{"base_weights":[-2.6417806E-4,-2.2981879E-1,2.3272087E-1,-4.3962944E-1,-1.5082316E-1,1.2017109E-1,4.5857292E-1,-5.0603926E-1,-2.3537031E-1,-2.2617024E-1,-6.813666E-2,9.364624E-2,3.038355E-1,3.832758E-1,6.014145E-1,-7.0025975E-1,-3.9381388E-1,-2.9540518E-1,3.438912E-2,-3.1310955E-1,-9.2775844E-2,-1.0289049E-1,6.2718247E-3,3.825983E-2,1.8751279E-1,2.5549293E-1,5.8284458E-2,3.3008686E-1,4.319651E-1,5.4100984E-1,7.2029814E-2,-7.8205085E-1,-1.044427E-1,-4.514429E-1,-2.9837826E-1,3.9231475E-2,-3.8004512E-1,1.0405026E-1,-2.092777E-2,-4.425262E-1,-2.4753273E-1,-1.5299731E-1,-6.163844E-3,-1.2042673E-1,5.2438583E-2,-5.1516783E-3,2.2206401E-2,-2.5463232E-1,5.6439735E-2,-2.1006871E-2,1.9074497E-1,1.4947942E-1,3.0028364E-1,3.085701E-1,5.2820005E-2,1.17203E-2,4.3402302E-1,3.7395E-2,5.629869E-1,6.3336254E-3,-8.301897E-2,2.2676593E-2,-4.147628E-2,-4.647246E-2,-1.8317958E-2,-6.9513323E-4,-3.045625E-2,6.204782E-3,-5.5770874E-5,1.1369461E-2,-4.2315092E-2,1.8749889E-2,5.9750737E-3,-3.4960713E-2,-6.1669666E-2,-3.669426E-2,-2.2984346E-2,-1.7078297E-2,2.619827E-3,1.5837574E-2,-3.2901657E-3,-1.2629466E-2,1.2077198E-2,2.1382137E-3,1.31692095E-2,-1.506957E-3,1.444753E-2,-4.029577E-2,5.7205064E-3,3.0154118E-3,1.9261686E-2,-1.6676022E-2,1.9354854E-2,2.6553234E-3,1.8623427E-2,1.7297029E-3,3.0646248E-2,5.9907435E-4,3.119404E-2,1.2440205E-2,4.3597274E-2,1.5675116E-2,5.6728836E-2],"categories":[],"categories_nodes":[],"categories_segments":[],"categories_sizes":[],"default_left":[0,0,0,0,0,0,0,0,0,0,0,0,0,0,0,0,0,0,0,0,0,0,0,0,0,0,0,0,0,0,0,0,0,0,0,0,0,0,0,0,0,0,0,0,0,0,0,0,0,0,0,0,0,0,0,0,0,0,0,0,0,0,0,0,0,0,0,0,0,0,0,0,0,0,0,0,0,0,0,0,0,0,0,0,0,0,0,0,0,0,0,0,0,0,0,0,0,0,0,0,0,0,0],"id":13,"left_children":[1,3,5,7,9,11,13,15,17,19,21,23,25,27,29,31,33,35,37,39,41,43,45,47,49,51,-1,53,55,57,-1,59,61,63,65,67,69,71,-1,73,75,77,79,81,83,85,-1,87,89,-1,91,93,95,97,-1,-1,99,-1,101,-1,-1,-1,-1,-1,-1,-1,-1,-1,-1,-1,-1,-1,-1,-1,-1,-1,-1,-1,-1,-1,-1,-1,-1,-1,-1,-1,-1,-1,-1,-1,-1,-1,-1,-1,-1,-1,-1,-1,-1,-1,-1,-1,-1],"loss_changes":[9.375534E1,1.4568642E1,2.2059944E1,3.1500168E0,3.9905987E0,2.806859E0,2.8778458E0,3.669384E0,9.9805164E-1,3.8676147E0,7.97127E-1,2.64428E0,8.357129E-1,3.5464287E-1,3.1406403E-1,3.0859394E0,5.0878334E-1,1.4310908E0,2.254647E-1,1.613266E0,6.979878E-1,5.783317E-1,2.4518919E-1,1.7289414E0,2.8294563E-1,2.590127E-1,0E0,2.4623775E-1,1.1962891E-2,4.280281E-2,0E0,2.3722496E0,1.0190803E0,1.6784573E-1,8.258963E-2,1.0020886E-2,8.994317E-1,2.5764152E-2,0E0,8.687105E-1,2.0504284E-1,2.562561E-1,2.515788E-1,2.8275108E-1,5.1333457E-2,1.4315566E-1,0E0,9.0186584E-1,1.0823598E0,0E0,2.2070599E-1,8.993569E-2,7.163453E-2,8.889198E-2,0E0,0E0,3.7174225E-3,0E0,1.4173508E-2,0E0,0E0,0E0,0E0,0E0,0E0,0E0,0E0,0E0,0E0,0E0,0E0,0E0,0E0,0E0,0E0,0E0,0E0,0E0,0E0,0E0,0E0,0E0,0E0,0E0,0E0,0E0,0E0,0E0,0E0,0E0,0E0,0E0,0E0,0E0,0E0,0E0,0E0,0E0,0E0,0E0,0E0,0E0,0E0],"parents":[2147483647,0,0,1,1,2,2,3,3,4,4,5,5,6,6,7,7,8,8,9,9,10,10,11,11,12,12,13,13,14,14,15,15,16,16,17,17,18,18,19,19,20,20,21,21,22,22,23,23,24,24,25,25,27,27,28,28,29,29,31,31,32,32,33,33,34,34,35,35,36,36,37,37,39,39,40,40,41,41,42,42,43,43,44,44,45,45,47,47,48,48,50,50,51,51,52,52,53,53,56,56,58,58],"right_children":[2,4,6,8,10,12,14,16,18,20,22,24,26,28,30,32,34,36,38,40,42,44,46,48,50,52,-1,54,56,58,-1,60,62,64,66,68,70,72,-1,74,76,78,80,82,84,86,-1,88,90,-1,92,94,96,98,-1,-1,100,-1,102,-1,-1,-1,-1,-1,-1,-1,-1,-1,-1,-1,-1,-1,-1,-1,-1,-1,-1,-1,-1,-1,-1,-1,-1,-1,-1,-1,-1,-1,-1,-1,-1,-1,-1,-1,-1,-1,-1,-1,-1,-1,-1,-1,-1],"split_conditions":[-4.164967E-1,-6.004874E-1,4.091515E-1,-2.17424E-1,-4.7317195E-1,6.605446E-1,1.9825243E0,-6.054079E-1,2.341886E-1,-3.193774E-1,-3.6565393E-1,-5.998063E-2,2.2127886E0,1.0123935E0,3.6184585E0,-2.661965E-1,-5.645893E-1,-6.5157425E-1,-6.0636413E-1,-5.4001987E-1,6.9105977E-1,-1.1041915E-1,1.048618E0,2.00001E0,2.00001E0,-3.240626E-1,5.8284458E-2,1.7457176E0,-4.7882068E-1,2.00001E0,7.2029814E-2,2.00001E0,-6.459095E-1,-3.026856E-1,2.00001E0,-5.6703705E-1,2.00001E0,-5.3989357E-1,-2.092777E-2,-5.195359E-1,2.00001E0,-3.794137E-2,-5.534653E-1,8.4140676E-1,-4.5203158E-1,2.1708982E-1,2.2206401E-2,9.762201E-3,1.3314626E0,-2.1006871E-2,2.00001E0,2.00001E0,-6.2880456E-1,2.00001E0,5.2820005E-2,1.17203E-2,2.00001E0,3.7395E-2,2.00001E0,6.3336254E-3,-8.301897E-2,2.2676593E-2,-4.147628E-2,-4.647246E-2,-1.8317958E-2,-6.9513323E-4,-3.045625E-2,6.204782E-3,-5.5770874E-5,1.1369461E-2,-4.2315092E-2,1.8749889E-2,5.9750737E-3,-3.4960713E-2,-6.1669666E-2,-3.669426E-2,-2.2984346E-2,-1.7078297E-2,2.619827E-3,1.5837574E-2,-3.2901657E-3,-1.2629466E-2,1.2077198E-2,2.1382137E-3,1.31692095E-2,-1.506957E-3,1.444753E-2,-4.029577E-2,5.7205064E-3,3.0154118E-3,1.9261686E-2,-1.6676022E-2,1.9354854E-2,2.6553234E-3,1.8623427E-2,1.7297029E-3,3.0646248E-2,5.9907435E-4,3.119404E-2,1.2440205E-2,4.3597274E-2,1.5675116E-2,5.6728836E-2],"split_indices":[1,1,6,7,6,9,6,6,7,8,6,6,2,6,6,8,6,1,1,6,8,8,2,37,564,1,0,9,0,13,0,25,1,8,568,0,31,0,0,0,22,2,0,9,1,8,0,0,8,0,173,21,4,629,0,0,727,0,26,0,0,0,0,0,0,0,0,0,0,0,0,0,0,0,0,0,0,0,0,0,0,0,0,0,0,0,0,0,0,0,0,0,0,0,0,0,0,0,0,0,0,0,0],"split_type":[0,0,0,0,0,0,0,0,0,0,0,0,0,0,0,0,0,0,0,0,0,0,0,0,0,0,0,0,0,0,0,0,0,0,0,0,0,0,0,0,0,0,0,0,0,0,0,0,0,0,0,0,0,0,0,0,0,0,0,0,0,0,0,0,0,0,0,0,0,0,0,0,0,0,0,0,0,0,0,0,0,0,0,0,0,0,0,0,0,0,0,0,0,0,0,0,0,0,0,0,0,0,0],"sum_hessian":[1.751E3,8.82E2,8.69E2,2.4E2,6.42E2,5.81E2,2.88E2,1.8E2,6E1,3.35E2,3.07E2,5.09E2,7.2E1,1.91E2,9.7E1,6.4E1,1.16E2,4.9E1,1.1E1,2.02E2,1.33E2,2.09E2,9.8E1,3.21E2,1.88E2,6.3E1,9E0,9.5E1,9.6E1,6.8E1,2.9E1,5.6E1,8E0,7E1,4.6E1,1E1,3.9E1,9E0,2E0,6.6E1,1.36E2,7.8E1,5.5E1,1.88E2,2.1E1,9.4E1,4E0,1.8E1,3.03E2,1E0,1.87E2,2E1,4.3E1,8.8E1,7E0,1E0,9.5E1,1E1,5.8E1,3E0,5.3E1,4E0,4E0,6.6E1,4E0,1E0,4.5E1,6E0,4E0,3E0,3.6E1,2E0,7E0,4.5E1,2.1E1,1.5E1,1.21E2,7.1E1,7E0,7E0,4.8E1,1.84E2,4E0,1.6E1,5E0,8.9E1,5E0,1.2E1,6E0,2.55E2,4.8E1,1E0,1.86E2,5E0,1.5E1,1E0,4.2E1,1E0,8.7E1,1E0,9.4E1,1E0,5.7E1],"tree_param":{"num_deleted":"0","num_feature":"729","num_nodes":"103","size_leaf_vector":"1"}},{"base_weights":[-1.8368947E-4,-1.8945533E-1,2.3160225E-1,-3.073755E-1,-6.460884E-2,1.387947E-1,4.4042096E-1,-5.0895256E-1,-2.577246E-1,-1.0222702E-1,1.4823453E-1,8.511569E-2,2.232162E-1,3.8222903E-1,5.751898E-1,-6.0820293E-1,-1.8172427E-1,-2.8008285E-1,-9.561534E-2,-7.5012915E-2,-2.3881033E-1,1.07131384E-1,4.5853043E-1,4.771219E-2,1.7167126E-1,1.8148153E-1,3.16892E-1,3.410164E-1,4.298E-1,5.1618308E-2,6.758916E-2,-6.611328E-1,-8.888966E-2,-5.8413554E-2,-7.203524E-2,-3.6007285E-1,-2.1040674E-1,1.4333248E-2,-1.1391696E-1,-9.849579E-2,3.6508612E-2,-2.8796786E-1,6.526866E-2,1.3516575E-1,-1.4045784E-1,1.4242125E-2,5.401633E-1,3.2705408E-2,1.5802307E-1,1.3336602E-1,2.6677543E-1,1.4194115E-1,2.3939158E-1,2.7997422E-1,4.693164E-1,3.157225E-1,4.0479705E-1,1.1818195E-2,4.3237913E-2,-8.119779E-2,-4.8111133E-2,2.0862456E-2,-4.3856002E-2,5.9903115E-3,-4.798309E-2,-3.3866357E-2,-6.8640135E-2,-2.3805195E-2,-1.1869014E-2,1.2663699E-2,-1.3319648E-2,-1.4105569E-2,-5.067578E-3,2.6224995E-2,2.3986988E-3,-4.0807214E-2,-1.8138418E-2,-2.0964693E-3,1.9985987E-2,5.533255E-3,2.1309093E-2,-1.798196E-2,4.785633E-3,5.8824934E-2,1.49866585E-2,5.5290427E-4,7.645819E-3,3.1122684E-3,1.912176E-2,-6.591426E-4,1.5043043E-2,4.6169283E-3,2.9140139E-2,-4.5275213E-3,1.5568906E-2,5.69129E-4,2.4332276E-2,2.8932273E-2,1.3049403E-2,1.3488412E-2,4.8927125E-2,2.4694825E-2,3.3662133E-2,4.7085505E-2,2.9950118E-2],"categories":[],"categories_nodes":[],"categories_segments":[],"categories_sizes":[],"default_left":[0,0,0,0,0,0,0,0,0,0,0,0,0,0,0,0,0,0,0,0,0,0,0,0,0,0,0,0,0,0,0,0,0,0,0,0,0,0,0,0,0,0,0,0,0,0,0,0,0,0,0,0,0,0,0,0,0,0,0,0,0,0,0,0,0,0,0,0,0,0,0,0,0,0,0,0,0,0,0,0,0,0,0,0,0,0,0,0,0,0,0,0,0,0,0,0,0,0,0,0,0,0,0,0,0],"id":14,"left_children":[1,3,5,7,9,11,13,15,17,19,21,23,25,27,29,31,33,35,37,39,41,43,45,47,49,51,53,55,57,-1,-1,59,61,-1,63,65,67,-1,69,71,73,75,77,79,81,-1,83,85,87,89,91,93,95,97,99,101,103,-1,-1,-1,-1,-1,-1,-1,-1,-1,-1,-1,-1,-1,-1,-1,-1,-1,-1,-1,-1,-1,-1,-1,-1,-1,-1,-1,-1,-1,-1,-1,-1,-1,-1,-1,-1,-1,-1,-1,-1,-1,-1,-1,-1,-1,-1,-1,-1],"loss_changes":[7.690501E1,1.418679E1,1.521027E1,4.8330383E0,3.7783399E0,2.4598198E0,1.6780243E0,3.039793E0,1.423008E0,1.468883E0,8.564209E-1,1.079603E0,7.713108E-1,1.906414E-1,7.300186E-2,1.9752846E0,1.0172839E0,1.8805027E0,2.3498455E-1,8.809093E-1,1.0053489E0,4.632095E-1,1.2950838E-1,3.855089E-1,3.3236313E-1,3.0719852E-1,2.2874212E-1,2.8682709E-2,9.982109E-3,0E0,0E0,1.4287567E0,9.2374957E-1,0E0,1.1048212E0,8.993473E-1,4.5349503E-1,0E0,2.3484254E-1,5.5660653E-1,1.6048166E-1,6.5564775E-1,1.20252505E-1,3.490281E-1,6.0492128E-2,0E0,2.4448037E-2,2.4808694E-1,1.11995876E-1,1.7772508E-1,1.3866007E-1,2.4126804E-1,5.2819967E-2,3.77059E-2,7.4141026E-3,2.3231983E-2,2.5913715E-2,0E0,0E0,0E0,0E0,0E0,0E0,0E0,0E0,0E0,0E0,0E0,0E0,0E0,0E0,0E0,0E0,0E0,0E0,0E0,0E0,0E0,0E0,0E0,0E0,0E0,0E0,0E0,0E0,0E0,0E0,0E0,0E0,0E0,0E0,0E0,0E0,0E0,0E0,0E0,0E0,0E0,0E0,0E0,0E0,0E0,0E0,0E0,0E0],"parents":[2147483647,0,0,1,1,2,2,3,3,4,4,5,5,6,6,7,7,8,8,9,9,10,10,11,11,12,12,13,13,14,14,15,15,16,16,17,17,18,18,19,19,20,20,21,21,22,22,23,23,24,24,25,25,26,26,27,27,28,28,31,31,32,32,34,34,35,35,36,36,38,38,39,39,40,40,41,41,42,42,43,43,44,44,46,46,47,47,48,48,49,49,50,50,51,51,52,52,53,53,54,54,55,55,56,56],"right_children":[2,4,6,8,10,12,14,16,18,20,22,24,26,28,30,32,34,36,38,40,42,44,46,48,50,52,54,56,58,-1,-1,60,62,-1,64,66,68,-1,70,72,74,76,78,80,82,-1,84,86,88,90,92,94,96,98,100,102,104,-1,-1,-1,-1,-1,-1,-1,-1,-1,-1,-1,-1,-1,-1,-1,-1,-1,-1,-1,-1,-1,-1,-1,-1,-1,-1,-1,-1,-1,-1,-1,-1,-1,-1,-1,-1,-1,-1,-1,-1,-1,-1,-1,-1,-1,-1,-1,-1],"split_conditions":[-3.193728E-1,-5.317635E-1,6.6432464E-1,-6.3339496E-1,1.3543653E0,1.858796E-2,2.4416194E0,-2.17424E-1,1.3485351E-1,-3.8933328E-1,-1.6306788E-1,-2.0796923E-1,-1.0452085E-1,1.4331362E0,4.386067E0,-2.661965E-1,2.00001E0,-5.549979E-1,-1.0452085E-1,1.17958084E-1,-3.773891E-2,-3.227456E-1,-4.041761E-1,1.17958084E-1,1.1737444E0,3.1451663E-1,2.3515074E0,8.382301E-3,2.00001E0,5.1618308E-2,6.758916E-2,-6.156409E-1,-6.459095E-1,-5.8413554E-2,-6.2880456E-1,-4.7039422E-1,-4.7721156E-1,1.4333248E-2,2.00001E0,-4.2654195E-1,2.00001E0,-4.4806477E-1,6.171236E-2,-3.9202195E-1,-5.5145514E-1,1.4242125E-2,-3.7884563E-1,-1.598133E-1,-4.164967E-1,2.00001E0,2.00001E0,2.00001E0,2.00001E0,2.040639E0,2.00001E0,8.4671235E-1,1.10542566E-1,1.1818195E-2,4.3237913E-2,-8.119779E-2,-4.8111133E-2,2.0862456E-2,-4.3856002E-2,5.9903115E-3,-4.798309E-2,-3.3866357E-2,-6.8640135E-2,-2.3805195E-2,-1.1869014E-2,1.2663699E-2,-1.3319648E-2,-1.4105569E-2,-5.067578E-3,2.6224995E-2,2.3986988E-3,-4.0807214E-2,-1.8138418E-2,-2.0964693E-3,1.9985987E-2,5.533255E-3,2.1309093E-2,-1.798196E-2,4.785633E-3,5.8824934E-2,1.49866585E-2,5.5290427E-4,7.645819E-3,3.1122684E-3,1.912176E-2,-6.591426E-4,1.5043043E-2,4.6169283E-3,2.9140139E-2,-4.5275213E-3,1.5568906E-2,5.69129E-4,2.4332276E-2,2.8932273E-2,1.3049403E-2,1.3488412E-2,4.8927125E-2,2.4694825E-2,3.3662133E-2,4.7085505E-2,2.9950118E-2],"split_indices":[6,1,6,1,8,6,6,7,8,3,1,8,7,6,6,8,12,6,7,9,0,0,0,9,8,6,8,7,727,0,0,6,1,0,4,3,6,0,15,6,20,6,1,1,3,0,4,6,1,22,21,36,629,7,629,6,3,0,0,0,0,0,0,0,0,0,0,0,0,0,0,0,0,0,0,0,0,0,0,0,0,0,0,0,0,0,0,0,0,0,0,0,0,0,0,0,0,0,0,0,0,0,0,0,0],"split_type":[0,0,0,0,0,0,0,0,0,0,0,0,0,0,0,0,0,0,0,0,0,0,0,0,0,0,0,0,0,0,0,0,0,0,0,0,0,0,0,0,0,0,0,0,0,0,0,0,0,0,0,0,0,0,0,0,0,0,0,0,0,0,0,0,0,0,0,0,0,0,0,0,0,0,0,0,0,0,0,0,0,0,0,0,0,0,0,0,0,0,0,0,0,0,0,0,0,0,0,0,0,0,0,0,0],"sum_hessian":[1.751E3,9.64E2,7.87E2,4.95E2,4.69E2,5.46E2,2.41E2,9.6E1,3.99E2,3.99E2,7E1,3.35E2,2.11E2,1.71E2,7E1,7.3E1,2.3E1,3.5E2,4.9E1,3.34E2,6.5E1,6.3E1,7E0,2.35E2,1E2,1.48E2,6.3E1,9.6E1,7.5E1,4.8E1,2.2E1,6.6E1,7E0,4E0,1.9E1,1.61E2,1.89E2,3E0,4.6E1,2.76E2,5.8E1,5.6E1,9E0,5.7E1,6E0,2E0,5E0,2.08E2,2.7E1,7.3E1,2.7E1,9E1,5.8E1,5.3E1,1E1,7.3E1,2.3E1,1E0,7.4E1,3.4E1,3.2E1,4E0,3E0,1.5E1,4E0,1.53E2,8E0,1.44E2,4.5E1,3E0,4.3E1,1.45E2,1.31E2,2E0,5.6E1,2.5E1,3.1E1,6E0,3E0,2.9E1,2.8E1,5E0,1E0,4E0,1E0,1.29E2,7.9E1,6E0,2.1E1,8E0,6.5E1,3E0,2.4E1,6E0,8.4E1,1E0,5.7E1,4.9E1,4E0,1E0,9E0,2E1,5.3E1,1.2E1,1.1E1],"tree_param":{"num_deleted":"0","num_feature":"729","num_nodes":"105","size_leaf_vector":"1"}},{"base_weights":[-3.89053E-5,-1.8931654E-1,1.8902296E-1,-3.5885495E-1,-1.24775544E-1,9.462006E-2,3.6754653E-1,-4.0125385E-1,-1.289619E-1,-1.8547484E-1,-1.8275583E-2,7.846203E-2,3.4941515E-1,2.9711288E-1,4.7395557E-1,-5.590622E-1,-3.3733323E-1,-3.67737E-2,-3.1050956E-1,-3.074329E-1,-1.3426061E-1,-8.241795E-2,7.345129E-2,4.0032685E-2,1.5179972E-1,2.789892E-1,5.4342594E-2,2.546332E-1,3.284595E-1,4.3651724E-1,6.1124094E-2,-4.355567E-3,-6.242364E-1,-3.8190043E-1,-2.3745713E-1,-4.474799E-2,3.3209573E-2,-3.9130488E-1,-1.5103085E-1,-3.2130328E-1,7.342855E-3,-1.7473015E-1,-9.866895E-2,-1.05715826E-1,5.1309176E-2,3.8294888E-1,4.856313E-2,1.6165052E-2,1.224723E-1,2.0962939E-1,1.15903355E-1,1.9420147E-2,2.989779E-1,2.3178741E-1,4.1672196E-2,8.916402E-3,3.2993138E-1,3.3671908E-2,4.6130177E-1,7.760414E-3,-2.480569E-2,1.1390954E-2,-6.727436E-2,-3.868744E-2,5.5261375E-3,5.298853E-4,-2.427349E-2,-3.593377E-2,1.0639908E-2,-9.99161E-3,-4.186581E-2,-1.7492648E-2,-1.5776396E-3,-2.598219E-2,-4.3287456E-2,-4.1950783E-3,4.247737E-3,-1.8162066E-2,1.8439865E-2,-3.6481053E-2,-8.920288E-3,-3.9755058E-2,-9.718348E-3,2.5481049E-2,1.6476907E-3,6.590438E-3,4.2480554E-2,6.9773416E-3,-7.1562226E-3,-2.190327E-2,2.394511E-3,9.898041E-3,2.1025358E-2,1.3376315E-2,2.439094E-2,6.209891E-3,1.6427958E-2,5.3302287E-3,-2.4172068E-3,1.05886785E-2,3.1116469E-2,5.406618E-4,2.3477355E-2,9.451175E-3,3.3132654E-2,1.236279E-2,4.641943E-2],"categories":[],"categories_nodes":[],"categories_segments":[],"categories_sizes":[],"default_left":[0,0,0,0,0,0,0,0,0,0,0,0,0,0,0,0,0,0,0,0,0,0,0,0,0,0,0,0,0,0,0,0,0,0,0,0,0,0,0,0,0,0,0,0,0,0,0,0,0,0,0,0,0,0,0,0,0,0,0,0,0,0,0,0,0,0,0,0,0,0,0,0,0,0,0,0,0,0,0,0,0,0,0,0,0,0,0,0,0,0,0,0,0,0,0,0,0,0,0,0,0,0,0,0,0,0,0],"id":15,"left_children":[1,3,5,7,9,11,13,15,17,19,21,23,25,27,29,31,33,35,37,39,41,43,45,47,49,51,-1,53,55,57,-1,59,61,63,65,-1,67,69,71,73,75,77,79,81,83,85,87,89,91,93,95,97,99,101,-1,-1,103,-1,105,-1,-1,-1,-1,-1,-1,-1,-1,-1,-1,-1,-1,-1,-1,-1,-1,-1,-1,-1,-1,-1,-1,-1,-1,-1,-1,-1,-1,-1,-1,-1,-1,-1,-1,-1,-1,-1,-1,-1,-1,-1,-1,-1,-1,-1,-1,-1,-1],"loss_changes":[6.2731422E1,9.540573E0,1.4745426E1,2.2973309E0,4.108014E0,2.3398523E0,2.1300964E0,1.8591118E0,6.4130694E-1,2.48835E0,1.3710439E0,1.5214522E0,3.1294537E-1,1.6270828E-1,3.448124E-1,2.0579777E0,5.636425E-1,7.9090977E-1,1.0840762E-1,5.2191925E-1,3.961482E-1,4.3225563E-1,7.208741E-1,7.0046717E-1,3.618164E-1,1.3428211E-1,0E0,2.1076155E-1,6.860733E-3,8.4596634E-2,0E0,1.5906605E-1,1.902708E0,2.3882198E-1,6.2784195E-2,0E0,7.2776127E-1,2.1932721E-2,1.6632214E-2,6.695194E-1,1.2173407E-2,3.6260986E-1,3.5795164E-1,2.526989E-1,1.4465818E-1,6.4896464E-2,2.3430347E-1,5.139435E-1,1.4416075E-1,1.494224E-1,2.9433262E-1,5.7194186E-3,2.5880814E-2,4.9431324E-2,0E0,0E0,2.1858215E-3,0E0,1.5867233E-2,0E0,0E0,0E0,0E0,0E0,0E0,0E0,0E0,0E0,0E0,0E0,0E0,0E0,0E0,0E0,0E0,0E0,0E0,0E0,0E0,0E0,0E0,0E0,0E0,0E0,0E0,0E0,0E0,0E0,0E0,0E0,0E0,0E0,0E0,0E0,0E0,0E0,0E0,0E0,0E0,0E0,0E0,0E0,0E0,0E0,0E0,0E0,0E0],"parents":[2147483647,0,0,1,1,2,2,3,3,4,4,5,5,6,6,7,7,8,8,9,9,10,10,11,11,12,12,13,13,14,14,15,15,16,16,17,17,18,18,19,19,20,20,21,21,22,22,23,23,24,24,25,25,27,27,28,28,29,29,31,31,32,32,33,33,34,34,36,36,37,37,38,38,39,39,40,40,41,41,42,42,43,43,44,44,45,45,46,46,47,47,48,48,49,49,50,50,51,51,52,52,53,53,56,56,58,58],"right_children":[2,4,6,8,10,12,14,16,18,20,22,24,26,28,30,32,34,36,38,40,42,44,46,48,50,52,-1,54,56,58,-1,60,62,64,66,-1,68,70,72,74,76,78,80,82,84,86,88,90,92,94,96,98,100,102,-1,-1,104,-1,106,-1,-1,-1,-1,-1,-1,-1,-1,-1,-1,-1,-1,-1,-1,-1,-1,-1,-1,-1,-1,-1,-1,-1,-1,-1,-1,-1,-1,-1,-1,-1,-1,-1,-1,-1,-1,-1,-1,-1,-1,-1,-1,-1,-1,-1,-1,-1,-1],"split_conditions":[-3.7011367E-1,-6.004874E-1,3.7571144E-1,-1.0452085E-1,-3.193774E-1,1.8354973E0,1.670549E0,-6.420172E-1,-6.2729204E-1,-5.166913E-1,-4.7702762E-1,-5.998063E-2,1.3590634E0,7.95024E-1,4.386067E0,2.00001E0,-5.645893E-1,2.00001E0,-6.068905E-1,-1.1916939E-1,-4.548035E-1,-3.794137E-2,2.00001E0,1.17958084E-1,-2.0694615E-1,2.00001E0,5.4342594E-2,1.1737444E0,2.00001E0,1.4950103E0,6.1124094E-2,-6.582468E-1,2.00001E0,1.2573123E-1,2.00001E0,-4.474799E-2,2.00001E0,2.00001E0,-1.9316413E-1,-5.1275E-1,-1.05954185E-2,-3.773891E-2,2.00001E0,2.00001E0,2.00001E0,-5.1275E-1,-3.431032E-1,2.00001E0,9.710065E-1,1.858796E-2,4.3470865E-1,-4.1096196E-1,2.00001E0,2.00001E0,4.1672196E-2,8.916402E-3,-4.7882068E-1,3.3671908E-2,2.00001E0,7.760414E-3,-2.480569E-2,1.1390954E-2,-6.727436E-2,-3.868744E-2,5.5261375E-3,5.298853E-4,-2.427349E-2,-3.593377E-2,1.0639908E-2,-9.99161E-3,-4.186581E-2,-1.7492648E-2,-1.5776396E-3,-2.598219E-2,-4.3287456E-2,-4.1950783E-3,4.247737E-3,-1.8162066E-2,1.8439865E-2,-3.6481053E-2,-8.920288E-3,-3.9755058E-2,-9.718348E-3,2.5481049E-2,1.6476907E-3,6.590438E-3,4.2480554E-2,6.9773416E-3,-7.1562226E-3,-2.190327E-2,2.394511E-3,9.898041E-3,2.1025358E-2,1.3376315E-2,2.439094E-2,6.209891E-3,1.6427958E-2,5.3302287E-3,-2.4172068E-3,1.05886785E-2,3.1116469E-2,5.406618E-4,2.3477355E-2,9.451175E-3,3.3132654E-2,1.236279E-2,4.641943E-2],"split_indices":[6,1,6,7,8,8,6,1,6,6,1,6,2,6,6,25,6,35,6,0,6,2,19,9,3,21,0,8,37,1,0,1,21,8,568,0,30,718,2,0,0,0,37,10,20,0,0,37,2,6,1,0,31,629,0,0,0,0,90,0,0,0,0,0,0,0,0,0,0,0,0,0,0,0,0,0,0,0,0,0,0,0,0,0,0,0,0,0,0,0,0,0,0,0,0,0,0,0,0,0,0,0,0,0,0,0,0],"split_type":[0,0,0,0,0,0,0,0,0,0,0,0,0,0,0,0,0,0,0,0,0,0,0,0,0,0,0,0,0,0,0,0,0,0,0,0,0,0,0,0,0,0,0,0,0,0,0,0,0,0,0,0,0,0,0,0,0,0,0,0,0,0,0,0,0,0,0,0,0,0,0,0,0,0,0,0,0,0,0,0,0,0,0,0,0,0,0,0,0,0,0,0,0,0,0,0,0,0,0,0,0,0,0,0,0,0,0],"sum_hessian":[1.751E3,8.75E2,8.76E2,2.4E2,6.35E2,5.74E2,3.02E2,2.02E2,3.8E1,4.04E2,2.31E2,5.41E2,3.3E1,1.84E2,1.18E2,5.6E1,1.46E2,2.6E1,1.2E1,1.18E2,2.86E2,1.36E2,9.5E1,3.56E2,1.85E2,2.6E1,7E0,8.2E1,1.02E2,9.6E1,2.2E1,6E0,5E1,9.9E1,4.7E1,3E0,2.3E1,7E0,5E0,1.13E2,5E0,1.32E2,1.54E2,1.16E2,2E1,6E0,8.9E1,2.77E2,7.9E1,6.9E1,1.16E2,2E0,2.4E1,7.4E1,8E0,1E0,1.01E2,2.2E1,7.4E1,5E0,1E0,3E0,4.7E1,9.8E1,1E0,1E0,4.6E1,3E0,2E1,1E0,6E0,4E0,1E0,7.5E1,3.8E1,2E0,3E0,1.3E2,2E0,4E0,1.5E2,2E0,1.14E2,2E0,1.8E1,1E0,5E0,7.6E1,1.3E1,8E0,2.69E2,6.4E1,1.5E1,2.3E1,4.6E1,5.6E1,6E1,1E0,1E0,2E0,2.2E1,1E0,7.3E1,1E0,1E2,1E0,7.3E1],"tree_param":{"num_deleted":"0","num_feature":"729","num_nodes":"107","size_leaf_vector":"1"}},{"base_weights":[1.2267466E-5,-1.5453167E-1,1.8926974E-1,-2.507996E-1,-5.2609507E-2,1.1385183E-1,3.5895705E-1,-4.1759855E-1,-2.0972385E-1,-9.141143E-2,9.5612176E-2,7.038348E-2,1.8220802E-1,3.170389E-1,4.8944512E-1,-4.9983215E-1,-1.466449E-1,-2.4700543E-1,-1.3715294E-1,-6.78392E-2,-2.0003012E-1,6.834328E-2,3.938443E-1,3.752053E-2,1.4036568E-1,1.5323502E-1,2.8066143E-1,2.7754083E-1,3.5608637E-1,4.506708E-1,6.46167E-2,-5.4715914E-1,-4.0989697E-2,-4.9438436E-2,-5.2377798E-2,-3.9439625E-1,-1.9957945E-1,2.4571669E-1,-1.4748128E-1,-8.4989406E-2,2.2355666E-2,-2.4179193E-1,5.8015205E-2,8.7255776E-2,-9.357347E-2,5.3141834E-3,4.349244E-1,2.5185104E-2,1.2933187E-1,1.1070307E-1,2.2010292E-1,-9.865153E-2,1.5847619E-1,2.4393322E-1,4.086325E-1,2.5479192E-1,3.361191E-1,9.148622E-3,3.5803145E-1,1.26266E-2,4.547987E-2,-6.758129E-2,-3.941276E-2,2.3567056E-2,-3.765676E-2,5.9233904E-3,-3.990597E-2,-3.4798175E-2,-7.773368E-2,-2.2292672E-2,-1.1368826E-2,6.751442E-3,2.8261265E-2,1.159814E-2,-1.627955E-2,-1.2529616E-2,-4.275909E-3,-5.4127434E-3,4.2829625E-3,-4.2145524E-2,-1.896669E-2,-1.8515111E-3,1.7743945E-2,5.275519E-3,1.9887587E-2,-1.5887095E-2,3.498173E-4,1.7739026E-2,5.0246E-2,1.5630316E-3,1.1739593E-2,5.495306E-3,1.8517138E-2,-1.1021879E-3,1.2438116E-2,3.9503933E-3,2.4019465E-2,-1.825192E-2,-9.855906E-4,-2.0040631E-2,1.6192859E-2,2.5548382E-2,1.1429234E-2,1.1258173E-2,4.3156613E-2,2.2184607E-2,2.8900206E-2,3.955798E-2,2.436934E-2,9.5436815E-3,3.59931E-2],"categories":[],"categories_nodes":[],"categories_segments":[],"categories_sizes":[],"default_left":[0,0,0,0,0,0,0,0,0,0,0,0,0,0,0,0,0,0,0,0,0,0,0,0,0,0,0,0,0,0,0,0,0,0,0,0,0,0,0,0,0,0,0,0,0,0,0,0,0,0,0,0,0,0,0,0,0,0,0,0,0,0,0,0,0,0,0,0,0,0,0,0,0,0,0,0,0,0,0,0,0,0,0,0,0,0,0,0,0,0,0,0,0,0,0,0,0,0,0,0,0,0,0,0,0,0,0,0,0,0,0],"id":16,"left_children":[1,3,5,7,9,11,13,15,17,19,21,23,25,27,29,31,33,35,37,39,41,43,45,47,49,51,53,55,57,59,-1,61,63,-1,65,67,69,71,73,75,77,79,81,83,85,-1,87,89,91,93,95,97,99,101,103,105,107,-1,109,-1,-1,-1,-1,-1,-1,-1,-1,-1,-1,-1,-1,-1,-1,-1,-1,-1,-1,-1,-1,-1,-1,-1,-1,-1,-1,-1,-1,-1,-1,-1,-1,-1,-1,-1,-1,-1,-1,-1,-1,-1,-1,-1,-1,-1,-1,-1,-1,-1,-1,-1,-1],"loss_changes":[5.1272785E1,9.455227E0,1.0043533E1,3.310709E0,2.7118442E0,1.6124935E0,1.1685219E0,2.088007E0,1.0483437E0,9.414532E-1,7.700645E-1,7.6747346E-1,5.617204E-1,1.8803978E-1,5.51672E-2,1.5845299E0,7.6083463E-1,1.7596989E0,5.819466E-1,4.7833312E-1,7.2527266E-1,2.8682947E-1,8.88561E-2,2.572251E-1,2.2871184E-1,2.3478436E-1,1.2122822E-1,4.3621063E-2,1.3566017E-2,8.190155E-3,0E0,1.0527458E0,8.314745E-1,0E0,7.975129E-1,8.492613E-1,3.7772655E-1,7.2193444E-3,5.635693E-1,4.355036E-1,8.061387E-2,4.5386624E-1,9.468107E-2,3.0528682E-1,6.394108E-2,0E0,3.261757E-2,1.7790027E-1,1.01962715E-1,1.3456804E-1,9.2110634E-2,2.7989428E-2,2.3440933E-1,2.91996E-2,1.251924E-2,1.928997E-2,3.5496473E-2,0E0,1.0043144E-2,0E0,0E0,0E0,0E0,0E0,0E0,0E0,0E0,0E0,0E0,0E0,0E0,0E0,0E0,0E0,0E0,0E0,0E0,0E0,0E0,0E0,0E0,0E0,0E0,0E0,0E0,0E0,0E0,0E0,0E0,0E0,0E0,0E0,0E0,0E0,0E0,0E0,0E0,0E0,0E0,0E0,0E0,0E0,0E0,0E0,0E0,0E0,0E0,0E0,0E0,0E0,0E0],"parents":[2147483647,0,0,1,1,2,2,3,3,4,4,5,5,6,6,7,7,8,8,9,9,10,10,11,11,12,12,13,13,14,14,15,15,16,16,17,17,18,18,19,19,20,20,21,21,22,22,23,23,24,24,25,25,26,26,27,27,28,28,29,29,31,31,32,32,34,34,35,35,36,36,37,37,38,38,39,39,40,40,41,41,42,42,43,43,44,44,46,46,47,47,48,48,49,49,50,50,51,51,52,52,53,53,54,54,55,55,56,56,58,58],"right_children":[2,4,6,8,10,12,14,16,18,20,22,24,26,28,30,32,34,36,38,40,42,44,46,48,50,52,54,56,58,60,-1,62,64,-1,66,68,70,72,74,76,78,80,82,84,86,-1,88,90,92,94,96,98,100,102,104,106,108,-1,110,-1,-1,-1,-1,-1,-1,-1,-1,-1,-1,-1,-1,-1,-1,-1,-1,-1,-1,-1,-1,-1,-1,-1,-1,-1,-1,-1,-1,-1,-1,-1,-1,-1,-1,-1,-1,-1,-1,-1,-1,-1,-1,-1,-1,-1,-1,-1,-1,-1,-1,-1,-1],"split_conditions":[-3.193728E-1,-5.317635E-1,6.6432464E-1,-6.3339496E-1,8.0761135E-1,1.858796E-2,2.740972E0,-2.17424E-1,-3.3032715E-1,-3.8933328E-1,-1.6306788E-1,-2.3708287E-1,2.723011E-2,1.4331362E0,4.927435E0,-2.661965E-1,2.00001E0,-5.731406E-1,2.00001E0,1.17958084E-1,-3.773891E-2,